{"learner":{"attributes":{"scikit_learn":"{\"_estimator_type\": \"classifier\"}"},"feature_names":["production_score","games_played","combine_speed_score","conference_tier","is_award_winner","is_all_american","position_qb","position_rb","position_wr","position_te","position_db","position_lb","position_dl","position_ol","position_other"],"feature_types":["float","float","float","float","int","int","int","int","int","int","int","int","int","int","int"],"gradient_booster":{"model":{"gbtree_model_param":{"num_parallel_tree":"1","num_trees":"300"},"iteration_indptr":[0,1,2,3,4,5,6,7,8,9,10,11,12,13,14,15,16,17,18,19,20,21,22,23,24,25,26,27,28,29,30,31,32,33,34,35,36,37,38,39,40,41,42,43,44,45,46,47,48,49,50,51,52,53,54,55,56,57,58,59,60,61,62,63,64,65,66,67,68,69,70,71,72,73,74,75,76,77,78,79,80,81,82,83,84,85,86,87,88,89,90,91,92,93,94,95,96,97,98,99,100,101,102,103,104,105,106,107,108,109,110,111,112,113,114,115,116,117,118,119,120,121,122,123,124,125,126,127,128,129,130,131,132,133,134,135,136,137,138,139,140,141,142,143,144,145,146,147,148,149,150,151,152,153,154,155,156,157,158,159,160,161,162,163,164,165,166,167,168,169,170,171,172,173,174,175,176,177,178,179,180,181,182,183,184,185,186,187,188,189,190,191,192,193,194,195,196,197,198,199,200,201,202,203,204,205,206,207,208,209,210,211,212,213,214,215,216,217,218,219,220,221,222,223,224,225,226,227,228,229,230,231,232,233,234,235,236,237,238,239,240,241,242,243,244,245,246,247,248,249,250,251,252,253,254,255,256,257,258,259,260,261,262,263,264,265,266,267,268,269,270,271,272,273,274,275,276,277,278,279,280,281,282,283,284,285,286,287,288,289,290,291,292,293,294,295,296,297,298,299,300],"tree_info":[0,0,0,0,0,0,0,0,0,0,0,0,0,0,0,0,0,0,0,0,0,0,0,0,0,0,0,0,0,0,0,0,0,0,0,0,0,0,0,0,0,0,0,0,0,0,0,0,0,0,0,0,0,0,0,0,0,0,0,0,0,0,0,0,0,0,0,0,0,0,0,0,0,0,0,0,0,0,0,0,0,0,0,0,0,0,0,0,0,0,0,0,0,0,0,0,0,0,0,0,0,0,0,0,0,0,0,0,0,0,0,0,0,0,0,0,0,0,0,0,0,0,0,0,0,0,0,0,0,0,0,0,0,0,0,0,0,0,0,0,0,0,0,0,0,0,0,0,0,0,0,0,0,0,0,0,0,0,0,0,0,0,0,0,0,0,0,0,0,0,0,0,0,0,0,0,0,0,0,0,0,0,0,0,0,0,0,0,0,0,0,0,0,0,0,0,0,0,0,0,0,0,0,0,0,0,0,0,0,0,0,0,0,0,0,0,0,0,0,0,0,0,0,0,0,0,0,0,0,0,0,0,0,0,0,0,0,0,0,0,0,0,0,0,0,0,0,0,0,0,0,0,0,0,0,0,0,0,0,0,0,0,0,0,0,0,0,0,0,0,0,0,0,0,0,0,0,0,0,0,0,0,0,0,0,0,0,0,0,0,0,0,0,0,0,0,0,0,0,0],"trees":[{"base_weights":[7.734219E-3,-3.8372195E-1,4.2050657E-1,-1.9779813E-1,-8.472017E-1,1.1573942E0,1.6351657E-1,2.4156526E-1,-2.9262358E-1,-9.6632373E-1,-7.30472E-2,2.2619851E-1,1.307576E0,4.3173677E-1,-1.2656818E-1,-4.535868E-3,2.916625E-2,-1.2814767E-2,-7.674691E-2,-2.6788533E-2,-5.3484496E-2,8.30298E-3,-2.332247E-2,3.9248757E-2,-3.1644665E-2,4.667479E-2,7.771351E-2,-4.182644E-3,2.8179297E-2,-2.1250157E-2,9.643949E-3],"categories":[],"categories_nodes":[],"categories_segments":[],"categories_sizes":[],"default_left":[0,0,0,0,0,0,0,0,0,0,0,0,0,0,0,0,0,0,0,0,0,0,0,0,0,0,0,0,0,0,0],"id":0,"left_children":[1,3,5,7,9,11,13,15,17,19,21,23,25,27,29,-1,-1,-1,-1,-1,-1,-1,-1,-1,-1,-1,-1,-1,-1,-1,-1],"loss_changes":[8.318691E1,2.2603058E1,4.7264095E1,7.9823585E0,6.87801E0,8.742531E0,1.4600788E1,3.9431782E0,6.6759596E0,2.3294487E0,1.1243912E0,5.385959E0,3.6656876E0,6.663372E0,8.718188E0,0E0,0E0,0E0,0E0,0E0,0E0,0E0,0E0,0E0,0E0,0E0,0E0,0E0,0E0,0E0,0E0],"parents":[2147483647,0,0,1,1,2,2,3,3,4,4,5,5,6,6,7,7,8,8,9,9,10,10,11,11,12,12,13,13,14,14],"right_children":[2,4,6,8,10,12,14,16,18,20,22,24,26,28,30,-1,-1,-1,-1,-1,-1,-1,-1,-1,-1,-1,-1,-1,-1,-1,-1],"split_conditions":[6.51E1,8E0,3E0,2E0,8.05E1,4.27E1,7E0,4.99E1,6.5E1,1E1,9.49E1,3.96E1,7.81E1,4.61E1,7.97E1,-4.535868E-3,2.916625E-2,-1.2814767E-2,-7.674691E-2,-2.6788533E-2,-5.3484496E-2,8.30298E-3,-2.332247E-2,3.9248757E-2,-3.1644665E-2,4.667479E-2,7.771351E-2,-4.182644E-3,2.8179297E-2,-2.1250157E-2,9.643949E-3],"split_indices":[0,3,3,3,2,2,3,0,0,1,2,2,0,2,0,0,0,0,0,0,0,0,0,0,0,0,0,0,0,0,0],"split_type":[0,0,0,0,0,0,0,0,0,0,0,0,0,0,0,0,0,0,0,0,0,0,0,0,0,0,0,0,0,0,0],"sum_hessian":[5.1282837E2,2.6324658E2,2.4958176E2,1.8889755E2,7.434904E1,6.3629173E1,1.8595259E2,3.325707E1,1.5564047E2,6.421917E1,1.01298685E1,9.184881E0,5.4444294E1,9.636375E1,8.958884E1,1.7234776E1,1.6022291E1,1.5239052E2,3.2499578E0,1.3629823E1,5.0589344E1,6.6599135E0,3.469955E0,5.617427E0,3.5674536E0,2.3537195E1,3.0907099E1,1.9704744E1,7.6659004E1,4.61469E1,4.3441936E1],"tree_param":{"num_deleted":"0","num_feature":"15","num_nodes":"31","size_leaf_vector":"1"}},{"base_weights":[-8.5070105E-3,-2.314488E-1,7.060779E-1,-3.4677807E-2,-7.220689E-1,1.4161917E0,4.1568702E-1,-1.9582957E-1,3.1072113E-1,-8.1718487E-1,-2.4156982E-1,1.8923853E-2,1.5148362E0,2.1760118E-1,1.0547236E0,-8.119166E-3,-6.7293994E-2,3.1753045E-2,6.5129795E-3,-4.993652E-2,-2.575688E-2,8.949198E-4,-2.5245447E-2,8.125333E-2,3.89189E-2,3.5438358E-4,3.1730678E-2,6.263514E-2,2.061308E-2],"categories":[],"categories_nodes":[],"categories_segments":[],"categories_sizes":[],"default_left":[0,0,0,0,0,0,0,0,0,0,0,0,0,0,0,0,0,0,0,0,0,0,0,0,0,0,0,0,0],"id":1,"left_children":[1,3,5,7,9,11,13,15,17,19,21,-1,23,25,27,-1,-1,-1,-1,-1,-1,-1,-1,-1,-1,-1,-1,-1,-1],"loss_changes":[8.206597E1,3.7877007E1,2.4672096E1,1.5716771E1,4.936699E0,3.0237122E0,1.095553E1,7.1821346E0,5.177352E0,4.60458E0,1.3743908E0,0E0,1.3130493E0,6.0275025E0,2.10993E0,0E0,0E0,0E0,0E0,0E0,0E0,0E0,0E0,0E0,0E0,0E0,0E0,0E0,0E0],"parents":[2147483647,0,0,1,1,2,2,3,3,4,4,5,5,6,6,7,7,8,8,9,9,10,10,12,12,13,13,14,14],"right_children":[2,4,6,8,10,12,14,16,18,20,22,-1,24,26,28,-1,-1,-1,-1,-1,-1,-1,-1,-1,-1,-1,-1,-1,-1],"split_conditions":[7.97E1,8E0,3E0,6.51E1,7.7E1,4.04E1,7.66E1,6.5E1,3E0,6.2E1,1E1,1.8923853E-2,9.93E1,9.53E1,9E0,-8.119166E-3,-6.7293994E-2,3.1753045E-2,6.5129795E-3,-4.993652E-2,-2.575688E-2,8.949198E-4,-2.5245447E-2,8.125333E-2,3.89189E-2,3.5438358E-4,3.1730678E-2,6.263514E-2,2.061308E-2],"split_indices":[0,3,3,0,2,2,2,0,3,0,3,0,0,0,3,0,0,0,0,0,0,0,0,0,0,0,0,0,0],"split_type":[0,0,0,0,0,0,0,0,0,0,0,0,0,0,0,0,0,0,0,0,0,0,0,0,0,0,0,0,0],"sum_hessian":[5.1310535E2,3.9160535E2,1.2149999E2,2.802695E2,1.1133586E2,3.413946E1,8.7360535E1,1.914011E2,8.886841E1,9.2353546E1,1.898231E1,3.3834288E0,3.0756031E1,6.771198E1,1.9648554E1,1.8710094E2,4.300153E0,3.0869036E1,5.799937E1,5.6242462E1,3.6111088E1,1.0030893E1,8.951415E0,2.5702394E1,5.0536356E0,4.567275E1,2.203923E1,1.4293935E1,5.35462E0],"tree_param":{"num_deleted":"0","num_feature":"15","num_nodes":"29","size_leaf_vector":"1"}},{"base_weights":[2.9120928E-2,-1.7831662E-1,6.889731E-1,2.7254731E-3,-6.3463145E-1,1.0137874E0,2.739268E-1,-1.4593072E-1,3.0832094E-1,-7.5198215E-1,-3.1099385E-1,1.2742795E0,7.378512E-1,-6.938033E-2,8.449542E-1,-4.993194E-3,-7.069802E-2,7.0843926E-5,2.8280599E-2,-6.3277274E-2,-3.3658203E-2,1.06261885E-2,-2.6486544E-2,3.459009E-2,7.273516E-2,1.9677918E-2,4.6919607E-2,6.740067E-3,-4.663801E-2,6.646687E-2,1.1473817E-2],"categories":[],"categories_nodes":[],"categories_segments":[],"categories_sizes":[],"default_left":[0,0,0,0,0,0,0,0,0,0,0,0,0,0,0,0,0,0,0,0,0,0,0,0,0,0,0,0,0,0,0],"id":2,"left_children":[1,3,5,7,9,11,13,15,17,19,21,23,25,27,29,-1,-1,-1,-1,-1,-1,-1,-1,-1,-1,-1,-1,-1,-1,-1,-1],"loss_changes":[6.989793E1,3.210738E1,1.6186954E1,1.2730287E1,3.9588585E0,3.9577637E0,1.0838293E1,1.0871786E1,7.240364E0,2.399002E0,3.6719055E0,2.5327797E0,2.0793972E0,6.34256E0,5.8728085E0,0E0,0E0,0E0,0E0,0E0,0E0,0E0,0E0,0E0,0E0,0E0,0E0,0E0,0E0,0E0,0E0],"parents":[2147483647,0,0,1,1,2,2,3,3,4,4,5,5,6,6,7,7,8,8,9,9,10,10,11,11,12,12,13,13,14,14],"right_children":[2,4,6,8,10,12,14,16,18,20,22,24,26,28,30,-1,-1,-1,-1,-1,-1,-1,-1,-1,-1,-1,-1,-1,-1,-1,-1],"split_conditions":[8E1,8E0,6E0,6.51E1,7.23E1,3E0,6.86E1,6.49E1,6.2E1,3.23E1,9E0,5.58E1,1.2E1,1E0,9E0,-4.993194E-3,-7.069802E-2,7.0843926E-5,2.8280599E-2,-6.3277274E-2,-3.3658203E-2,1.06261885E-2,-2.6486544E-2,3.459009E-2,7.273516E-2,1.9677918E-2,4.6919607E-2,6.740067E-3,-4.663801E-2,6.646687E-2,1.1473817E-2],"split_indices":[0,3,3,0,2,3,2,0,2,0,3,2,1,6,3,0,0,0,0,0,0,0,0,0,0,0,0,0,0,0,0],"split_type":[0,0,0,0,0,0,0,0,0,0,0,0,0,0,0,0,0,0,0,0,0,0,0,0,0,0,0,0,0,0,0],"sum_hessian":[5.0876056E2,3.876309E2,1.2112966E2,2.7823547E2,1.0939541E2,6.7141945E1,5.3987717E1,1.8753299E2,9.07025E1,7.931304E1,3.0082365E1,3.2676407E1,3.4465534E1,3.426548E1,1.9722235E1,1.8199979E2,5.5331993E0,4.1821785E1,4.8880714E1,8.549527E0,7.076351E1,8.873424E0,2.120894E1,8.871162E0,2.3805243E1,1.3776404E1,2.068913E1,2.839434E1,5.871142E0,1.0387439E1,9.334796E0],"tree_param":{"num_deleted":"0","num_feature":"15","num_nodes":"31","size_leaf_vector":"1"}},{"base_weights":[-1.7665295E-2,-3.5347137E-1,3.6935493E-1,-2.1144934E-1,-7.1696293E-1,6.710102E-1,-1.5154201E-1,1.7516428E-1,-2.920875E-1,-5.768476E-2,-6.4023465E-1,1.0022707E0,4.4647664E-1,-6.64443E-2,-4.7881577E-2,-8.863239E-3,2.372502E-2,-1.7725622E-2,5.948746E-3,-1.5350284E-2,-3.6239855E-2,2.3484888E-2,6.171265E-2,1.651826E-2,4.2028945E-2,-1.4632451E-2,8.872376E-3],"categories":[],"categories_nodes":[],"categories_segments":[],"categories_sizes":[],"default_left":[0,0,0,0,0,0,0,0,0,0,0,0,0,0,0,0,0,0,0,0,0,0,0,0,0,0,0],"id":3,"left_children":[1,3,5,7,9,11,13,15,17,-1,19,21,23,25,-1,-1,-1,-1,-1,-1,-1,-1,-1,-1,-1,-1,-1],"loss_changes":[6.72535E1,1.415052E1,3.7880676E1,6.3059216E0,1.8555641E0,1.0890915E1,6.040669E0,3.802751E0,4.311556E0,0E0,1.6962948E0,6.9295807E0,3.9624023E0,4.551876E0,0E0,0E0,0E0,0E0,0E0,0E0,0E0,0E0,0E0,0E0,0E0,0E0,0E0],"parents":[2147483647,0,0,1,1,2,2,3,3,4,4,5,5,6,6,7,7,8,8,10,10,11,11,12,12,13,13],"right_children":[2,4,6,8,10,12,14,16,18,-1,20,22,24,26,-1,-1,-1,-1,-1,-1,-1,-1,-1,-1,-1,-1,-1],"split_conditions":[6.61E1,8E0,7E0,2E0,3.13E1,3E0,1.6E1,4.99E1,1E0,-5.768476E-2,1E1,7.65E1,9.25E1,7.97E1,-4.7881577E-2,-8.863239E-3,2.372502E-2,-1.7725622E-2,5.948746E-3,-1.5350284E-2,-3.6239855E-2,2.3484888E-2,6.171265E-2,1.651826E-2,4.2028945E-2,-1.4632451E-2,8.872376E-3],"split_indices":[0,3,3,3,0,3,1,0,7,0,1,0,0,0,0,0,0,0,0,0,0,0,0,0,0,0,0],"split_type":[0,0,0,0,0,0,0,0,0,0,0,0,0,0,0,0,0,0,0,0,0,0,0,0,0,0,0],"sum_hessian":[5.1547437E2,2.7604495E2,2.3942941E2,1.9962856E2,7.641639E1,1.5144077E2,8.798865E1,3.424952E1,1.6537903E2,9.321709E0,6.709468E1,5.9780773E1,9.165999E1,8.056586E1,7.4227934E0,1.5917067E1,1.8332455E1,1.4369476E2,2.1684275E1,1.4517422E1,5.2577263E1,1.9056515E1,4.072426E1,7.2220474E1,1.9439516E1,4.169483E1,3.8871025E1],"tree_param":{"num_deleted":"0","num_feature":"15","num_nodes":"27","size_leaf_vector":"1"}},{"base_weights":[2.015117E-2,-1.8601145E-1,5.389101E-1,-2.8889412E-1,6.8322405E-2,1.6035692E-1,7.6690686E-1,-3.3173797E-1,2.7386945E-1,-1.3197552E-1,2.7828753E-1,-8.191616E-2,5.1416504E-1,6.1326134E-1,1.3107731E0,-2.0408385E-2,-1.0397478E-3,2.3471927E-2,-1.4141005E-2,-9.6844435E-3,2.1345621E-2,4.0234752E-2,2.6020797E-3,4.1986767E-2,-1.38407415E-2,1.0239069E-3,3.0442331E-2,-1.4560777E-2,3.64756E-2,1.4083627E-2,8.032105E-2],"categories":[],"categories_nodes":[],"categories_segments":[],"categories_sizes":[],"default_left":[0,0,0,0,0,0,0,0,0,0,0,0,0,0,0,0,0,0,0,0,0,0,0,0,0,0,0,0,0,0,0],"id":4,"left_children":[1,3,5,7,9,11,13,15,17,19,21,23,25,27,29,-1,-1,-1,-1,-1,-1,-1,-1,-1,-1,-1,-1,-1,-1,-1,-1],"loss_changes":[5.4785275E1,9.613641E0,1.2449856E1,6.3896027E0,4.5117645E0,4.844168E0,6.7711945E0,5.7714825E0,2.2045076E0,1.9843699E0,6.183574E0,6.3603826E0,1.0582719E0,7.8420467E0,5.355404E0,0E0,0E0,0E0,0E0,0E0,0E0,0E0,0E0,0E0,0E0,0E0,0E0,0E0,0E0,0E0,0E0],"parents":[2147483647,0,0,1,1,2,2,3,3,4,4,5,5,6,6,7,7,8,8,9,9,10,10,11,11,12,12,13,13,14,14],"right_children":[2,4,6,8,10,12,14,16,18,20,22,24,26,28,30,-1,-1,-1,-1,-1,-1,-1,-1,-1,-1,-1,-1,-1,-1,-1,-1],"split_conditions":[7.67E1,6.51E1,5.76E1,1E0,6.33E1,9.19E1,1E0,7.66E1,5.93E1,1E0,6.86E1,7.88E1,3.23E1,7.81E1,1.3E1,-2.0408385E-2,-1.0397478E-3,2.3471927E-2,-1.4141005E-2,-9.6844435E-3,2.1345621E-2,4.0234752E-2,2.6020797E-3,4.1986767E-2,-1.38407415E-2,1.0239069E-3,3.0442331E-2,-1.4560777E-2,3.64756E-2,1.4083627E-2,8.032105E-2],"split_indices":[0,0,2,5,2,0,5,2,0,5,0,0,2,0,1,0,0,0,0,0,0,0,0,0,0,0,0,0,0,0,0],"split_type":[0,0,0,0,0,0,0,0,0,0,0,0,0,0,0,0,0,0,0,0,0,0,0,0,0,0,0,0,0,0,0],"sum_hessian":[5.103202E2,3.656477E2,1.4467249E2,2.6024002E2,1.0540771E2,5.502137E1,8.965111E1,2.4221074E2,1.802927E1,5.4135834E1,5.1271873E1,3.3114445E1,2.1906923E1,7.1562004E1,1.8089108E1,1.9417091E2,4.8039833E1,1.3458081E1,4.5711894E0,4.9340958E1,4.794874E0,1.4643664E1,3.662821E1,5.202744E0,2.7911703E1,3.7210388E0,1.8185884E1,7.978782E0,6.358322E1,4.4727945E0,1.3616313E1],"tree_param":{"num_deleted":"0","num_feature":"15","num_nodes":"31","size_leaf_vector":"1"}},{"base_weights":[1.7300779E-2,-1.9437554E-1,5.268898E-1,-5.145718E-2,-5.6304455E-1,8.0250555E-1,1.3083483E-1,-1.6664243E-1,3.0302054E-1,-7.2225785E-1,-2.3915127E-1,6.556093E-1,1.3365461E0,-1.0725641E-1,6.716158E-1,1.4581866E-2,-1.3138446E-2,-4.4561853E-3,2.3587937E-2,-5.0717868E-2,-2.7838502E-2,-5.5687977E-3,-5.463195E-2,2.2141194E-2,5.0550647E-2,2.1459082E-2,7.471563E-2,2.7307037E-3,-4.260315E-2,5.2272584E-2,-4.966268E-3],"categories":[],"categories_nodes":[],"categories_segments":[],"categories_sizes":[],"default_left":[0,0,0,0,0,0,0,0,0,0,0,0,0,0,0,0,0,0,0,0,0,0,0,0,0,0,0,0,0,0,0],"id":5,"left_children":[1,3,5,7,9,11,13,15,17,19,21,23,25,27,29,-1,-1,-1,-1,-1,-1,-1,-1,-1,-1,-1,-1,-1,-1,-1,-1],"loss_changes":[5.5726727E1,1.9206009E1,1.6444378E1,1.0837053E1,5.081253E0,6.1215096E0,8.235909E0,8.888676E0,4.352655E0,2.7131996E0,3.703086E0,4.991337E0,1.9755402E0,5.45809E0,5.729656E0,0E0,0E0,0E0,0E0,0E0,0E0,0E0,0E0,0E0,0E0,0E0,0E0,0E0,0E0,0E0,0E0],"parents":[2147483647,0,0,1,1,2,2,3,3,4,4,5,5,6,6,7,7,8,8,9,9,10,10,11,11,12,12,13,13,14,14],"right_children":[2,4,6,8,10,12,14,16,18,20,22,24,26,28,30,-1,-1,-1,-1,-1,-1,-1,-1,-1,-1,-1,-1,-1,-1,-1,-1],"split_conditions":[7.6E1,8E0,6E0,6.56E1,7.01E1,1E0,7.1E1,2E0,5.29E1,4.6E1,7.37E1,9.15E1,6.15E1,1E0,1E1,1.4581866E-2,-1.3138446E-2,-4.4561853E-3,2.3587937E-2,-5.0717868E-2,-2.7838502E-2,-5.5687977E-3,-5.463195E-2,2.2141194E-2,5.0550647E-2,2.1459082E-2,7.471563E-2,2.7307037E-3,-4.260315E-2,5.2272584E-2,-4.966268E-3],"split_indices":[0,3,3,0,2,5,2,3,2,0,0,0,2,6,3,0,0,0,0,0,0,0,0,0,0,0,0,0,0,0,0],"split_type":[0,0,0,0,0,0,0,0,0,0,0,0,0,0,0,0,0,0,0,0,0,0,0,0,0,0,0,0,0,0,0],"sum_hessian":[5.1467053E2,3.6406247E2,1.5060802E2,2.6317828E2,1.0088422E2,8.820186E1,6.2406166E1,1.9903351E2,6.414476E1,6.681207E1,3.4072136E1,7.092143E1,1.728042E1,4.3886005E1,1.852016E1,3.4157055E1,1.6487645E2,1.943952E1,4.470524E1,2.2307688E1,4.4504387E1,3.0618715E1,3.453421E0,4.576639E1,2.5155043E1,3.1106217E0,1.41698E1,3.68122E1,7.073805E0,1.2232463E1,6.287698E0],"tree_param":{"num_deleted":"0","num_feature":"15","num_nodes":"31","size_leaf_vector":"1"}},{"base_weights":[2.3446862E-2,-4.1611668E-2,6.0467774E-1,-1.850958E-1,1.2810951E-1,-1.6673662E-2,1.016652E0,2.0286198E-1,-2.9099792E-1,1.06439635E-1,3.603657E-2,-2.0375177E-1,2.713242E-2,1.1678281E0,1.1728223E-3,1.5297963E-2,-1.0249981E-2,-1.2297369E-2,-4.585822E-2,4.3117153E-3,3.1769548E-2,5.689298E-3,-2.9570987E-2,2.6426254E-2,6.148391E-2],"categories":[],"categories_nodes":[],"categories_segments":[],"categories_sizes":[],"default_left":[0,0,0,0,0,0,0,0,0,0,0,0,0,0,0,0,0,0,0,0,0,0,0,0,0],"id":6,"left_children":[1,3,5,7,9,11,13,15,17,19,-1,21,-1,23,-1,-1,-1,-1,-1,-1,-1,-1,-1,-1,-1],"loss_changes":[1.9349606E1,1.1238701E1,1.3202005E1,1.0328933E1,2.6402414E0,2.3622959E0,4.62545E0,2.341416E0,5.325224E0,2.139137E0,0E0,2.1418662E0,0E0,4.1271973E-1,0E0,0E0,0E0,0E0,0E0,0E0,0E0,0E0,0E0,0E0,0E0],"parents":[2147483647,0,0,1,1,2,2,3,3,4,4,5,5,6,6,7,7,8,8,9,9,11,11,13,13],"right_children":[2,4,6,8,10,12,14,16,18,20,-1,22,-1,24,-1,-1,-1,-1,-1,-1,-1,-1,-1,-1,-1],"split_conditions":[1E0,6.39E1,1.2E1,1E1,1E0,7.54E1,1.6E1,1E0,6.21E1,1E0,3.603657E-2,5.95E1,2.713242E-2,1.3E1,1.1728223E-3,1.5297963E-2,-1.0249981E-2,-1.2297369E-2,-4.585822E-2,4.3117153E-3,3.1769548E-2,5.689298E-3,-2.9570987E-2,2.6426254E-2,6.148391E-2],"split_indices":[5,2,1,1,13,2,1,6,2,14,0,2,0,1,0,0,0,0,0,0,0,0,0,0,0],"split_type":[0,0,0,0,0,0,0,0,0,0,0,0,0,0,0,0,0,0,0,0,0,0,0,0,0],"sum_hessian":[5.1003903E2,4.5953107E2,5.0507977E1,2.4896378E2,2.1056729E2,2.0519464E1,2.9988512E1,5.319086E1,1.9577292E2,2.0427727E2,6.2900157E0,1.5852836E1,4.666629E0,2.587431E1,4.1142015E0,4.2657856E1,1.0533002E1,1.8393237E2,1.1840533E1,1.9788145E2,6.3958163E0,9.1030445E0,6.7497916E0,3.1244316E0,2.274988E1],"tree_param":{"num_deleted":"0","num_feature":"15","num_nodes":"25","size_leaf_vector":"1"}},{"base_weights":[6.2210835E-3,-2.710287E-1,3.2356486E-1,-1.702357E-1,-6.893921E-1,5.9596896E-1,-1.5663068E-1,1.897617E-1,-2.3659611E-1,-7.496996E-1,-7.115267E-3,2.4118328E-2,7.092838E-1,-2.6117045E-1,3.7206036E-1,-7.793713E-3,2.515516E-2,-1.4511334E-2,7.6710507E-3,-4.173585E-2,-1.0907807E-2,-1.4490798E-2,2.855259E-2,2.9888693E-2,6.25527E-2,-2.0845203E-2,5.2216416E-3,-7.7262223E-3,3.2881334E-2],"categories":[],"categories_nodes":[],"categories_segments":[],"categories_sizes":[],"default_left":[0,0,0,0,0,0,0,0,0,0,0,0,0,0,0,0,0,0,0,0,0,0,0,0,0,0,0,0,0],"id":7,"left_children":[1,3,5,7,9,11,13,15,17,19,-1,21,23,25,27,-1,-1,-1,-1,-1,-1,-1,-1,-1,-1,-1,-1,-1,-1],"loss_changes":[4.5169876E1,1.1437401E1,3.1405602E1,5.3518414E0,1.6377335E0,9.893433E0,4.929615E0,3.8831406E0,3.977191E0,1.959383E0,0E0,4.686274E0,6.9616165E0,4.233375E0,2.3342319E0,0E0,0E0,0E0,0E0,0E0,0E0,0E0,0E0,0E0,0E0,0E0,0E0,0E0,0E0],"parents":[2147483647,0,0,1,1,2,2,3,3,4,4,5,5,6,6,7,7,8,8,9,9,11,11,12,12,13,13,14,14],"right_children":[2,4,6,8,10,12,14,16,18,20,-1,22,24,26,28,-1,-1,-1,-1,-1,-1,-1,-1,-1,-1,-1,-1,-1,-1],"split_conditions":[6.61E1,9E0,7E0,2E0,1E0,4.42E1,1E0,4.99E1,8.16E1,7.96E1,-7.115267E-3,8.6E1,1E0,7.13E1,5.58E1,-7.793713E-3,2.515516E-2,-1.4511334E-2,7.6710507E-3,-4.173585E-2,-1.0907807E-2,-1.4490798E-2,2.855259E-2,2.9888693E-2,6.25527E-2,-2.0845203E-2,5.2216416E-3,-7.7262223E-3,3.2881334E-2],"split_indices":[0,3,3,3,7,2,8,0,2,2,0,0,5,2,2,0,0,0,0,0,0,0,0,0,0,0,0,0,0],"split_type":[0,0,0,0,0,0,0,0,0,0,0,0,0,0,0,0,0,0,0,0,0,0,0,0,0,0,0,0,0],"sum_hessian":[5.1139365E2,2.730166E2,2.3837706E2,2.2114482E2,5.1871773E1,1.5194244E2,8.643461E1,3.4130627E1,1.870142E2,4.6387905E1,5.4838686E0,2.5329315E1,1.2661313E2,7.258763E1,1.3846977E1,1.6467953E1,1.7662676E1,1.6463182E2,2.2382372E1,3.949977E1,6.888133E0,1.6391098E1,8.938218E0,1.0674557E2,1.9867565E1,5.0805878E1,2.1781757E1,5.0301876E0,8.81679E0],"tree_param":{"num_deleted":"0","num_feature":"15","num_nodes":"29","size_leaf_vector":"1"}},{"base_weights":[-1.1115795E-2,2.020941E-1,-3.8753977E-1,4.512181E-1,4.976963E-2,-3.2933533E-1,-8.1781954E-1,3.2963243E-1,1.1093729E0,-2.8840095E-1,1.3955063E-1,-1.4654845E-1,-4.7748205E-1,-4.88486E-2,-5.666143E-1,2.0005042E-3,2.5615899E-2,3.9838042E-2,7.05243E-2,-2.3998048E-2,1.53607E-2,2.182713E-2,2.6526393E-3,-1.508339E-2,1.09314835E-2,-2.6351323E-2,-5.01147E-3,-7.7260295E-3,-3.8231988E-2],"categories":[],"categories_nodes":[],"categories_segments":[],"categories_sizes":[],"default_left":[0,0,0,0,0,0,0,0,0,0,0,0,0,0,0,0,0,0,0,0,0,0,0,0,0,0,0,0,0],"id":8,"left_children":[1,3,5,7,9,11,13,15,17,19,21,23,25,-1,27,-1,-1,-1,-1,-1,-1,-1,-1,-1,-1,-1,-1,-1,-1],"loss_changes":[4.1349293E1,1.246025E1,4.3960953E0,9.612282E0,6.2720566E0,4.418831E0,3.0690384E-1,5.6233807E0,6.6659164E-1,5.0977397E0,4.1607857E0,4.3512297E0,1.6501961E0,0E0,7.573118E-1,0E0,0E0,0E0,0E0,0E0,0E0,0E0,0E0,0E0,0E0,0E0,0E0,0E0,0E0],"parents":[2147483647,0,0,1,1,2,2,3,3,4,4,5,5,6,6,7,7,8,8,9,9,10,10,11,11,12,12,14,14],"right_children":[2,4,6,8,10,12,14,16,18,20,22,24,26,-1,28,-1,-1,-1,-1,-1,-1,-1,-1,-1,-1,-1,-1,-1,-1],"split_conditions":[7E0,3E0,1.6E1,1E0,4.66E1,9E0,5.8E1,5.76E1,7.79E1,1.5E1,1E1,7.1E1,1E0,-4.88486E-2,6.85E1,2.0005042E-3,2.5615899E-2,3.9838042E-2,7.05243E-2,-2.3998048E-2,1.53607E-2,2.182713E-2,2.6526393E-3,-1.508339E-2,1.09314835E-2,-2.6351323E-2,-5.01147E-3,-7.7260295E-3,-3.8231988E-2],"split_indices":[3,3,1,5,2,3,2,2,2,1,1,2,7,0,2,0,0,0,0,0,0,0,0,0,0,0,0,0,0],"split_type":[0,0,0,0,0,0,0,0,0,0,0,0,0,0,0,0,0,0,0,0,0,0,0,0,0,0,0,0,0],"sum_hessian":[5.132331E2,3.2794516E2,1.8528793E2,1.2369005E2,2.0425513E2,1.6476534E2,2.05226E1,1.0566976E2,1.802029E1,4.238706E1,1.6186807E2,7.464983E1,9.01155E1,1.0794532E1,9.728068E0,4.1343864E1,6.43259E1,1.0630198E1,7.390093E0,3.221904E1,1.0168021E1,3.5597275E1,1.2627079E2,5.2516098E1,2.2133732E1,7.930358E1,1.081192E1,3.7352562E0,5.992812E0],"tree_param":{"num_deleted":"0","num_feature":"15","num_nodes":"29","size_leaf_vector":"1"}},{"base_weights":[-1.48833245E-2,-2.1318516E-1,4.2223087E-1,-5.4978147E-2,-4.928535E-1,7.074474E-1,4.9643602E-2,-1.9371736E-1,1.7824265E-1,-3.333186E-1,-6.192078E-1,5.6474084E-1,1.1931276E0,-1.4242443E-1,4.2080617E-1,-1.2544093E-2,2.1547653E-2,2.798841E-2,-1.4515492E-3,4.6411618E-3,-2.2122215E-2,-3.2803487E-2,3.7479743E-3,5.801503E-2,2.4183962E-2,1.7598111E-2,6.89353E-2,-3.3199803E-3,-4.229095E-2,2.8712258E-2,-1.629253E-2],"categories":[],"categories_nodes":[],"categories_segments":[],"categories_sizes":[],"default_left":[0,0,0,0,0,0,0,0,0,0,0,0,0,0,0,0,0,0,0,0,0,0,0,0,0,0,0,0,0,0,0],"id":9,"left_children":[1,3,5,7,9,11,13,15,17,19,21,23,25,27,29,-1,-1,-1,-1,-1,-1,-1,-1,-1,-1,-1,-1,-1,-1,-1,-1],"loss_changes":[4.4220352E1,1.5498367E1,1.6884985E1,7.322565E0,2.346695E0,5.5716248E0,5.058106E0,5.168269E0,6.701207E0,2.7449093E0,1.8278542E0,2.8927193E0,2.5688877E0,2.454516E0,2.9552488E0,0E0,0E0,0E0,0E0,0E0,0E0,0E0,0E0,0E0,0E0,0E0,0E0,0E0,0E0,0E0,0E0],"parents":[2147483647,0,0,1,1,2,2,3,3,4,4,5,5,6,6,7,7,8,8,9,9,10,10,11,11,12,12,13,13,14,14],"right_children":[2,4,6,8,10,12,14,16,18,20,22,24,26,28,30,-1,-1,-1,-1,-1,-1,-1,-1,-1,-1,-1,-1,-1,-1,-1,-1],"split_conditions":[7.5E1,7E0,6E0,6.06E1,1.2E1,1E0,9.25E1,1E0,3E0,8E0,1E0,9E0,1.2E1,1.6E1,1E0,-1.2544093E-2,2.1547653E-2,2.798841E-2,-1.4515492E-3,4.6411618E-3,-2.2122215E-2,-3.2803487E-2,3.7479743E-3,5.801503E-2,2.4183962E-2,1.7598111E-2,6.89353E-2,-3.3199803E-3,-4.229095E-2,2.8712258E-2,-1.629253E-2],"split_indices":[0,3,3,0,1,5,0,5,3,3,5,1,1,1,6,0,0,0,0,0,0,0,0,0,0,0,0,0,0,0,0],"split_type":[0,0,0,0,0,0,0,0,0,0,0,0,0,0,0,0,0,0,0,0,0,0,0,0,0,0,0,0,0,0,0],"sum_hessian":[5.081147E2,3.498937E2,1.5822098E2,2.2423923E2,1.25654465E2,8.910903E1,6.911194E1,1.4070534E2,8.3533905E1,5.7143314E1,6.8511154E1,7.0544E1,1.8565035E1,4.59501E1,2.3161839E1,1.2945692E2,1.1248409E1,2.8807585E1,5.472632E1,1.1680338E1,4.5462975E1,6.510861E1,3.4025378E0,6.856377E0,6.3687622E1,3.879066E0,1.4685968E1,4.245576E1,3.494338E0,1.9404997E1,3.7568412E0],"tree_param":{"num_deleted":"0","num_feature":"15","num_nodes":"31","size_leaf_vector":"1"}},{"base_weights":[-1.9687187E-2,-1.753111E-1,4.8376453E-1,3.4790432E-1,-2.55031E-1,8.640722E-1,1.4823115E-1,-9.375507E-2,5.563809E-1,-1.6322802E-1,-5.7901293E-1,5.1160473E-2,6.2339646E-1,-3.0162665E-1,4.5783955E-1,4.699656E-2,-2.1656891E-2,3.3840697E-2,2.3301567E-3,-1.4229856E-2,2.0315435E-3,-4.988088E-2,-2.518313E-2,1.1342979E-2,4.581055E-2,-3.6765825E-2,1.0133152E-2,5.0479607E-3,3.8028903E-2],"categories":[],"categories_nodes":[],"categories_segments":[],"categories_sizes":[],"default_left":[0,0,0,0,0,0,0,0,0,0,0,0,0,0,0,0,0,0,0,0,0,0,0,0,0,0,0,0,0],"id":10,"left_children":[1,3,5,7,9,11,13,15,17,19,21,-1,23,25,27,-1,-1,-1,-1,-1,-1,-1,-1,-1,-1,-1,-1,-1,-1],"loss_changes":[3.998711E1,1.6346169E1,1.5251171E1,4.8362136E0,9.982521E0,1.5178566E0,9.224288E0,6.552319E0,2.1443214E0,6.5780015E0,1.8447227E0,0E0,2.6905394E0,6.097308E0,4.1410694E0,0E0,0E0,0E0,0E0,0E0,0E0,0E0,0E0,0E0,0E0,0E0,0E0,0E0,0E0],"parents":[2147483647,0,0,1,1,2,2,3,3,4,4,5,5,6,6,7,7,8,8,9,9,10,10,12,12,13,13,14,14],"right_children":[2,4,6,8,10,12,14,16,18,20,22,-1,24,26,28,-1,-1,-1,-1,-1,-1,-1,-1,-1,-1,-1,-1,-1,-1],"split_conditions":[7.97E1,2E0,5E0,4.99E1,9E0,3E0,5.62E1,3.13E1,7.82E1,6.31E1,3.94E1,5.1160473E-2,8.95E1,9.19E1,1.2E1,4.699656E-2,-2.1656891E-2,3.3840697E-2,2.3301567E-3,-1.4229856E-2,2.0315435E-3,-4.988088E-2,-2.518313E-2,1.1342979E-2,4.581055E-2,-3.6765825E-2,1.0133152E-2,5.0479607E-3,3.8028903E-2],"split_indices":[0,3,3,0,3,3,2,0,2,0,2,0,0,0,1,0,0,0,0,0,0,0,0,0,0,0,0,0,0],"split_type":[0,0,0,0,0,0,0,0,0,0,0,0,0,0,0,0,0,0,0,0,0,0,0,0,0,0,0,0,0],"sum_hessian":[5.082884E2,3.8876694E2,1.1952147E2,5.0957825E1,3.378091E2,5.528448E1,6.4236984E1,1.6516907E1,3.4440918E1,2.6439453E2,7.3414566E1,3.13224E1,2.3962084E1,2.6197731E1,3.8039253E1,3.6451228E0,1.2871784E1,2.7594225E1,6.8466916E0,1.654791E2,9.8915436E1,9.331916E0,6.408265E1,1.0932191E1,1.3029893E1,1.383849E1,1.23592415E1,1.8070503E1,1.996875E1],"tree_param":{"num_deleted":"0","num_feature":"15","num_nodes":"29","size_leaf_vector":"1"}},{"base_weights":[-6.175492E-3,-1.7685741E-1,3.644164E-1,-3.459312E-2,-4.332604E-1,8.7150395E-1,1.6521576E-1,-1.9510326E-1,1.610264E-1,-2.583246E-1,-5.7426137E-1,1.1047094E0,5.862241E-1,9.154614E-3,4.7698265E-1,-6.9018067E-3,-3.4131628E-2,9.0776925E-4,2.790216E-2,-5.0138836E-3,-2.7958324E-2,-3.4008984E-2,-1.9473216E-2,6.5001905E-2,2.6132246E-2,-1.5261516E-2,4.0393002E-2,-2.0932753E-2,8.751857E-3,-9.153886E-3,2.771382E-2],"categories":[],"categories_nodes":[],"categories_segments":[],"categories_sizes":[],"default_left":[0,0,0,0,0,0,0,0,0,0,0,0,0,0,0,0,0,0,0,0,0,0,0,0,0,0,0,0,0,0,0],"id":11,"left_children":[1,3,5,7,9,11,13,15,17,19,21,23,25,27,29,-1,-1,-1,-1,-1,-1,-1,-1,-1,-1,-1,-1,-1,-1,-1,-1],"loss_changes":[3.205234E1,1.2639479E1,1.5997198E1,7.071247E0,2.9031048E0,2.335163E0,5.63764E0,3.3447542E0,5.7527943E0,2.655488E0,1.0598469E0,1.9966698E0,4.6518517E0,5.629714E0,2.0740147E0,0E0,0E0,0E0,0E0,0E0,0E0,0E0,0E0,0E0,0E0,0E0,0E0,0E0,0E0,0E0,0E0],"parents":[2147483647,0,0,1,1,2,2,3,3,4,4,5,5,6,6,7,7,8,8,9,9,10,10,11,11,12,12,13,13,14,14],"right_children":[2,4,6,8,10,12,14,16,18,20,22,24,26,28,30,-1,-1,-1,-1,-1,-1,-1,-1,-1,-1,-1,-1,-1,-1,-1,-1],"split_conditions":[7.5E1,7E0,3E0,6.39E1,1.2E1,2E0,9.25E1,1E0,6.51E1,1E1,6.61E1,1.4E1,7.81E1,5.28E1,3.57E1,-6.9018067E-3,-3.4131628E-2,9.0776925E-4,2.790216E-2,-5.0138836E-3,-2.7958324E-2,-3.4008984E-2,-1.9473216E-2,6.5001905E-2,2.6132246E-2,-1.5261516E-2,4.0393002E-2,-2.0932753E-2,8.751857E-3,-9.153886E-3,2.771382E-2],"split_indices":[0,3,3,2,1,3,0,11,0,3,2,1,0,2,2,0,0,0,0,0,0,0,0,0,0,0,0,0,0,0,0],"split_type":[0,0,0,0,0,0,0,0,0,0,0,0,0,0,0,0,0,0,0,0,0,0,0,0,0,0,0,0,0,0,0],"sum_hessian":[5.0471082E2,3.4591635E2,1.5879445E2,2.2320615E2,1.2271021E2,4.38343E1,1.14960144E2,1.22607025E2,1.0059913E2,5.6028885E1,6.668133E1,2.2537987E1,2.1296316E1,7.729697E1,3.7663177E1,1.1090796E2,1.16990595E1,7.474648E1,2.5852646E1,3.7605965E1,1.842292E1,4.0682865E1,2.5998466E1,1.5951501E1,6.5864854E0,4.165371E0,1.7130945E1,2.1171652E1,5.6125317E1,3.8046093E0,3.3858566E1],"tree_param":{"num_deleted":"0","num_feature":"15","num_nodes":"31","size_leaf_vector":"1"}},{"base_weights":[-3.6239582E-3,-2.3497128E-1,2.627571E-1,-1.3113664E-1,-6.7590225E-1,6.884212E-1,1.1834327E-1,2.0748092E-1,-1.9598238E-1,-7.5266343E-1,-2.3628405E-1,8.85229E-2,7.81126E-1,-1.3623157E-1,2.5412646E-1,-5.9624347E-3,3.01892E-2,-1.146237E-2,1.2683973E-2,-4.156195E-2,-2.1020407E-2,5.118976E-3,-2.2741696E-2,2.9537058E-2,-2.8619919E-2,3.3327088E-2,5.3991444E-2,-1.2637018E-2,3.0159226E-2,3.8892422E-3,2.4021516E-2],"categories":[],"categories_nodes":[],"categories_segments":[],"categories_sizes":[],"default_left":[0,0,0,0,0,0,0,0,0,0,0,0,0,0,0,0,0,0,0,0,0,0,0,0,0,0,0,0,0,0,0],"id":12,"left_children":[1,3,5,7,9,11,13,15,17,19,21,23,25,27,29,-1,-1,-1,-1,-1,-1,-1,-1,-1,-1,-1,-1,-1,-1,-1,-1],"loss_changes":[3.1352129E1,1.2376867E1,1.4454996E1,4.906831E0,1.5652771E0,3.2507896E0,6.1798406E0,4.7468987E0,2.8479638E0,7.8668594E-1,7.2278017E-1,3.3647141E0,1.0456104E0,5.535824E0,4.603298E0,0E0,0E0,0E0,0E0,0E0,0E0,0E0,0E0,0E0,0E0,0E0,0E0,0E0,0E0,0E0,0E0],"parents":[2147483647,0,0,1,1,2,2,3,3,4,4,5,5,6,6,7,7,8,8,9,9,10,10,11,11,12,12,13,13,14,14],"right_children":[2,4,6,8,10,12,14,16,18,20,22,24,26,28,30,-1,-1,-1,-1,-1,-1,-1,-1,-1,-1,-1,-1,-1,-1,-1,-1],"split_conditions":[6.61E1,9E0,3E0,2E0,7.96E1,4.27E1,5.48E1,5.26E1,1E0,1E0,8.65E1,3.94E1,1E0,9.86E1,8.2E1,-5.9624347E-3,3.01892E-2,-1.146237E-2,1.2683973E-2,-4.156195E-2,-2.1020407E-2,5.118976E-3,-2.2741696E-2,2.9537058E-2,-2.8619919E-2,3.3327088E-2,5.3991444E-2,-1.2637018E-2,3.0159226E-2,3.8892422E-3,2.4021516E-2],"split_indices":[0,3,3,3,2,2,2,0,5,10,2,2,5,0,0,0,0,0,0,0,0,0,0,0,0,0,0,0,0,0,0],"split_type":[0,0,0,0,0,0,0,0,0,0,0,0,0,0,0,0,0,0,0,0,0,0,0,0,0,0,0,0,0,0,0],"sum_hessian":[5.0674207E2,2.7126822E2,2.3547385E2,2.2061346E2,5.065476E1,5.8696663E1,1.7677718E2,3.510408E1,1.8550938E2,4.2518562E1,8.136197E0,8.118202E0,5.057846E1,6.14895E1,1.1528768E2,1.9624159E1,1.5479921E1,1.7318753E2,1.232186E1,3.3171886E1,9.346676E0,3.3996582E0,4.736539E0,4.673277E0,3.444926E0,3.8891064E1,1.1687396E1,5.368812E1,7.8013754E0,6.55518E1,4.9735878E1],"tree_param":{"num_deleted":"0","num_feature":"15","num_nodes":"31","size_leaf_vector":"1"}},{"base_weights":[-2.275381E-2,-1.5204605E-1,4.004799E-1,2.9518615E-4,-4.204558E-1,6.8570876E-1,5.3672273E-2,-1.1122565E-1,2.3468739E-1,-7.0572984E-1,-3.4156027E-1,5.6003314E-1,1.0796975E0,-5.3790823E-2,4.51824E-1,-3.6471447E-3,-6.2486794E-2,1.5567029E-2,-1.1985754E-2,-2.5358638E-2,-5.6365825E-2,-8.96225E-3,-2.417179E-2,1.626925E-2,4.0504478E-2,6.32539E-2,2.4268065E-2,-9.027004E-3,1.2854758E-2,3.0899331E-2,-1.3482625E-3],"categories":[],"categories_nodes":[],"categories_segments":[],"categories_sizes":[],"default_left":[0,0,0,0,0,0,0,0,0,0,0,0,0,0,0,0,0,0,0,0,0,0,0,0,0,0,0,0,0,0,0],"id":13,"left_children":[1,3,5,7,9,11,13,15,17,19,21,23,25,27,29,-1,-1,-1,-1,-1,-1,-1,-1,-1,-1,-1,-1,-1,-1,-1,-1],"loss_changes":[2.797145E1,1.6005432E1,1.1796822E1,6.5793295E0,2.9487095E0,2.6413841E0,2.3806338E0,7.342513E0,3.0254788E0,1.9199247E0,2.5146055E0,2.774643E0,1.0140457E0,1.7904766E0,9.563329E-1,0E0,0E0,0E0,0E0,0E0,0E0,0E0,0E0,0E0,0E0,0E0,0E0,0E0,0E0,0E0,0E0],"parents":[2147483647,0,0,1,1,2,2,3,3,4,4,5,5,6,6,7,7,8,8,9,9,10,10,11,11,12,12,13,13,14,14],"right_children":[2,4,6,8,10,12,14,16,18,20,22,24,26,28,30,-1,-1,-1,-1,-1,-1,-1,-1,-1,-1,-1,-1,-1,-1,-1,-1],"split_conditions":[8E1,7E0,6E0,6.51E1,4.12E1,1E0,1E0,6.49E1,7.8E1,3.75E1,1.2E1,9.09E1,8.84E1,9.74E1,1.4E1,-3.6471447E-3,-6.2486794E-2,1.5567029E-2,-1.1985754E-2,-2.5358638E-2,-5.6365825E-2,-8.96225E-3,-2.417179E-2,1.626925E-2,4.0504478E-2,6.32539E-2,2.4268065E-2,-9.027004E-3,1.2854758E-2,3.0899331E-2,-1.3482625E-3],"split_indices":[0,3,3,0,0,5,8,0,0,0,1,0,0,0,1,0,0,0,0,0,0,0,0,0,0,0,0,0,0,0,0],"split_type":[0,0,0,0,0,0,0,0,0,0,0,0,0,0,0,0,0,0,0,0,0,0,0,0,0,0,0,0,0,0,0],"sum_hessian":[5.090536E2,3.904248E2,1.1862881E2,2.4970099E2,1.4072382E2,6.455715E1,5.4071655E1,1.6955455E2,8.014643E1,2.8765846E1,1.1195796E2,5.07805E1,1.3776652E1,4.326037E1,1.0811286E1,1.6506816E2,4.486399E0,6.929378E1,1.0852655E1,2.1053276E1,7.712571E0,5.3273193E1,5.868477E1,2.7384579E1,2.339592E1,9.640966E0,4.1356854E0,3.1029009E1,1.2231359E1,7.810087E0,3.0011988E0],"tree_param":{"num_deleted":"0","num_feature":"15","num_nodes":"31","size_leaf_vector":"1"}},{"base_weights":[1.9482497E-2,-1.0542476E-1,4.2748967E-1,3.1522012E-1,-1.6984633E-1,7.370419E-1,1.4658915E-1,1.0638679E-2,5.0484115E-1,-7.7662006E-2,-3.6612245E-1,6.2502974E-1,6.095096E-2,4.065083E-2,5.4971004E-1,5.1764425E-2,-1.5684849E-2,3.4383606E-2,1.0814419E-2,-5.4107187E-3,4.1606046E-2,-4.2295113E-2,-1.5381984E-2,4.5445703E-2,2.4956988E-2,5.2982485E-3,-1.975861E-2,1.6009986E-2,3.4890376E-2],"categories":[],"categories_nodes":[],"categories_segments":[],"categories_sizes":[],"default_left":[0,0,0,0,0,0,0,0,0,0,0,0,0,0,0,0,0,0,0,0,0,0,0,0,0,0,0,0,0],"id":14,"left_children":[1,3,5,7,9,11,13,15,17,19,21,23,-1,25,27,-1,-1,-1,-1,-1,-1,-1,-1,-1,-1,-1,-1,-1,-1],"loss_changes":[2.5768686E1,1.0547379E1,1.0196266E1,2.985201E0,6.0594435E0,2.268301E0,2.684159E0,7.266867E0,1.5337238E0,6.4889607E0,2.749259E0,1.2473259E0,0E0,1.5011939E0,2.2213411E-1,0E0,0E0,0E0,0E0,0E0,0E0,0E0,0E0,0E0,0E0,0E0,0E0,0E0,0E0],"parents":[2147483647,0,0,1,1,2,2,3,3,4,4,5,5,6,6,7,7,8,8,9,9,10,10,11,11,13,13,14,14],"right_children":[2,4,6,8,10,12,14,16,18,20,22,24,-1,26,28,-1,-1,-1,-1,-1,-1,-1,-1,-1,-1,-1,-1,-1,-1],"split_conditions":[7.97E1,2E0,5E0,5.26E1,8E0,1E0,1E0,3.13E1,6.94E1,1E0,3.13E1,2E0,6.095096E-2,1E0,9.19E1,5.1764425E-2,-1.5684849E-2,3.4383606E-2,1.0814419E-2,-5.4107187E-3,4.1606046E-2,-4.2295113E-2,-1.5381984E-2,4.5445703E-2,2.4956988E-2,5.2982485E-3,-1.975861E-2,1.6009986E-2,3.4890376E-2],"split_indices":[0,3,3,0,3,6,8,0,0,4,0,3,0,11,0,0,0,0,0,0,0,0,0,0,0,0,0,0,0],"split_type":[0,0,0,0,0,0,0,0,0,0,0,0,0,0,0,0,0,0,0,0,0,0,0,0,0,0,0,0,0],"sum_hessian":[5.0375027E2,3.8624646E2,1.1750382E2,5.0780266E1,3.354662E2,5.5128452E1,6.237537E1,1.9889147E1,3.0891119E1,2.2920973E2,1.0625646E2,4.659623E1,8.532222E0,5.0266426E1,1.2108945E1,4.254906E0,1.5634241E1,1.8062988E1,1.2828131E1,2.2261491E2,6.5948076E0,1.0081977E1,9.6174484E1,1.2404327E1,3.4191902E1,4.437333E1,5.893097E0,5.9892874E0,6.1196575E0],"tree_param":{"num_deleted":"0","num_feature":"15","num_nodes":"29","size_leaf_vector":"1"}},{"base_weights":[1.5673387E-3,-1.3495804E-1,3.5812232E-1,-1.6702573E-1,2.2599883E-1,2.3256025E-1,7.934192E-1,-2.7823865E-1,-3.0888163E-2,4.5278522E-1,-1.2265492E-1,5.2223295E-2,5.432615E-1,9.0524787E-1,7.2157243E-3,7.3217484E-3,-1.9852784E-2,-1.2855114E-2,4.1853543E-3,7.6460274E-4,4.8409253E-2,1.7450398E-2,-5.9776705E-2,5.9138842E-2,-9.273188E-4,3.360076E-2,-4.878011E-3,1.7387932E-2,5.508625E-2],"categories":[],"categories_nodes":[],"categories_segments":[],"categories_sizes":[],"default_left":[0,0,0,0,0,0,0,0,0,0,0,0,0,0,0,0,0,0,0,0,0,0,0,0,0,0,0,0,0],"id":15,"left_children":[1,3,5,7,9,11,13,15,17,19,21,23,25,27,-1,-1,-1,-1,-1,-1,-1,-1,-1,-1,-1,-1,-1,-1,-1],"loss_changes":[2.4932909E1,4.324955E0,7.5666847E0,5.1502695E0,2.4786594E0,6.2180457E0,2.1438732E0,9.514645E0,4.0221357E0,4.219977E0,6.927148E0,5.7542224E0,3.4348602E0,2.5238647E0,0E0,0E0,0E0,0E0,0E0,0E0,0E0,0E0,0E0,0E0,0E0,0E0,0E0,0E0,0E0],"parents":[2147483647,0,0,1,1,2,2,3,3,4,4,5,5,6,6,7,7,8,8,9,9,10,10,11,11,12,12,13,13],"right_children":[2,4,6,8,10,12,14,16,18,20,22,24,26,28,-1,-1,-1,-1,-1,-1,-1,-1,-1,-1,-1,-1,-1,-1,-1],"split_conditions":[7.67E1,1E0,7.79E1,6.43E1,6.54E1,9.19E1,1E2,1E1,4.89E1,1.3E1,1.5E1,7.72E1,1E0,8.2E1,7.2157243E-3,7.3217484E-3,-1.9852784E-2,-1.2855114E-2,4.1853543E-3,7.6460274E-4,4.8409253E-2,1.7450398E-2,-5.9776705E-2,5.9138842E-2,-9.273188E-4,3.360076E-2,-4.878011E-3,1.7387932E-2,5.508625E-2],"split_indices":[0,5,2,2,2,0,0,1,0,1,1,0,6,0,0,0,0,0,0,0,0,0,0,0,0,0,0,0,0],"split_type":[0,0,0,0,0,0,0,0,0,0,0,0,0,0,0,0,0,0,0,0,0,0,0,0,0,0,0,0,0],"sum_hessian":[5.1019937E2,3.6938345E2,1.4081593E2,3.3973813E2,2.9645323E1,1.1048159E2,3.033434E1,1.8641168E2,1.5332645E2,1.7780863E1,1.1864461E1,7.0645615E1,3.9835976E1,2.5539711E1,4.794629E0,4.0702194E1,1.4570949E2,5.113702E1,1.0218942E2,1.0174223E1,7.6066394E0,8.710028E0,3.154433E0,3.236065E0,6.7409546E1,3.3130695E1,6.7052813E0,7.3772593E0,1.816245E1],"tree_param":{"num_deleted":"0","num_feature":"15","num_nodes":"29","size_leaf_vector":"1"}},{"base_weights":[1.0935522E-2,-1.9679557E-1,2.5145972E-1,-8.7020844E-2,-4.841293E-1,4.6745315E-1,-1.21266246E-1,2.860179E-1,-1.8123925E-1,-6.365904E-1,-2.6582494E-1,3.9520738E-1,8.589743E-1,-2.620122E-1,1.9252503E-1,4.2195044E-2,8.457805E-3,-1.586569E-2,1.9656569E-3,-3.556509E-2,-3.1673086E-3,-3.0644188E-2,9.798454E-3,1.4521131E-2,3.6078304E-2,-2.0302495E-2,5.7667304E-2,2.4107022E-2,-1.5650509E-2,-1.2356682E-3,3.0167779E-2],"categories":[],"categories_nodes":[],"categories_segments":[],"categories_sizes":[],"default_left":[0,0,0,0,0,0,0,0,0,0,0,0,0,0,0,0,0,0,0,0,0,0,0,0,0,0,0,0,0,0,0],"id":16,"left_children":[1,3,5,7,9,11,13,15,17,19,21,23,25,27,29,-1,-1,-1,-1,-1,-1,-1,-1,-1,-1,-1,-1,-1,-1,-1,-1],"loss_changes":[2.4817894E1,8.36553E0,1.8586594E1,6.873495E0,2.275938E0,3.7882042E0,3.815025E0,2.434037E0,4.681207E0,1.7768097E0,5.2369747E0,4.0667324E0,8.616339E0,2.4001794E0,2.4219792E0,0E0,0E0,0E0,0E0,0E0,0E0,0E0,0E0,0E0,0E0,0E0,0E0,0E0,0E0,0E0,0E0],"parents":[2147483647,0,0,1,1,2,2,3,3,4,4,5,5,6,6,7,7,8,8,9,9,10,10,11,11,12,12,13,13,14,14],"right_children":[2,4,6,8,10,12,14,16,18,20,22,24,26,28,30,-1,-1,-1,-1,-1,-1,-1,-1,-1,-1,-1,-1,-1,-1,-1,-1],"split_conditions":[6.61E1,8E0,7E0,1E1,6.68E1,1E0,8.74E1,4.33E1,1.4E1,1E0,5.02E1,9.05E1,7.4E1,6.69E1,1E1,4.2195044E-2,8.457805E-3,-1.586569E-2,1.9656569E-3,-3.556509E-2,-3.1673086E-3,-3.0644188E-2,9.798454E-3,1.4521131E-2,3.6078304E-2,-2.0302495E-2,5.7667304E-2,2.4107022E-2,-1.5650509E-2,-1.2356682E-3,3.0167779E-2],"split_indices":[0,3,3,1,2,5,0,2,1,7,0,0,0,0,3,0,0,0,0,0,0,0,0,0,0,0,0,0,0,0,0],"split_type":[0,0,0,0,0,0,0,0,0,0,0,0,0,0,0,0,0,0,0,0,0,0,0,0,0,0,0,0,0,0,0],"sum_hessian":[4.947216E2,2.6555457E2,2.29167E2,1.9308865E2,7.2465904E1,1.4492773E2,8.423928E1,3.8524197E1,1.5456447E2,4.153929E1,3.0926615E1,1.24047226E2,2.0880507E1,5.8268776E1,2.5970503E1,5.5946603E0,3.292954E1,9.5317535E1,5.924692E1,3.6536613E1,5.002677E0,1.7469973E1,1.3456642E1,9.532946E1,2.8717764E1,3.870058E0,1.7010448E1,3.1949224E0,5.5073853E1,1.7602516E1,8.367988E0],"tree_param":{"num_deleted":"0","num_feature":"15","num_nodes":"31","size_leaf_vector":"1"}},{"base_weights":[1.5174847E-2,-1.0735547E-1,4.4109428E-1,4.6835274E-2,-3.8018066E-1,-6.220981E-2,5.8579564E-1,3.60576E-1,-3.6918968E-2,-2.349479E-1,-4.9683508E-1,-5.286226E-1,2.615071E-1,7.728914E-1,2.5115946E-1,-2.8625672E-4,2.8105572E-2,-7.3329695E-3,9.39862E-3,2.2364877E-2,-1.5720896E-2,-3.0025452E-2,-1.3336273E-2,2.2815121E-2,-4.8653457E-2,2.2000117E-2,-6.3160337E-3,3.2021333E-2,5.790158E-2,3.2138217E-2,2.7426367E-3],"categories":[],"categories_nodes":[],"categories_segments":[],"categories_sizes":[],"default_left":[0,0,0,0,0,0,0,0,0,0,0,0,0,0,0,0,0,0,0,0,0,0,0,0,0,0,0,0,0,0,0],"id":17,"left_children":[1,3,5,7,9,11,13,15,17,19,21,23,25,27,29,-1,-1,-1,-1,-1,-1,-1,-1,-1,-1,-1,-1,-1,-1,-1,-1],"loss_changes":[2.603218E1,1.6317694E1,8.152071E0,6.5418963E0,2.2555275E0,4.031795E0,5.230747E0,3.87469E0,4.889672E0,3.6251369E0,1.6708965E0,5.213773E0,1.1556715E0,2.0690956E0,2.467273E0,0E0,0E0,0E0,0E0,0E0,0E0,0E0,0E0,0E0,0E0,0E0,0E0,0E0,0E0,0E0,0E0],"parents":[2147483647,0,0,1,1,2,2,3,3,4,4,5,5,6,6,7,7,8,8,9,9,10,10,11,11,12,12,13,13,14,14],"right_children":[2,4,6,8,10,12,14,16,18,20,22,24,26,28,30,-1,-1,-1,-1,-1,-1,-1,-1,-1,-1,-1,-1,-1,-1,-1,-1],"split_conditions":[8E1,7E0,4.77E1,2E0,9E0,8.75E1,7E0,5.34E1,6.51E1,3.84E1,6.64E1,8.32E1,4.29E1,1E0,8.61E1,-2.8625672E-4,2.8105572E-2,-7.3329695E-3,9.39862E-3,2.2364877E-2,-1.5720896E-2,-3.0025452E-2,-1.3336273E-2,2.2815121E-2,-4.8653457E-2,2.2000117E-2,-6.3160337E-3,3.2021333E-2,5.790158E-2,3.2138217E-2,2.7426367E-3],"split_indices":[0,3,2,3,3,0,3,2,0,2,0,0,2,5,0,0,0,0,0,0,0,0,0,0,0,0,0,0,0,0,0],"split_type":[0,0,0,0,0,0,0,0,0,0,0,0,0,0,0,0,0,0,0,0,0,0,0,0,0,0,0,0,0,0,0],"sum_hessian":[4.969077E2,3.8647336E2,1.1043436E2,2.4745132E2,1.3902203E2,2.4787586E1,8.564677E1,5.1442856E1,1.9600847E2,6.3268238E1,7.57538E1,9.896166E0,1.489142E1,5.4093395E1,3.1553375E1,1.8602835E1,3.284002E1,1.319625E2,6.4045975E1,6.1179013E0,5.7150337E1,5.11148E1,2.4639002E1,3.0688035E0,6.8273625E0,1.0105773E1,4.7856474E0,4.2231255E1,1.1862138E1,9.77644E0,2.1776937E1],"tree_param":{"num_deleted":"0","num_feature":"15","num_nodes":"31","size_leaf_vector":"1"}},{"base_weights":[1.1726428E-2,-1.5123156E-1,1.9579871E-1,-2.1924625E-1,1.0632453E-1,1.2406062E-1,6.864119E-1,8.191223E-2,-2.9903162E-1,6.5011567E-1,-9.497098E-3,4.2865694E-2,4.1751412E-1,6.283848E-2,1.0092487E0,-1.9306511E-3,4.4834558E-2,-1.761219E-2,1.63158E-2,-4.5025437E-3,6.336443E-2,-1.955862E-2,7.1631917E-3,-2.037487E-2,6.052176E-3,-7.450741E-3,2.4795834E-2,1.8024534E-2,-1.0280793E-2,1.8106693E-2,5.7236757E-2],"categories":[],"categories_nodes":[],"categories_segments":[],"categories_sizes":[],"default_left":[0,0,0,0,0,0,0,0,0,0,0,0,0,0,0,0,0,0,0,0,0,0,0,0,0,0,0,0,0,0,0],"id":18,"left_children":[1,3,5,7,9,11,13,15,17,19,21,23,25,27,29,-1,-1,-1,-1,-1,-1,-1,-1,-1,-1,-1,-1,-1,-1,-1,-1],"loss_changes":[1.5090795E1,4.698614E0,8.228542E0,5.1055164E0,3.560263E0,4.921453E0,5.9583874E0,4.4609447E0,5.6849775E0,4.6469994E0,2.8259199E0,5.8054976E0,2.0643501E0,9.746753E-1,1.307621E0,0E0,0E0,0E0,0E0,0E0,0E0,0E0,0E0,0E0,0E0,0E0,0E0,0E0,0E0,0E0,0E0],"parents":[2147483647,0,0,1,1,2,2,3,3,4,4,5,5,6,6,7,7,8,8,9,9,10,10,11,11,12,12,13,13,14,14],"right_children":[2,4,6,8,10,12,14,16,18,20,22,24,26,28,30,-1,-1,-1,-1,-1,-1,-1,-1,-1,-1,-1,-1,-1,-1,-1,-1],"split_conditions":[6.58E1,7.56E1,1E0,1E1,7.77E1,9.15E1,1.2E1,6.23E1,1E0,1.2E1,8.16E1,4.34E1,3.67E1,7.88E1,7.52E1,-1.9306511E-3,4.4834558E-2,-1.761219E-2,1.63158E-2,-4.5025437E-3,6.336443E-2,-1.955862E-2,7.1631917E-3,-2.037487E-2,6.052176E-3,-7.450741E-3,2.4795834E-2,1.8024534E-2,-1.0280793E-2,1.8106693E-2,5.7236757E-2],"split_indices":[0,2,5,1,2,0,1,0,5,1,2,2,2,0,0,0,0,0,0,0,0,0,0,0,0,0,0,0,0,0,0],"split_type":[0,0,0,0,0,0,0,0,0,0,0,0,0,0,0,0,0,0,0,0,0,0,0,0,0,0,0,0,0,0,0],"sum_hessian":[5.011056E2,2.6589175E2,2.3521382E2,2.1046222E2,5.542954E1,2.0630109E2,2.8912739E1,4.4073887E1,1.6638834E2,8.922879E0,4.650666E1,1.6248859E2,4.3812496E1,1.0270147E1,1.8642591E1,3.922429E1,4.849599E0,1.5374275E2,1.2645584E1,4.445521E0,4.477358E0,1.2847163E1,3.3659496E1,2.3411026E1,1.3907756E2,5.216677E0,3.859582E1,4.707646E0,5.5625014E0,3.8633168E0,1.4779275E1],"tree_param":{"num_deleted":"0","num_feature":"15","num_nodes":"31","size_leaf_vector":"1"}},{"base_weights":[-1.8753503E-3,-1.7355032E-1,1.9961338E-1,-2.242374E-1,1.65956E-1,1.1430058E-1,5.3888017E-1,-1.9059163E-1,-7.1743804E-1,6.88975E-2,-5.734066E-2,2.2921875E-2,4.2440474E-1,6.300616E-2,8.023627E-1,-1.1047243E-2,3.3824585E-2,-1.7217927E-2,-5.6984015E-2,-8.351349E-3,2.496676E-2,2.537789E-2,-2.8091313E-3,1.410483E-2,5.876508E-2,2.817508E-2,-4.8706545E-3,5.126095E-2,1.5430729E-2],"categories":[],"categories_nodes":[],"categories_segments":[],"categories_sizes":[],"default_left":[0,0,0,0,0,0,0,0,0,0,0,0,0,0,0,0,0,0,0,0,0,0,0,0,0,0,0,0,0],"id":19,"left_children":[1,3,5,7,9,11,13,15,17,-1,19,21,23,25,27,-1,-1,-1,-1,-1,-1,-1,-1,-1,-1,-1,-1,-1,-1],"loss_changes":[1.7305353E1,4.6856813E0,6.6002436E0,3.7705183E0,9.73107E0,5.2378645E0,5.7144823E0,5.986578E0,1.9193478E0,0E0,1.9808996E0,5.5526304E0,4.16632E0,1.4575896E0,2.930544E0,0E0,0E0,0E0,0E0,0E0,0E0,0E0,0E0,0E0,0E0,0E0,0E0,0E0,0E0],"parents":[2147483647,0,0,1,1,2,2,3,3,4,4,5,5,6,6,7,7,8,8,10,10,11,11,12,12,13,13,14,14],"right_children":[2,4,6,8,10,12,14,16,18,-1,20,22,24,26,28,-1,-1,-1,-1,-1,-1,-1,-1,-1,-1,-1,-1,-1,-1],"split_conditions":[6.61E1,8.16E1,7.8E1,7.82E1,8.37E1,9.09E1,7.75E1,7.66E1,5.88E1,6.88975E-2,6.17E1,6.9E1,7.07E1,6.87E1,9.05E1,-1.1047243E-2,3.3824585E-2,-1.7217927E-2,-5.6984015E-2,-8.351349E-3,2.496676E-2,2.537789E-2,-2.8091313E-3,1.410483E-2,5.876508E-2,2.817508E-2,-4.8706545E-3,5.126095E-2,1.5430729E-2],"split_indices":[0,2,2,2,2,0,0,2,0,0,0,0,2,0,0,0,0,0,0,0,0,0,0,0,0,0,0,0,0],"split_type":[0,0,0,0,0,0,0,0,0,0,0,0,0,0,0,0,0,0,0,0,0,0,0,0,0,0,0,0,0],"sum_hessian":[4.9828958E2,2.6912497E2,2.291646E2,2.344604E2,3.466458E1,1.8418573E2,4.497886E1,2.2078505E2,1.3675344E1,4.588501E0,3.0076082E1,1.43094E2,4.1091736E1,1.647058E1,2.850828E1,2.1403761E2,6.747441E0,8.22423E0,5.4511147E0,2.571016E1,4.3659234E0,1.9319042E1,1.23774956E2,3.5701378E1,5.390359E0,3.3879042E0,1.3082674E1,1.8900856E1,9.607424E0],"tree_param":{"num_deleted":"0","num_feature":"15","num_nodes":"29","size_leaf_vector":"1"}},{"base_weights":[3.73574E-2,3.3260837E-1,-5.343903E-2,2.4539147E-1,8.6928856E-1,4.2748686E-2,-2.1930268E-1,-7.3942244E-3,3.2827824E-1,5.4395694E-2,7.8926486E-4,1.2275573E-2,7.338473E-1,-1.5485221E-1,-7.173024E-1,3.230893E-2,-7.1203643E-3,1.4318518E-2,4.1474488E-2,1.9377053E-2,-1.6884443E-3,1.5743291E-2,5.2810263E-2,-1.3310688E-2,5.0892285E-3,-4.4593744E-2,-1.858318E-2],"categories":[],"categories_nodes":[],"categories_segments":[],"categories_sizes":[],"default_left":[0,0,0,0,0,0,0,0,0,0,0,0,0,0,0,0,0,0,0,0,0,0,0,0,0,0,0],"id":20,"left_children":[1,3,5,7,9,11,13,15,17,-1,-1,19,21,23,25,-1,-1,-1,-1,-1,-1,-1,-1,-1,-1,-1,-1],"loss_changes":[1.3356149E1,5.2707224E0,6.0941772E0,2.1432858E0,2.9656067E0,5.0925198E0,4.387444E0,2.4046464E0,1.3791523E0,0E0,0E0,4.0395107E0,1.0468402E0,3.6101565E0,6.2098026E-1,0E0,0E0,0E0,0E0,0E0,0E0,0E0,0E0,0E0,0E0,0E0,0E0],"parents":[2147483647,0,0,1,1,2,2,3,3,4,4,5,5,6,6,7,7,8,8,11,11,12,12,13,13,14,14],"right_children":[2,4,6,8,10,12,14,16,18,-1,-1,20,22,24,26,-1,-1,-1,-1,-1,-1,-1,-1,-1,-1,-1,-1],"split_conditions":[3E0,1E0,8E0,4.87E1,1E0,1E0,1.6E1,3.11E1,9.31E1,5.4395694E-2,7.8926486E-4,9E0,5.93E1,7.19E1,6.42E1,3.230893E-2,-7.1203643E-3,1.4318518E-2,4.1474488E-2,1.9377053E-2,-1.6884443E-3,1.5743291E-2,5.2810263E-2,-1.3310688E-2,5.0892285E-3,-4.4593744E-2,-1.858318E-2],"split_indices":[3,5,3,2,8,4,1,2,2,0,0,1,2,2,2,0,0,0,0,0,0,0,0,0,0,0,0],"split_type":[0,0,0,0,0,0,0,0,0,0,0,0,0,0,0,0,0,0,0,0,0,0,0,0,0,0,0],"sum_hessian":[4.9655695E2,1.1616135E2,3.803956E2,1.0117625E2,1.49851E1,2.4123865E2,1.3915695E2,2.5208103E1,7.596814E1,1.1710741E1,3.2743587E0,2.3202554E2,9.213108E0,1.2437185E2,1.4785093E1,3.667651E0,2.1540453E1,7.1556435E1,4.411706E0,2.4547234E1,2.074783E2,4.8657093E0,4.3473983E0,8.670913E1,3.766272E1,8.773484E0,6.011609E0],"tree_param":{"num_deleted":"0","num_feature":"15","num_nodes":"27","size_leaf_vector":"1"}},{"base_weights":[2.5224963E-2,-7.3222175E-2,3.6050364E-1,4.4887636E-2,-2.875506E-1,8.130535E-1,2.051332E-1,1.17681855E-2,9.35049E-1,-1.8215051E-1,-3.8181043E-1,9.2239434E-1,1.3333228E-2,-3.0296952E-1,3.3685774E-1,1.49079105E-2,-3.0936177E-3,1.7822117E-2,6.573486E-2,1.508143E-2,-1.2027413E-2,-2.532944E-2,-1.0919376E-2,2.6818478E-2,5.1363338E-2,-3.6431905E-2,2.3944605E-2,2.1781009E-2,3.8929821E-3],"categories":[],"categories_nodes":[],"categories_segments":[],"categories_sizes":[],"default_left":[0,0,0,0,0,0,0,0,0,0,0,0,0,0,0,0,0,0,0,0,0,0,0,0,0,0,0,0,0],"id":21,"left_children":[1,3,5,7,9,11,13,15,17,19,21,23,-1,25,27,-1,-1,-1,-1,-1,-1,-1,-1,-1,-1,-1,-1,-1,-1],"loss_changes":[1.641616E1,9.750676E0,7.76985E0,7.3261294E0,1.2895966E0,1.4573555E0,5.8154955E0,5.1002E0,1.4896369E0,1.9512184E0,1.3434162E0,3.9430237E-1,0E0,6.373201E0,1.712225E0,0E0,0E0,0E0,0E0,0E0,0E0,0E0,0E0,0E0,0E0,0E0,0E0,0E0,0E0],"parents":[2147483647,0,0,1,1,2,2,3,3,4,4,5,5,6,6,7,7,8,8,9,9,10,10,11,11,13,13,14,14],"right_children":[2,4,6,8,10,12,14,16,18,20,22,24,-1,26,28,-1,-1,-1,-1,-1,-1,-1,-1,-1,-1,-1,-1,-1,-1],"split_conditions":[7.97E1,7E0,3E0,1E0,9E0,9.93E1,4.61E1,2E0,4.99E1,3.84E1,6.4E1,5.13E1,1.3333228E-2,9.74E1,9E0,1.49079105E-2,-3.0936177E-3,1.7822117E-2,6.573486E-2,1.508143E-2,-1.2027413E-2,-2.532944E-2,-1.0919376E-2,2.6818478E-2,5.1363338E-2,-3.6431905E-2,2.3944605E-2,2.1781009E-2,3.8929821E-3],"split_indices":[0,3,3,4,3,0,2,3,2,2,2,2,0,0,3,0,0,0,0,0,0,0,0,0,0,0,0,0,0],"split_type":[0,0,0,0,0,0,0,0,0,0,0,0,0,0,0,0,0,0,0,0,0,0,0,0,0,0,0,0,0],"sum_hessian":[4.9555072E2,3.8367477E2,1.1187596E2,2.4787115E2,1.358036E2,2.7511066E1,8.436489E1,2.3995653E2,7.914631E0,6.5497536E1,7.030607E1,2.235027E1,5.1607985E0,1.7100992E1,6.72639E1,4.8457027E1,1.914995E2,3.9038322E0,4.0107985E0,6.6061053E0,5.889143E1,3.8675938E1,3.163013E1,6.081047E0,1.6269222E1,1.1116768E1,5.984224E0,4.8201515E1,1.9062384E1],"tree_param":{"num_deleted":"0","num_feature":"15","num_nodes":"29","size_leaf_vector":"1"}},{"base_weights":[-5.303054E-3,-1.049505E-1,3.2663566E-1,-1.9293677E-3,-2.8979495E-1,7.685759E-1,1.7750749E-1,-5.040542E-2,5.0382E-1,-6.303066E-2,-3.6386782E-1,9.0127337E-1,9.876135E-3,-2.2919866E-1,2.8217062E-1,-9.1010155E-3,5.7349275E-3,3.537953E-2,-1.1587987E-2,5.9288656E-3,-3.4443352E-2,-2.6210625E-2,-7.444532E-3,3.6117356E-2,6.1256498E-2,-2.8699106E-2,2.197498E-2,2.5203152E-2,8.299398E-3],"categories":[],"categories_nodes":[],"categories_segments":[],"categories_sizes":[],"default_left":[0,0,0,0,0,0,0,0,0,0,0,0,0,0,0,0,0,0,0,0,0,0,0,0,0,0,0,0,0],"id":22,"left_children":[1,3,5,7,9,11,13,15,17,19,21,23,-1,25,27,-1,-1,-1,-1,-1,-1,-1,-1,-1,-1,-1,-1,-1,-1],"loss_changes":[1.6449627E1,7.282424E0,7.4313536E0,6.0709E0,2.2759943E0,1.9945831E0,3.7746727E0,4.930321E0,3.4104457E0,4.0492997E0,3.470893E0,4.4688034E-1,0E0,4.4922605E0,1.7149048E0,0E0,0E0,0E0,0E0,0E0,0E0,0E0,0E0,0E0,0E0,0E0,0E0,0E0,0E0],"parents":[2147483647,0,0,1,1,2,2,3,3,4,4,5,5,6,6,7,7,8,8,9,9,10,10,11,11,13,13,14,14],"right_children":[2,4,6,8,10,12,14,16,18,20,22,24,-1,26,28,-1,-1,-1,-1,-1,-1,-1,-1,-1,-1,-1,-1,-1,-1],"split_conditions":[7.97E1,7E0,3E0,1E0,1E1,9.82E1,4.61E1,6.43E1,5E0,7.56E1,6.42E1,9E1,9.876135E-3,9.74E1,8.64E1,-9.1010155E-3,5.7349275E-3,3.537953E-2,-1.1587987E-2,5.9288656E-3,-3.4443352E-2,-2.6210625E-2,-7.444532E-3,3.6117356E-2,6.1256498E-2,-2.8699106E-2,2.197498E-2,2.5203152E-2,8.299398E-3],"split_indices":[0,3,3,5,1,0,2,2,3,2,2,0,0,0,0,0,0,0,0,0,0,0,0,0,0,0,0,0,0],"split_type":[0,0,0,0,0,0,0,0,0,0,0,0,0,0,0,0,0,0,0,0,0,0,0,0,0,0,0,0,0],"sum_hessian":[4.9527905E2,3.814517E2,1.1382735E2,2.4558685E2,1.3586485E2,2.7670935E1,8.615641E1,2.2492786E2,2.0658989E1,3.3908722E1,1.0195613E2,2.1984142E1,5.686792E0,1.73903E1,6.876611E1,1.2510013E2,9.982773E1,1.620729E1,4.4516993E0,2.6910301E1,6.9984207E0,5.7574604E1,4.438153E1,1.6241432E1,5.7427106E0,1.1567629E1,5.822672E0,2.2484802E1,4.628131E1],"tree_param":{"num_deleted":"0","num_feature":"15","num_nodes":"29","size_leaf_vector":"1"}},{"base_weights":[-6.6041984E-3,1.14793345E-1,-2.2567205E-1,-2.622545E-3,4.2235824E-1,-3.1234014E-1,-6.789731E-2,-2.6666293E-1,6.680417E-2,8.850561E-1,2.99716E-1,-1.6544627E-1,-4.460359E-1,2.4521766E-2,-1.1906785E-1,-5.7579307E-3,-3.4536388E-2,2.149047E-3,4.1549925E-2,2.2334814E-2,4.844072E-2,-1.0998019E-2,1.8462634E-2,-1.2519017E-2,1.0787126E-2,-3.3864345E-2,-1.7638033E-2,-1.0485068E-2,1.614646E-2],"categories":[],"categories_nodes":[],"categories_segments":[],"categories_sizes":[],"default_left":[0,0,0,0,0,0,0,0,0,0,0,0,0,0,0,0,0,0,0,0,0,0,0,0,0,0,0,0,0],"id":23,"left_children":[1,3,5,7,9,11,13,15,17,19,21,23,25,-1,27,-1,-1,-1,-1,-1,-1,-1,-1,-1,-1,-1,-1,-1,-1],"loss_changes":[1.336754E1,1.1682125E1,2.429391E0,4.3272595E0,4.806304E0,2.19248E0,1.9102921E0,3.0778544E0,3.3676429E0,2.3596859E-1,2.6888018E0,1.8856453E0,1.0514488E0,0E0,2.4785948E0,0E0,0E0,0E0,0E0,0E0,0E0,0E0,0E0,0E0,0E0,0E0,0E0,0E0,0E0],"parents":[2147483647,0,0,1,1,2,2,3,3,4,4,5,5,6,6,7,7,8,8,9,9,10,10,11,11,12,12,14,14],"right_children":[2,4,6,8,10,12,14,16,18,20,22,24,26,-1,28,-1,-1,-1,-1,-1,-1,-1,-1,-1,-1,-1,-1,-1,-1],"split_conditions":[7E0,7.67E1,7.23E1,4.58E1,2E0,9E0,7.4E1,4.33E1,1E0,4.77E1,4.11E1,1E0,4.17E1,2.4521766E-2,1E0,-5.7579307E-3,-3.4536388E-2,2.149047E-3,4.1549925E-2,2.2334814E-2,4.844072E-2,-1.0998019E-2,1.8462634E-2,-1.2519017E-2,1.0787126E-2,-3.3864345E-2,-1.7638033E-2,-1.0485068E-2,1.614646E-2],"split_indices":[3,0,0,2,3,3,0,2,4,2,2,10,0,0,8,0,0,0,0,0,0,0,0,0,0,0,0,0,0],"split_type":[0,0,0,0,0,0,0,0,0,0,0,0,0,0,0,0,0,0,0,0,0,0,0,0,0,0,0,0,0],"sum_hessian":[5.0067276E2,3.224574E2,1.7821538E2,2.3408473E2,8.837265E1,1.1439615E2,6.381923E1,4.8144176E1,1.8594055E2,1.7213593E1,7.115906E1,5.5573765E1,5.8822384E1,4.637218E0,5.918201E1,3.6408268E1,1.1735908E1,1.8134355E2,4.597015E0,3.7773778E0,1.3436215E1,8.142626E0,6.301643E1,4.572808E1,9.845683E0,1.5107129E1,4.3715256E1,4.9547607E1,9.634403E0],"tree_param":{"num_deleted":"0","num_feature":"15","num_nodes":"29","size_leaf_vector":"1"}},{"base_weights":[1.2163039E-2,-1.2912925E-1,1.7795765E-1,2.0066705E-1,-1.8281822E-1,5.04076E-1,7.171171E-2,4.941194E-2,9.829291E-2,-2.2702995E-1,1.02279775E-1,3.0300045E-1,7.467757E-1,-2.9317552E-1,1.6280125E-1,-1.47895515E-2,2.0456895E-2,-1.4168978E-2,2.8699086E-4,3.53474E-2,-1.0396168E-2,-1.1725881E-2,2.0715943E-2,1.6438559E-2,4.4567972E-2,-2.1765988E-2,2.215683E-2,1.0345599E-2,-1.8338773E-2],"categories":[],"categories_nodes":[],"categories_segments":[],"categories_sizes":[],"default_left":[0,0,0,0,0,0,0,0,0,0,0,0,0,0,0,0,0,0,0,0,0,0,0,0,0,0,0,0,0],"id":24,"left_children":[1,3,5,7,9,11,13,-1,15,17,19,21,23,25,27,-1,-1,-1,-1,-1,-1,-1,-1,-1,-1,-1,-1,-1,-1],"loss_changes":[1.1544631E1,4.7487664E0,7.8194065E0,2.9452918E0,2.9145818E0,2.4844513E0,5.7703195E0,0E0,4.347762E0,2.6105204E0,6.052832E0,2.015559E0,1.1867685E0,3.8301091E0,3.3094168E0,0E0,0E0,0E0,0E0,0E0,0E0,0E0,0E0,0E0,0E0,0E0,0E0,0E0,0E0],"parents":[2147483647,0,0,1,1,2,2,3,3,4,4,5,5,6,6,8,8,9,9,10,10,11,11,12,12,13,13,14,14],"right_children":[2,4,6,8,10,12,14,-1,16,18,20,22,24,26,28,-1,-1,-1,-1,-1,-1,-1,-1,-1,-1,-1,-1,-1,-1],"split_conditions":[6.61E1,2E0,3E0,2.86E1,1E0,8.14E1,4.63E1,4.941194E-2,4.99E1,7.66E1,4.34E1,4.27E1,5.13E1,9.82E1,1.6E1,-1.47895515E-2,2.0456895E-2,-1.4168978E-2,2.8699086E-4,3.53474E-2,-1.0396168E-2,-1.1725881E-2,2.0715943E-2,1.6438559E-2,4.4567972E-2,-2.1765988E-2,2.215683E-2,1.0345599E-2,-1.8338773E-2],"split_indices":[0,3,3,0,7,0,2,0,0,2,0,2,2,0,1,0,0,0,0,0,0,0,0,0,0,0,0,0,0],"split_type":[0,0,0,0,0,0,0,0,0,0,0,0,0,0,0,0,0,0,0,0,0,0,0,0,0,0,0,0,0],"sum_hessian":[4.9084232E2,2.6512262E2,2.2571971E2,3.673462E1,2.2838799E2,5.454653E1,1.7117319E2,3.2303205E0,3.35043E1,1.9790192E2,3.0486069E1,3.1061052E1,2.348548E1,3.375172E1,1.3742146E2,1.4795389E1,1.870891E1,1.5915562E2,3.87463E1,9.9031725E0,2.0582895E1,5.139149E0,2.5921902E1,6.877095E0,1.6608383E1,2.8632946E1,5.1187754E0,1.27417595E2,1.000387E1],"tree_param":{"num_deleted":"0","num_feature":"15","num_nodes":"29","size_leaf_vector":"1"}},{"base_weights":[5.564023E-3,2.8700012E-1,-8.157289E-2,5.463137E-2,5.3020626E-1,-1.9805413E-1,5.8075298E-2,4.54315E-2,-1.491557E-2,-2.4009433E-2,6.195087E-1,-9.7737744E-2,-3.8201666E-1,-2.3958075E-1,1.3357057E-1,2.2305785E-2,-6.190009E-3,1.9418094E-2,-3.1167466E-2,4.31696E-2,1.4980136E-2,2.273754E-3,-1.3740229E-2,-2.2685094E-2,4.357301E-3,-1.7318254E-2,1.1091952E-2,3.9079767E-2,4.564421E-3],"categories":[],"categories_nodes":[],"categories_segments":[],"categories_sizes":[],"default_left":[0,0,0,0,0,0,0,0,0,0,0,0,0,0,0,0,0,0,0,0,0,0,0,0,0,0,0,0,0],"id":25,"left_children":[1,3,5,7,9,11,13,-1,15,17,19,21,23,25,27,-1,-1,-1,-1,-1,-1,-1,-1,-1,-1,-1,-1,-1,-1],"loss_changes":[1.2179786E1,6.606518E0,6.181176E0,3.6460123E0,2.8485508E0,3.7831945E0,3.9255395E0,0E0,2.943591E0,2.4437022E0,3.5913124E0,3.4438155E0,2.4849634E0,1.821698E0,3.7331815E0,0E0,0E0,0E0,0E0,0E0,0E0,0E0,0E0,0E0,0E0,0E0,0E0,0E0,0E0],"parents":[2147483647,0,0,1,1,2,2,3,3,4,4,5,5,6,6,8,8,9,9,10,10,11,11,12,12,13,13,14,14],"right_children":[2,4,6,8,10,12,14,-1,16,18,20,22,24,26,28,-1,-1,-1,-1,-1,-1,-1,-1,-1,-1,-1,-1,-1,-1],"split_conditions":[3E0,6.51E1,6.61E1,2.51E1,4.27E1,8E0,4.63E1,4.54315E-2,1E1,3.94E1,7.2E1,5.36E1,8.16E1,9.74E1,6.73E1,2.2305785E-2,-6.190009E-3,1.9418094E-2,-3.1167466E-2,4.31696E-2,1.4980136E-2,2.273754E-3,-1.3740229E-2,-2.2685094E-2,4.357301E-3,-1.7318254E-2,1.1091952E-2,3.9079767E-2,4.564421E-3],"split_indices":[3,0,0,0,2,3,2,0,1,2,2,0,2,0,0,0,0,0,0,0,0,0,0,0,0,0,0,0,0],"split_type":[0,0,0,0,0,0,0,0,0,0,0,0,0,0,0,0,0,0,0,0,0,0,0,0,0,0,0,0,0],"sum_hessian":[4.9470367E2,1.16414085E2,3.782896E2,6.0159737E1,5.625435E1,2.0602493E2,1.7226466E2,3.6217408E0,5.6537994E1,7.908E0,4.8346348E1,1.3431375E2,7.171119E1,3.4412533E1,1.3785213E2,1.0210079E1,4.6327915E1,4.893252E0,3.014748E0,2.6468754E1,2.1877592E1,7.466632E1,5.964743E1,6.223501E1,9.476178E0,2.814777E1,6.264765E0,7.372622E0,1.304795E2],"tree_param":{"num_deleted":"0","num_feature":"15","num_nodes":"29","size_leaf_vector":"1"}},{"base_weights":[2.323481E-2,4.409847E-1,-3.867676E-2,3.3917195E-1,4.68727E-2,5.7657216E-2,-1.7965399E-1,4.5243946E-1,-7.940324E-2,3.401417E-2,6.110329E-1,-1.2231963E-1,-3.1365946E-2,1.1206155E-2,4.320547E-2,-3.9166164E-2,1.5737986E-2,-1.2791993E-2,3.8381394E-3,1.6663957E-2,4.7696684E-2,-3.866886E-3,-2.8516812E-2],"categories":[],"categories_nodes":[],"categories_segments":[],"categories_sizes":[],"default_left":[0,0,0,0,0,0,0,0,0,0,0,0,0,0,0,0,0,0,0,0,0,0,0],"id":26,"left_children":[1,3,5,7,-1,9,11,13,15,17,19,21,-1,-1,-1,-1,-1,-1,-1,-1,-1,-1,-1],"loss_changes":[1.2619072E1,2.8650646E0,5.7860193E0,2.5876956E0,0E0,3.2945473E0,4.360509E0,3.8017988E0,3.6630116E0,3.0439281E0,6.653435E-1,3.0693676E0,0E0,0E0,0E0,0E0,0E0,0E0,0E0,0E0,0E0,0E0,0E0],"parents":[2147483647,0,0,1,1,2,2,3,3,5,5,6,6,7,7,8,8,9,9,10,10,11,11],"right_children":[2,4,6,8,-1,10,12,14,16,18,20,22,-1,-1,-1,-1,-1,-1,-1,-1,-1,-1,-1],"split_conditions":[2E0,1E0,7E0,7.82E1,4.68727E-2,1E0,1.6E1,6.25E1,8.24E1,4.11E1,7.25E1,1E0,-3.1365946E-2,1.1206155E-2,4.320547E-2,-3.9166164E-2,1.5737986E-2,-1.2791993E-2,3.8381394E-3,1.6663957E-2,4.7696684E-2,-3.866886E-3,-2.8516812E-2],"split_indices":[3,5,3,2,0,4,1,2,2,2,2,9,0,0,0,0,0,0,0,0,0,0,0],"split_type":[0,0,0,0,0,0,0,0,0,0,0,0,0,0,0,0,0,0,0,0,0,0,0],"sum_hessian":[4.8625E2,6.1971684E1,4.2427832E2,5.282238E1,9.149306E0,2.5239812E2,1.718802E2,4.1509026E1,1.1313353E1,2.430742E2,9.32391E0,1.5349472E2,1.8385485E1,2.7694048E1,1.381498E1,3.7065907E0,7.6067615E0,3.0601068E1,2.1247314E2,6.24076E0,3.0831501E0,1.4055527E2,1.2939454E1],"tree_param":{"num_deleted":"0","num_feature":"15","num_nodes":"23","size_leaf_vector":"1"}},{"base_weights":[3.6855587E-3,-9.6846E-2,2.2854774E-1,7.6044165E-2,-1.4743142E-1,1.623412E-1,6.265469E-1,1.5712659E-1,-3.2352042E-1,-2.2288723E-1,-3.560279E-2,6.0140157E-1,1.06883116E-1,8.5574466E-1,-1.6958706E-2,-2.8818237E-4,3.3505313E-2,-8.891527E-3,-3.004444E-2,-1.3584522E-2,8.075647E-3,-3.7105106E-2,5.2260415E-4,4.205712E-2,-9.946527E-3,-1.2987794E-3,2.3146126E-2,-5.630883E-5,5.78519E-2],"categories":[],"categories_nodes":[],"categories_segments":[],"categories_sizes":[],"default_left":[0,0,0,0,0,0,0,0,0,0,0,0,0,0,0,0,0,0,0,0,0,0,0,0,0,0,0,0,0],"id":27,"left_children":[1,3,5,7,9,11,13,15,17,19,21,23,25,27,-1,-1,-1,-1,-1,-1,-1,-1,-1,-1,-1,-1,-1,-1,-1],"loss_changes":[1.1265648E1,3.0233343E0,3.9552383E0,2.5979311E0,2.2432814E0,3.18282E0,5.073208E0,5.521302E0,4.4229698E-1,3.0288234E0,3.5439162E0,2.995325E0,5.6701736E0,4.5833015E0,0E0,0E0,0E0,0E0,0E0,0E0,0E0,0E0,0E0,0E0,0E0,0E0,0E0,0E0,0E0],"parents":[2147483647,0,0,1,1,2,2,3,3,4,4,5,5,6,6,7,7,8,8,9,9,10,10,11,11,12,12,13,13],"right_children":[2,4,6,8,10,12,14,16,18,20,22,24,26,28,-1,-1,-1,-1,-1,-1,-1,-1,-1,-1,-1,-1,-1,-1,-1],"split_conditions":[7.5E1,1E1,1E0,6.95E1,1.4E1,9E0,9.49E1,6.23E1,7.34E1,7.07E1,2.42E1,9.66E1,9.41E1,1.2E1,-1.6958706E-2,-2.8818237E-4,3.3505313E-2,-8.891527E-3,-3.004444E-2,-1.3584522E-2,8.075647E-3,-3.7105106E-2,5.2260415E-4,4.205712E-2,-9.946527E-3,-1.2987794E-3,2.3146126E-2,-5.630883E-5,5.78519E-2],"split_indices":[0,1,5,0,1,1,0,0,0,0,0,0,0,1,0,0,0,0,0,0,0,0,0,0,0,0,0,0,0],"split_type":[0,0,0,0,0,0,0,0,0,0,0,0,0,0,0,0,0,0,0,0,0,0,0,0,0,0,0,0,0],"sum_hessian":[4.9637415E2,3.43411E2,1.5296315E2,7.761979E1,2.657912E2,1.3235414E2,2.0609009E1,6.5030174E1,1.2589619E1,1.5811247E2,1.07678734E2,1.3738951E1,1.1861519E2,1.6748026E1,3.8609836E0,5.0107826E1,1.4922345E1,9.330065E0,3.2595534E0,1.4056026E2,1.7552227E1,5.664819E0,1.02013916E2,1.0532832E1,3.2061188E0,8.705647E1,3.1558716E1,4.616129E0,1.2131896E1],"tree_param":{"num_deleted":"0","num_feature":"15","num_nodes":"29","size_leaf_vector":"1"}},{"base_weights":[-7.941317E-3,1.4487477E-1,-1.9384046E-1,6.7512795E-2,7.8747135E-1,-8.052435E-1,-1.5924151E-1,-8.336216E-4,6.703663E-1,8.80509E-1,1.6359988E-3,-2.4207493E-2,-5.1906195E-2,-1.0305351E-1,-5.9117776E-1,-1.2497753E-3,3.146799E-2,5.2172255E-2,1.5871834E-2,1.1714435E-2,5.0008446E-2,-8.955594E-3,8.56566E-3,-3.4230262E-2,-2.0707033E-3],"categories":[],"categories_nodes":[],"categories_segments":[],"categories_sizes":[],"default_left":[0,0,0,0,0,0,0,0,0,0,0,0,0,0,0,0,0,0,0,0,0,0,0,0,0],"id":28,"left_children":[1,3,5,7,9,11,13,15,17,19,-1,-1,-1,21,23,-1,-1,-1,-1,-1,-1,-1,-1,-1,-1],"loss_changes":[1.3947802E1,1.3344092E1,4.557189E0,9.956418E0,1.9980488E0,3.660164E-1,5.0569506E0,3.335515E0,2.9086294E0,1.7497253E0,0E0,0E0,0E0,3.9499402E0,1.2075863E0,0E0,0E0,0E0,0E0,0E0,0E0,0E0,0E0,0E0,0E0],"parents":[2147483647,0,0,1,1,2,2,3,3,4,4,5,5,6,6,7,7,8,8,9,9,13,13,14,14],"right_children":[2,4,6,8,10,12,14,16,18,20,-1,-1,-1,22,24,-1,-1,-1,-1,-1,-1,-1,-1,-1,-1],"split_conditions":[6E0,1E0,2.8E1,8.95E1,1E0,6.63E1,1.6E1,1E0,9.82E1,4.99E1,1.6359988E-3,-2.4207493E-2,-5.1906195E-2,8.26E1,7.5E1,-1.2497753E-3,3.146799E-2,5.2172255E-2,1.5871834E-2,1.1714435E-2,5.0008446E-2,-8.955594E-3,8.56566E-3,-3.4230262E-2,-2.0707033E-3],"split_indices":[3,5,0,0,12,2,1,4,0,0,0,0,0,0,2,0,0,0,0,0,0,0,0,0,0],"split_type":[0,0,0,0,0,0,0,0,0,0,0,0,0,0,0,0,0,0,0,0,0,0,0,0,0],"sum_hessian":[4.889864E2,2.684945E2,2.2049188E2,2.406302E2,2.7864315E1,1.0616288E1,2.098756E2,2.1702443E2,2.3605774E1,2.4658108E1,3.2062078E0,5.7572284E0,4.85906E0,1.8681282E2,2.306278E1,2.0993573E2,7.088689E0,1.0524202E1,1.3081571E1,4.314688E0,2.034342E1,1.4653766E2,4.0275154E1,1.9503122E1,3.5596573E0],"tree_param":{"num_deleted":"0","num_feature":"15","num_nodes":"25","size_leaf_vector":"1"}},{"base_weights":[-7.5072777E-3,7.363563E-2,-2.2871281E-1,-5.0844826E-2,2.093691E-1,-3.170865E-1,1.357211E-1,-1.4631354E-2,-6.308655E-2,8.750015E-3,4.0329736E-1,-7.44467E-1,-2.3255852E-1,-3.3207666E-2,2.7994514E-1,3.376994E-4,-2.6475606E-2,7.255131E-3,-1.8693462E-2,1.5255436E-2,4.2404857E-2,-5.3984493E-2,-1.7531725E-2,-1.4583883E-2,4.0756324E-3,3.962351E-2,2.4020888E-3],"categories":[],"categories_nodes":[],"categories_segments":[],"categories_sizes":[],"default_left":[0,0,0,0,0,0,0,0,0,0,0,0,0,0,0,0,0,0,0,0,0,0,0,0,0,0,0],"id":29,"left_children":[1,3,5,7,9,11,13,15,-1,17,19,21,23,-1,25,-1,-1,-1,-1,-1,-1,-1,-1,-1,-1,-1,-1],"loss_changes":[8.823719E0,6.08872E0,4.2917976E0,8.245076E0,6.699247E0,3.6733646E0,3.2369359E0,2.0294495E0,0E0,4.5254545E0,3.566227E0,1.8825979E0,1.7013283E0,0E0,2.7087836E0,0E0,0E0,0E0,0E0,0E0,0E0,0E0,0E0,0E0,0E0,0E0,0E0],"parents":[2147483647,0,0,1,1,2,2,3,3,4,4,5,5,6,6,7,7,9,9,10,10,11,11,12,12,14,14],"right_children":[2,4,6,8,10,12,14,16,-1,18,20,22,24,-1,26,-1,-1,-1,-1,-1,-1,-1,-1,-1,-1,-1,-1],"split_conditions":[8E0,6.51E1,7.68E1,6.5E1,6.27E1,4.12E1,9E0,9.49E1,-6.308655E-2,6E0,1E0,1.2E1,8.71E1,-3.3207666E-2,9E0,3.376994E-4,-2.6475606E-2,7.255131E-3,-1.8693462E-2,1.5255436E-2,4.2404857E-2,-5.3984493E-2,-1.7531725E-2,-1.4583883E-2,4.0756324E-3,3.962351E-2,2.4020888E-3],"split_indices":[3,0,2,0,2,0,1,2,0,3,5,1,0,0,3,0,0,0,0,0,0,0,0,0,0,0,0],"split_type":[0,0,0,0,0,0,0,0,0,0,0,0,0,0,0,0,0,0,0,0,0,0,0,0,0,0,0],"sum_hessian":[4.8965408E2,3.5873102E2,1.3092307E2,1.8744843E2,1.7128258E2,1.054756E2,2.5447468E1,1.8298796E2,4.4604626E0,8.4702675E1,8.65799E1,1.6127295E1,8.9348305E1,3.3367352E0,2.2110731E1,1.7663826E2,6.3497086E0,6.2905895E1,2.1796776E1,7.2304726E1,1.4275179E1,7.7711473E0,8.356147E0,7.525415E1,1.4094153E1,6.134889E0,1.5975842E1],"tree_param":{"num_deleted":"0","num_feature":"15","num_nodes":"27","size_leaf_vector":"1"}},{"base_weights":[-3.6509081E-3,3.570158E-1,-5.798014E-2,2.1335904E-1,7.611177E-1,-1.7987594E-1,7.334327E-2,2.9150164E-1,-2.1893593E-2,5.082938E-2,1.10609E-3,-1.5700024E-1,-5.7883155E-2,-7.455458E-2,2.3746815E-1,3.727044E-2,1.1279649E-2,-4.3299785E-3,-2.0482054E-2,1.2542024E-2,-8.5938275E-3,1.8027833E-2,-6.2605753E-3],"categories":[],"categories_nodes":[],"categories_segments":[],"categories_sizes":[],"default_left":[0,0,0,0,0,0,0,0,0,0,0,0,0,0,0,0,0,0,0,0,0,0,0],"id":30,"left_children":[1,3,5,7,9,11,13,15,-1,-1,-1,17,-1,19,21,-1,-1,-1,-1,-1,-1,-1,-1],"loss_changes":[9.611835E0,3.565668E0,6.8365946E0,2.6093137E0,3.083664E0,4.769357E0,5.01574E0,1.1524172E0,0E0,0E0,0E0,3.8320918E0,0E0,3.4970484E0,4.4127297E0,0E0,0E0,0E0,0E0,0E0,0E0,0E0,0E0],"parents":[2147483647,0,0,1,1,2,2,3,3,4,4,5,5,6,6,7,7,11,11,13,13,14,14],"right_children":[2,4,6,8,10,12,14,16,-1,-1,-1,18,-1,20,22,-1,-1,-1,-1,-1,-1,-1,-1],"split_conditions":[2E0,7.67E1,6.51E1,1E0,1.4E1,6.5E1,6.39E1,3.13E1,-2.1893593E-2,5.082938E-2,1.10609E-3,9E0,-5.7883155E-2,1E1,9E0,3.727044E-2,1.1279649E-2,-4.3299785E-3,-2.0482054E-2,1.2542024E-2,-8.5938275E-3,1.8027833E-2,-6.2605753E-3],"split_indices":[3,0,0,11,1,0,2,0,0,0,0,3,0,1,3,0,0,0,0,0,0,0,0],"split_type":[0,0,0,0,0,0,0,0,0,0,0,0,0,0,0,0,0,0,0,0,0,0,0],"sum_hessian":[4.884749E2,6.3219368E1,4.2525555E2,4.7766525E1,1.545284E1,2.2035237E2,2.0490317E2,4.3142185E1,4.6243396E0,1.1203999E1,4.2488413E0,2.1644904E2,3.9033377E0,1.0806674E2,9.6836426E1,4.162904E0,3.8979282E1,1.7032828E2,4.612076E1,2.4516989E1,8.354975E1,7.2303474E1,2.4532953E1],"tree_param":{"num_deleted":"0","num_feature":"15","num_nodes":"23","size_leaf_vector":"1"}},{"base_weights":[7.6811723E-3,-2.8723E-2,3.732576E-1,-7.0490904E-2,3.746503E-1,-1.801896E-2,4.3938652E-1,-6.637141E-1,-5.5534255E-2,-9.6572906E-2,6.7878646E-1,5.0110334E-1,-5.3860554E-3,-1.4060499E-2,-4.4579625E-2,2.8951794E-2,-3.3962715E-3,-1.832277E-2,3.8623538E-2,1.4752589E-2,5.4474097E-2,4.0285792E-2,1.6617917E-2],"categories":[],"categories_nodes":[],"categories_segments":[],"categories_sizes":[],"default_left":[0,0,0,0,0,0,0,0,0,0,0,0,0,0,0,0,0,0,0,0,0,0,0],"id":31,"left_children":[1,3,5,7,9,-1,11,13,15,17,19,21,-1,-1,-1,-1,-1,-1,-1,-1,-1,-1,-1],"loss_changes":[6.5401597E0,7.559484E0,2.3173957E0,3.5654879E0,6.100843E0,0E0,1.4476266E0,6.116276E-1,3.161859E0,4.3626275E0,3.7316399E0,1.6478014E0,0E0,0E0,0E0,0E0,0E0,0E0,0E0,0E0,0E0,0E0,0E0],"parents":[2147483647,0,0,1,1,2,2,3,3,4,4,6,6,7,7,8,8,9,9,10,10,11,11],"right_children":[2,4,6,8,10,-1,12,14,16,18,20,22,-1,-1,-1,-1,-1,-1,-1,-1,-1,-1,-1],"split_conditions":[9.25E1,1E0,3.23E1,1.77E1,1.2E1,-1.801896E-2,1E0,1.1E1,2.42E1,7.54E1,7.41E1,1.1E1,-5.3860554E-3,-1.4060499E-2,-4.4579625E-2,2.8951794E-2,-3.3962715E-3,-1.832277E-2,3.8623538E-2,1.4752589E-2,5.4474097E-2,4.0285792E-2,1.6617917E-2],"split_indices":[0,5,2,0,1,0,5,1,0,2,0,1,0,0,0,0,0,0,0,0,0,0,0],"split_type":[0,0,0,0,0,0,0,0,0,0,0,0,0,0,0,0,0,0,0,0,0,0,0],"sum_hessian":[4.8962137E2,4.4611826E2,4.350311E1,4.050065E2,4.111177E1,3.2291486E0,4.0273964E1,8.893395E0,3.961131E2,1.639387E1,2.4717901E1,3.6266933E1,4.0070286E0,4.154282E0,4.7391133E0,6.7108526E0,3.8940225E2,1.2950423E1,3.4434452E0,1.3666749E1,1.1051153E1,1.1582987E1,2.4683947E1],"tree_param":{"num_deleted":"0","num_feature":"15","num_nodes":"23","size_leaf_vector":"1"}},{"base_weights":[-2.3855127E-3,-1.1020502E-1,1.16624534E-1,-8.82288E-2,-5.466941E-2,-3.4031488E-2,2.8114665E-1,-4.1318398E-2,-3.4518522E-1,-1.16314605E-1,2.4988443E-1,8.16217E-1,2.2223459E-1,3.2633256E-5,-2.011506E-2,-2.1009078E-2,9.605735E-3,-3.4527326E-4,-2.8883506E-2,1.8954994E-2,-1.4962579E-2,7.158273E-2,1.3944042E-2,-1.4375338E-2,1.4131985E-2],"categories":[],"categories_nodes":[],"categories_segments":[],"categories_sizes":[],"default_left":[0,0,0,0,0,0,0,0,0,0,0,0,0,0,0,0,0,0,0,0,0,0,0,0,0],"id":32,"left_children":[1,3,5,7,-1,9,11,13,15,17,19,21,23,-1,-1,-1,-1,-1,-1,-1,-1,-1,-1,-1,-1],"loss_changes":[6.234594E0,5.411345E0,5.7342844E0,3.0043714E0,0E0,2.866418E0,3.3020887E0,3.2259185E0,1.6330905E0,4.78353E0,2.0724094E0,3.1015997E0,3.1887722E0,0E0,0E0,0E0,0E0,0E0,0E0,0E0,0E0,0E0,0E0,0E0,0E0],"parents":[2147483647,0,0,1,1,2,2,3,3,5,5,6,6,7,7,8,8,9,9,10,10,11,11,12,12],"right_children":[2,4,6,8,-1,10,12,14,16,18,20,22,24,-1,-1,-1,-1,-1,-1,-1,-1,-1,-1,-1,-1],"split_conditions":[6.51E1,6.5E1,6.36E1,1E0,-5.466941E-2,9.19E1,6.73E1,1E0,6.19E1,8.52E1,1E0,1.2E1,7.01E1,3.2633256E-5,-2.011506E-2,-2.1009078E-2,9.605735E-3,-3.4527326E-4,-2.8883506E-2,1.8954994E-2,-1.4962579E-2,7.158273E-2,1.3944042E-2,-1.4375338E-2,1.4131985E-2],"split_indices":[0,0,2,6,0,0,0,9,0,0,6,1,0,0,0,0,0,0,0,0,0,0,0,0,0],"split_type":[0,0,0,0,0,0,0,0,0,0,0,0,0,0,0,0,0,0,0,0,0,0,0,0,0],"sum_hessian":[4.838763E2,2.5391289E2,2.2996341E2,2.494274E2,4.4854913E0,1.2045429E2,1.09509125E2,2.1190286E2,3.7524544E1,9.384648E1,2.6607807E1,9.586317E0,9.9922806E1,1.907256E2,2.1177258E1,3.3119675E1,4.404871E0,7.667758E1,1.7168901E1,2.1790092E1,4.817714E0,3.6926222E0,5.8936954E0,1.0188162E1,8.973465E1],"tree_param":{"num_deleted":"0","num_feature":"15","num_nodes":"25","size_leaf_vector":"1"}},{"base_weights":[-5.455507E-3,-7.3210165E-2,2.3306252E-1,-1.0034881E-1,2.4541701E-1,-1.130523E-1,3.2305098E-1,3.0888744E-2,-1.6721483E-1,5.016864E-1,-1.3566904E-1,-4.5753196E-1,2.3378626E-1,3.9165996E-2,2.7157918E-1,-5.286123E-3,1.071456E-2,-1.548998E-2,-4.441293E-3,6.634209E-3,5.4835778E-2,-3.4776967E-2,2.4937997E-2,-4.7778613E-3,-3.0298242E-2,2.3942046E-2,-1.729554E-2,-2.1732952E-2,1.7028665E-2],"categories":[],"categories_nodes":[],"categories_segments":[],"categories_sizes":[],"default_left":[0,0,0,0,0,0,0,0,0,0,0,0,0,0,0,0,0,0,0,0,0,0,0,0,0,0,0,0,0],"id":33,"left_children":[1,3,5,7,9,11,13,15,17,19,21,23,25,-1,27,-1,-1,-1,-1,-1,-1,-1,-1,-1,-1,-1,-1,-1,-1],"loss_changes":[7.989981E0,3.3535225E0,3.4433088E0,3.1244967E0,3.0473104E0,2.8921316E0,1.850009E0,3.0498977E0,2.6062603E0,3.9061542E0,4.9833426E0,5.8863926E-1,1.9097524E0,0E0,4.0384455E0,0E0,0E0,0E0,0E0,0E0,0E0,0E0,0E0,0E0,0E0,0E0,0E0,0E0,0E0],"parents":[2147483647,0,0,1,1,2,2,3,3,4,4,5,5,6,6,7,7,8,8,9,9,10,10,11,11,12,12,14,14],"right_children":[2,4,6,8,10,12,14,16,18,20,22,24,26,-1,28,-1,-1,-1,-1,-1,-1,-1,-1,-1,-1,-1,-1,-1,-1],"split_conditions":[7.97E1,1E0,4.61E1,1.1E1,6.54E1,9.19E1,5.04E1,6.06E1,1.3E1,1.4E1,7.54E1,8.42E1,4.29E1,3.9165996E-2,5.34E1,-5.286123E-3,1.071456E-2,-1.548998E-2,-4.441293E-3,6.634209E-3,5.4835778E-2,-3.4776967E-2,2.4937997E-2,-4.7778613E-3,-3.0298242E-2,2.3942046E-2,-1.729554E-2,-2.1732952E-2,1.7028665E-2],"split_indices":[0,5,2,1,2,0,2,0,1,1,2,0,2,0,2,0,0,0,0,0,0,0,0,0,0,0,0,0,0],"split_type":[0,0,0,0,0,0,0,0,0,0,0,0,0,0,0,0,0,0,0,0,0,0,0,0,0,0,0,0,0],"sum_hessian":[4.9235205E2,3.8397205E2,1.0838001E2,3.5446594E2,2.9506104E1,2.2310966E1,8.6069046E1,1.198247E2,2.3464124E2,1.7453E1,1.2053103E1,1.1033429E1,1.1277538E1,7.2268653E0,7.884218E1,6.891526E1,5.0909443E1,8.219019E1,1.5245103E2,1.1527381E1,5.925618E0,6.3516135E0,5.70149E0,3.6866884E0,7.3467402E0,8.048982E0,3.2285562E0,6.5451097E0,7.2297066E1],"tree_param":{"num_deleted":"0","num_feature":"15","num_nodes":"29","size_leaf_vector":"1"}},{"base_weights":[-6.743326E-3,-1.3442644E-1,9.005634E-2,-1.872219E-1,1.9740257E-1,6.016914E-2,6.4513004E-1,3.2504117E-1,-2.2010428E-1,8.4722E-1,-1.8632421E-1,-7.953195E-2,2.0435801E-1,7.8139347E-1,5.7779257E-3,2.6266707E-2,-5.4519526E-3,-2.3779681E-2,-4.49197E-3,5.6756824E-2,2.4365564E-3,-3.0111745E-2,1.3472013E-3,-8.300028E-3,1.2678987E-2,2.1786392E-2,5.0209663E-3,5.6583267E-2,1.99463E-2],"categories":[],"categories_nodes":[],"categories_segments":[],"categories_sizes":[],"default_left":[0,0,0,0,0,0,0,0,0,0,0,0,0,0,0,0,0,0,0,0,0,0,0,0,0,0,0,0,0],"id":34,"left_children":[1,3,5,7,9,11,13,15,17,19,21,23,25,27,-1,-1,-1,-1,-1,-1,-1,-1,-1,-1,-1,-1,-1,-1,-1],"loss_changes":[6.079214E0,3.7522972E0,4.6030326E0,3.162108E0,7.5379624E0,5.3867064E0,9.338956E-1,1.0545917E0,5.7151403E0,2.5123863E0,1.7395208E0,3.963231E0,3.118081E0,1.0375896E0,0E0,0E0,0E0,0E0,0E0,0E0,0E0,0E0,0E0,0E0,0E0,0E0,0E0,0E0,0E0],"parents":[2147483647,0,0,1,1,2,2,3,3,4,4,5,5,6,6,7,7,8,8,9,9,10,10,11,11,12,12,13,13],"right_children":[2,4,6,8,10,12,14,16,18,20,22,24,26,28,-1,-1,-1,-1,-1,-1,-1,-1,-1,-1,-1,-1,-1,-1,-1],"split_conditions":[6.02E1,1E0,1E0,3.48E1,4.26E1,6.27E1,1.5E1,5.16E1,5.56E1,7.23E1,4.82E1,9.05E1,1.1E1,6.39E1,5.7779257E-3,2.6266707E-2,-5.4519526E-3,-2.3779681E-2,-4.49197E-3,5.6756824E-2,2.4365564E-3,-3.0111745E-2,1.3472013E-3,-8.300028E-3,1.2678987E-2,2.1786392E-2,5.0209663E-3,5.6583267E-2,1.99463E-2],"split_indices":[0,7,4,2,0,2,1,0,2,2,0,0,1,2,0,0,0,0,0,0,0,0,0,0,0,0,0,0,0],"split_type":[0,0,0,0,0,0,0,0,0,0,0,0,0,0,0,0,0,0,0,0,0,0,0,0,0,0,0,0,0],"sum_hessian":[4.8987897E2,2.1107405E2,2.788049E2,1.8247696E2,2.8597095E1,2.656118E2,1.3193109E1,1.0470818E1,1.7200613E2,1.0168872E1,1.8428225E1,1.3513307E2,1.3047873E2,1.0114928E1,3.0781806E0,7.02098E0,3.449838E0,5.7189342E1,1.14816795E2,7.164069E0,3.0048027E0,5.6282687E0,1.2799955E1,1.0768264E2,2.7450424E1,3.9456196E1,9.102254E1,4.257221E0,5.857707E0],"tree_param":{"num_deleted":"0","num_feature":"15","num_nodes":"29","size_leaf_vector":"1"}},{"base_weights":[-7.9287505E-3,2.9957646E-1,-5.2645624E-2,-1.2562548E-1,4.6285087E-1,-8.6937994E-2,2.7366194E-1,5.96348E-1,-5.7791173E-1,6.173814E-2,3.5364914E-1,-1.0106129E-1,4.255036E-1,-1.5754664E-2,3.5098478E-1,4.5021094E-2,8.086865E-3,-4.6298914E-2,3.4483252E-4,6.2077353E-3,3.112661E-2,-1.157458E-3,-8.847437E-3,-3.8135282E-3,5.085625E-2,2.0854719E-2,-1.0563244E-2],"categories":[],"categories_nodes":[],"categories_segments":[],"categories_sizes":[],"default_left":[0,0,0,0,0,0,0,0,0,0,0,0,0,0,0,0,0,0,0,0,0,0,0,0,0,0,0],"id":35,"left_children":[1,3,5,7,9,11,13,15,17,-1,19,21,23,-1,25,-1,-1,-1,-1,-1,-1,-1,-1,-1,-1,-1,-1],"loss_changes":[6.7943535E0,4.413456E0,4.849188E0,6.285144E0,3.402254E0,2.8726592E0,1.9884758E0,8.454218E-1,2.3865442E0,0E0,2.4711604E0,2.2503636E0,3.2476282E0,0E0,1.4609818E0,0E0,0E0,0E0,0E0,0E0,0E0,0E0,0E0,0E0,0E0,0E0,0E0],"parents":[2147483647,0,0,1,1,2,2,3,3,4,4,5,5,6,6,7,7,8,8,10,10,11,11,12,12,14,14],"right_children":[2,4,6,8,10,12,14,16,18,-1,20,22,24,-1,26,-1,-1,-1,-1,-1,-1,-1,-1,-1,-1,-1,-1],"split_conditions":[2E0,4.99E1,9.19E1,3.65E1,9E0,1E0,3.57E1,2.86E1,1.3E1,6.173814E-2,7.33E1,6E0,6.43E1,-1.5754664E-2,1.6E1,4.5021094E-2,8.086865E-3,-4.6298914E-2,3.4483252E-4,6.2077353E-3,3.112661E-2,-1.157458E-3,-8.847437E-3,-3.8135282E-3,5.085625E-2,2.0854719E-2,-1.0563244E-2],"split_indices":[3,0,0,0,1,14,2,0,1,0,0,3,2,0,1,0,0,0,0,0,0,0,0,0,0,0,0],"split_type":[0,0,0,0,0,0,0,0,0,0,0,0,0,0,0,0,0,0,0,0,0,0,0,0,0,0,0],"sum_hessian":[4.919637E2,6.1734394E1,4.302293E2,1.7192356E1,4.4542038E1,3.8997913E2,4.0250187E1,6.4992476E0,1.0693109E1,4.2429338E0,4.0299107E1,3.8030054E2,9.678596E0,4.315543E0,3.5934647E1,3.1932864E0,3.3059611E0,6.337666E0,4.3554425E0,2.2530684E1,1.7768423E1,1.8829097E2,1.9200955E2,5.708287E0,3.970309E0,3.238497E1,3.5496738E0],"tree_param":{"num_deleted":"0","num_feature":"15","num_nodes":"27","size_leaf_vector":"1"}},{"base_weights":[-7.959268E-3,-5.4169998E-2,1.6839835E-1,-8.50566E-2,1.4253134E-1,1.0226996E-1,6.380644E-1,5.9432924E-2,-1.2673475E-1,3.8836694E-1,-1.3075306E-1,5.4555106E-1,2.4025515E-2,5.694326E-3,8.102511E-1,-2.321816E-2,6.9901007E-3,-9.857799E-3,1.3897525E-3,1.4530593E-3,3.860179E-2,-1.4633919E-2,2.5562925E-2,4.7167726E-2,1.1810242E-2,-8.016436E-3,5.4900288E-3,2.0656066E-2,4.7636956E-2],"categories":[],"categories_nodes":[],"categories_segments":[],"categories_sizes":[],"default_left":[0,0,0,0,0,0,0,0,0,0,0,0,0,0,0,0,0,0,0,0,0,0,0,0,0,0,0,0,0],"id":36,"left_children":[1,3,5,7,9,11,13,15,17,19,21,23,25,-1,27,-1,-1,-1,-1,-1,-1,-1,-1,-1,-1,-1,-1,-1,-1],"loss_changes":[3.9791465E0,2.3618364E0,3.0836282E0,2.0242872E0,3.6021779E0,3.1106973E0,1.0198951E0,3.2497716E0,2.8374548E0,3.8485403E0,2.8298097E0,1.4343147E0,1.2446572E0,0E0,1.2201071E-1,0E0,0E0,0E0,0E0,0E0,0E0,0E0,0E0,0E0,0E0,0E0,0E0,0E0,0E0],"parents":[2147483647,0,0,1,1,2,2,3,3,4,4,5,5,6,6,7,7,8,8,9,9,10,10,11,11,12,12,14,14],"right_children":[2,4,6,8,10,12,14,16,18,20,22,24,26,-1,28,-1,-1,-1,-1,-1,-1,-1,-1,-1,-1,-1,-1,-1,-1],"split_conditions":[7.66E1,1E0,1E0,1E1,5.82E1,7.82E1,1.2E1,3.7E1,6.4E1,4.68E1,1.5E1,1.1E1,8.19E1,5.694326E-3,8.16E1,-2.321816E-2,6.9901007E-3,-9.857799E-3,1.3897525E-3,1.4530593E-3,3.860179E-2,-1.4633919E-2,2.5562925E-2,4.7167726E-2,1.1810242E-2,-8.016436E-3,5.4900288E-3,2.0656066E-2,4.7636956E-2],"split_indices":[2,7,5,1,2,2,1,2,2,2,1,1,2,0,2,0,0,0,0,0,0,0,0,0,0,0,0,0,0],"split_type":[0,0,0,0,0,0,0,0,0,0,0,0,0,0,0,0,0,0,0,0,0,0,0,0,0,0,0,0,0],"sum_hessian":[4.8614264E2,3.8575632E2,1.0038632E2,3.3389478E2,5.1861526E1,8.906397E1,1.1322346E1,7.465507E1,2.5923972E2,2.708018E1,2.4781345E1,1.2466225E1,7.659775E1,3.2104323E0,8.111914E0,9.295413E0,6.535966E1,1.7789487E2,8.134485E1,1.45395975E1,1.2540583E1,2.0224525E1,4.556819E0,4.556845E0,7.9093795E0,2.4046349E1,5.2551403E1,3.1716146E0,4.9402995E0],"tree_param":{"num_deleted":"0","num_feature":"15","num_nodes":"29","size_leaf_vector":"1"}},{"base_weights":[-1.045858E-2,2.06004E-1,-7.56438E-2,9.339049E-2,5.562359E-1,-2.639477E-2,-2.224463E-1,3.0896075E-2,4.7954303E-1,7.002972E-1,-5.4968093E-3,-4.6264417E-2,4.8061863E-1,-2.804698E-1,1.3322593E-1,-2.4146184E-3,1.7400801E-2,4.6284065E-2,7.386765E-3,1.5500367E-2,4.1004386E-2,-3.1024285E-3,2.9323379E-2,2.0820412E-3,4.706019E-2,-1.6860804E-2,2.0330462E-3,3.296371E-2,-1.265531E-2],"categories":[],"categories_nodes":[],"categories_segments":[],"categories_sizes":[],"default_left":[0,0,0,0,0,0,0,0,0,0,0,0,0,0,0,0,0,0,0,0,0,0,0,0,0,0,0,0,0],"id":37,"left_children":[1,3,5,7,9,11,13,15,17,19,-1,21,23,25,27,-1,-1,-1,-1,-1,-1,-1,-1,-1,-1,-1,-1,-1,-1],"loss_changes":[6.853679E0,4.3824134E0,2.6922584E0,2.0672598E0,2.682888E0,2.8488355E0,1.9692855E0,1.908464E0,1.632103E0,7.9589176E-1,0E0,2.7420034E0,2.1179183E0,1.4862185E0,2.9730084E0,0E0,0E0,0E0,0E0,0E0,0E0,0E0,0E0,0E0,0E0,0E0,0E0,0E0,0E0],"parents":[2147483647,0,0,1,1,2,2,3,3,4,4,5,5,6,6,7,7,8,8,9,9,11,11,12,12,13,13,14,14],"right_children":[2,4,6,8,10,12,14,16,18,20,-1,22,24,26,28,-1,-1,-1,-1,-1,-1,-1,-1,-1,-1,-1,-1,-1,-1],"split_conditions":[3E0,7.81E1,9E0,1E0,9.82E1,1E0,1E0,1E0,4.63E1,5.13E1,-5.4968093E-3,1E0,6.13E1,8.74E1,5.97E1,-2.4146184E-3,1.7400801E-2,4.6284065E-2,7.386765E-3,1.5500367E-2,4.1004386E-2,-3.1024285E-3,2.9323379E-2,2.0820412E-3,4.706019E-2,-1.6860804E-2,2.0330462E-3,3.296371E-2,-1.265531E-2],"split_indices":[3,0,3,7,0,4,7,10,0,2,0,14,2,0,2,0,0,0,0,0,0,0,0,0,0,0,0,0,0],"split_type":[0,0,0,0,0,0,0,0,0,0,0,0,0,0,0,0,0,0,0,0,0,0,0,0,0,0,0,0,0],"sum_hessian":[4.8362216E2,1.1143066E2,3.7219153E2,8.5277275E1,2.6153385E1,2.7957874E2,9.261277E1,7.432812E1,1.0949153E1,2.1461138E1,4.6922474E0,2.6990985E2,9.668904E0,7.980501E1,1.2807758E1,6.015456E1,1.4173559E1,3.906621E0,7.042532E0,5.882677E0,1.5578461E1,2.6422052E2,5.6893187E0,5.5088754E0,4.160029E0,6.777802E1,1.2026984E1,5.1240764E0,7.6836824E0],"tree_param":{"num_deleted":"0","num_feature":"15","num_nodes":"29","size_leaf_vector":"1"}},{"base_weights":[-2.5445813E-2,7.688822E-2,-1.4988276E-1,-6.184967E-2,2.3645952E-1,-1.8906198E-1,1.19285464E-1,-2.1498956E-2,-5.4095328E-2,4.090781E-1,1.0177251E-1,3.0342683E-1,-2.1133704E-1,-2.7234366E-2,2.1924074E-1,-3.572154E-3,1.266263E-2,9.252409E-3,3.167663E-2,9.30621E-4,2.5804603E-2,4.0660407E-2,-1.8175093E-2,-3.3879187E-2,-9.229689E-3,3.4333516E-2,4.618242E-3],"categories":[],"categories_nodes":[],"categories_segments":[],"categories_sizes":[],"default_left":[0,0,0,0,0,0,0,0,0,0,0,0,0,0,0,0,0,0,0,0,0,0,0,0,0,0,0],"id":38,"left_children":[1,3,5,7,9,11,13,15,-1,17,19,21,23,-1,25,-1,-1,-1,-1,-1,-1,-1,-1,-1,-1,-1,-1],"loss_changes":[6.189783E0,5.923234E0,2.3350472E0,5.8856006E0,2.849059E0,2.1682754E0,2.0092633E0,1.9270718E0,0E0,2.606287E0,2.4425943E0,3.2570457E0,2.1703987E0,0E0,1.4466496E0,0E0,0E0,0E0,0E0,0E0,0E0,0E0,0E0,0E0,0E0,0E0,0E0],"parents":[2147483647,0,0,1,1,2,2,3,3,4,4,5,5,6,6,7,7,9,9,10,10,11,11,12,12,14,14],"right_children":[2,4,6,8,10,12,14,16,-1,18,20,22,24,-1,26,-1,-1,-1,-1,-1,-1,-1,-1,-1,-1,-1,-1],"split_conditions":[6E0,6.51E1,8.91E1,6.49E1,3E0,3.11E1,3.67E1,1E0,-5.4095328E-2,1.3E1,1E0,9E0,3.67E1,-2.7234366E-2,7E0,-3.572154E-3,1.266263E-2,9.252409E-3,3.167663E-2,9.30621E-4,2.5804603E-2,4.0660407E-2,-1.8175093E-2,-3.3879187E-2,-9.229689E-3,3.4333516E-2,4.618242E-3],"split_indices":[3,0,0,0,3,2,2,7,0,1,6,3,2,0,3,0,0,0,0,0,0,0,0,0,0,0,0],"split_type":[0,0,0,0,0,0,0,0,0,0,0,0,0,0,0,0,0,0,0,0,0,0,0,0,0,0,0],"sum_hessian":[4.84173E2,2.6589188E2,2.1828113E2,1.4255824E2,1.23333626E2,1.908057E2,2.7475433E1,1.3811583E2,4.442415E0,5.316222E1,7.017141E1,7.7104406E0,1.8309526E2,3.0128262E0,2.4462606E1,1.17497246E2,2.0618584E1,2.7519358E1,2.5642862E1,5.931161E1,1.0859798E1,4.2457657E0,3.464675E0,8.612192E0,1.7448306E2,4.2804937E0,2.0182114E1],"tree_param":{"num_deleted":"0","num_feature":"15","num_nodes":"27","size_leaf_vector":"1"}},{"base_weights":[-2.232139E-2,3.2748362E-1,-7.4530005E-2,2.0279984E-1,7.17418E-1,-1.19659655E-1,3.7472746E-1,5.0453167E-2,1.12121E-1,4.8746273E-2,4.610352E-1,-6.247217E-2,-3.2968664E-1,-1.11489445E-2,4.3995926E-1,-1.2882776E-2,1.323427E-2,7.827866E-3,2.918912E-2,-5.3106695E-3,1.2589912E-2,-3.943788E-2,-1.2875545E-2,2.7152611E-2,-4.802364E-3],"categories":[],"categories_nodes":[],"categories_segments":[],"categories_sizes":[],"default_left":[0,0,0,0,0,0,0,0,0,0,0,0,0,0,0,0,0,0,0,0,0,0,0,0,0],"id":39,"left_children":[1,3,5,7,9,11,13,-1,15,-1,17,19,21,-1,23,-1,-1,-1,-1,-1,-1,-1,-1,-1,-1],"loss_changes":[8.740188E0,2.8768115E0,8.480746E0,3.4324913E0,5.1886034E-1,4.5297914E0,1.588407E0,0E0,2.590985E0,0E0,2.5419235E-1,4.1370835E0,2.475625E0,0E0,1.9750729E0,0E0,0E0,0E0,0E0,0E0,0E0,0E0,0E0,0E0,0E0],"parents":[2147483647,0,0,1,1,2,2,3,3,4,4,5,5,6,6,8,8,10,10,11,11,12,12,14,14],"right_children":[2,4,6,8,10,12,14,-1,16,-1,18,20,22,-1,24,-1,-1,-1,-1,-1,-1,-1,-1,-1,-1],"split_conditions":[2E0,7.67E1,9.19E1,3.13E1,1.2E1,9E0,3.42E1,5.0453167E-2,4.99E1,4.8746273E-2,5.86E1,8.19E1,4E1,-1.11489445E-2,1E0,-1.2882776E-2,1.323427E-2,7.827866E-3,2.918912E-2,-5.3106695E-3,1.2589912E-2,-3.943788E-2,-1.2875545E-2,2.7152611E-2,-4.802364E-3],"split_indices":[3,0,0,0,1,3,2,0,0,0,2,2,2,0,6,0,0,0,0,0,0,0,0,0,0],"split_type":[0,0,0,0,0,0,0,0,0,0,0,0,0,0,0,0,0,0,0,0,0,0,0,0,0],"sum_hessian":[4.7624136E2,6.116366E1,4.150777E2,4.749647E1,1.3667187E1,3.778544E2,3.722329E1,3.77788E0,4.3718594E1,5.4203963E0,8.24679E0,2.9800827E2,7.984614E1,3.4247453E0,3.3798542E1,1.2568056E1,3.1150537E1,3.023172E0,5.223618E0,2.621793E2,3.5828976E1,9.499115E0,7.034702E1,2.8335485E1,5.4630585E0],"tree_param":{"num_deleted":"0","num_feature":"15","num_nodes":"25","size_leaf_vector":"1"}},{"base_weights":[-1.0075368E-2,1.9563997E-1,-7.3146544E-2,1.5940908E-1,4.374962E-2,-4.3205455E-2,-3.2891527E-1,4.2277705E-2,1.2466884E-1,-7.038621E-2,1.5755677E-1,-1.1463768E-1,-5.4982525E-1,-2.4089566E-2,9.268056E-3,-5.176923E-3,7.0724743E-3,1.2539892E-2,-1.6785529E-2,-2.5395263E-2,4.188323E-3,-3.5877366E-2,-1.5305425E-2],"categories":[],"categories_nodes":[],"categories_segments":[],"categories_sizes":[],"default_left":[0,0,0,0,0,0,0,0,0,0,0,0,0,0,0,0,0,0,0,0,0,0,0],"id":40,"left_children":[1,3,5,7,-1,9,11,-1,13,15,17,19,21,-1,-1,-1,-1,-1,-1,-1,-1,-1,-1],"loss_changes":[6.2217817E0,2.6304317E0,2.7954493E0,2.4704204E0,0E0,1.8096466E0,1.7498188E0,0E0,3.918253E0,2.0581765E0,1.9060111E0,1.6579918E0,5.4039145E-1,0E0,0E0,0E0,0E0,0E0,0E0,0E0,0E0,0E0,0E0],"parents":[2147483647,0,0,1,1,2,2,3,3,5,5,6,6,8,8,9,9,10,10,11,11,12,12],"right_children":[2,4,6,8,-1,10,12,-1,14,16,18,20,22,-1,-1,-1,-1,-1,-1,-1,-1,-1,-1],"split_conditions":[3E0,1E0,1.6E1,3.11E1,4.374962E-2,1.5E1,7E0,4.2277705E-2,4.04E1,8.1E1,1E0,4E0,5.8E1,-2.4089566E-2,9.268056E-3,-5.176923E-3,7.0724743E-3,1.2539892E-2,-1.6785529E-2,-2.5395263E-2,4.188323E-3,-3.5877366E-2,-1.5305425E-2],"split_indices":[3,4,1,2,0,1,3,0,2,2,6,3,2,0,0,0,0,0,0,0,0,0,0],"split_type":[0,0,0,0,0,0,0,0,0,0,0,0,0,0,0,0,0,0,0,0,0,0,0],"sum_hessian":[4.774286E2,1.11536156E2,3.6589246E2,1.0706108E2,4.4750795E0,3.28595E2,3.7297436E1,4.0346413E0,1.03026436E2,2.899841E2,3.8610905E1,1.9703972E1,1.7593464E1,8.741347E0,9.428509E1,2.5118495E2,3.8799156E1,3.288609E1,5.724817E0,6.084199E0,1.3619773E1,9.269888E0,8.323577E0],"tree_param":{"num_deleted":"0","num_feature":"15","num_nodes":"23","size_leaf_vector":"1"}},{"base_weights":[1.2737977E-2,8.092435E-2,-1.6803946E-1,-2.2951897E-2,2.0377208E-1,-1.2581034E-1,-5.221709E-1,8.516474E-3,-5.712182E-1,4.1327408E-1,1.0706458E-1,-5.5941033E-1,-8.918166E-2,-1.4641131E-2,-3.311099E-2,-1.2677743E-3,2.2998538E-2,-4.998709E-2,-4.825337E-3,7.708152E-3,3.4124013E-2,-4.169497E-3,8.586103E-3,-3.557837E-2,-1.0922525E-2,-6.589111E-3,9.824875E-3],"categories":[],"categories_nodes":[],"categories_segments":[],"categories_sizes":[],"default_left":[0,0,0,0,0,0,0,0,0,0,0,0,0,0,0,0,0,0,0,0,0,0,0,0,0,0,0],"id":41,"left_children":[1,3,5,7,9,11,13,15,17,19,21,23,25,-1,-1,-1,-1,-1,-1,-1,-1,-1,-1,-1,-1,-1,-1],"loss_changes":[5.891137E0,4.431487E0,1.8921187E0,3.263342E0,3.1779432E0,1.8287498E0,2.4390578E-1,2.7580032E0,1.9919491E0,3.3740034E0,1.3708705E0,3.1273198E-1,1.3677884E0,0E0,0E0,0E0,0E0,0E0,0E0,0E0,0E0,0E0,0E0,0E0,0E0,0E0,0E0],"parents":[2147483647,0,0,1,1,2,2,3,3,4,4,5,5,6,6,7,7,8,8,9,9,10,10,11,11,12,12],"right_children":[2,4,6,8,10,12,14,16,18,20,22,24,26,-1,-1,-1,-1,-1,-1,-1,-1,-1,-1,-1,-1,-1,-1],"split_conditions":[8E0,6.58E1,1.6E1,6.5E1,3E0,3.31E1,5.9E1,6.31E1,6.51E1,1.3E1,4E0,1E1,1.5E1,-1.4641131E-2,-3.311099E-2,-1.2677743E-3,2.2998538E-2,-4.998709E-2,-4.825337E-3,7.708152E-3,3.4124013E-2,-4.169497E-3,8.586103E-3,-3.557837E-2,-1.0922525E-2,-6.589111E-3,9.824875E-3],"split_indices":[3,0,1,0,3,0,0,0,0,1,3,3,1,0,0,0,0,0,0,0,0,0,0,0,0,0,0],"split_type":[0,0,0,0,0,0,0,0,0,0,0,0,0,0,0,0,0,0,0,0,0,0,0,0,0,0,0],"sum_hessian":[4.7581915E2,3.4590256E2,1.299166E2,1.8786386E2,1.580387E2,1.17285866E2,1.2630727E1,1.7859752E2,9.266342E0,4.8878178E1,1.0916052E2,8.024274E0,1.0926159E2,5.960499E0,6.6702285E0,1.6701077E2,1.158674E1,4.2888155E0,4.9775267E0,2.5707426E1,2.3170752E1,2.7593021E1,8.1567505E1,4.796728E0,3.2275462E0,9.555161E1,1.3709977E1],"tree_param":{"num_deleted":"0","num_feature":"15","num_nodes":"27","size_leaf_vector":"1"}},{"base_weights":[-3.230264E-2,2.1898931E-1,-6.789222E-2,4.262136E-2,5.405E-1,-8.49615E-2,3.1374595E-1,1.4531747E-1,-4.2709902E-2,3.8126968E-2,1.2063325E-2,-3.0057369E-2,-7.269421E-2,5.235221E-1,-8.641991E-3,-1.0573E-3,3.4385987E-2,-1.8702438E-2,1.9020833E-2,2.9411472E-3,-5.479831E-3,6.809176E-3,3.588807E-2],"categories":[],"categories_nodes":[],"categories_segments":[],"categories_sizes":[],"default_left":[0,0,0,0,0,0,0,0,0,0,0,0,0,0,0,0,0,0,0,0,0,0,0],"id":42,"left_children":[1,3,5,7,9,11,13,15,-1,-1,17,-1,19,21,-1,-1,-1,-1,-1,-1,-1,-1,-1],"loss_changes":[4.338715E0,3.3913634E0,2.7903736E0,3.8053274E0,2.4835124E0,2.5327365E0,1.9662074E0,3.329774E0,0E0,0E0,1.1807706E0,0E0,1.9408324E0,8.869889E-1,0E0,0E0,0E0,0E0,0E0,0E0,0E0,0E0,0E0],"parents":[2147483647,0,0,1,1,2,2,3,3,4,4,5,5,6,6,7,7,10,10,12,12,13,13],"right_children":[2,4,6,8,10,12,14,16,-1,-1,18,-1,20,22,-1,-1,-1,-1,-1,-1,-1,-1,-1],"split_conditions":[2E0,7.25E1,1E0,6.9E1,1.4E1,1.77E1,9E0,6.08E1,-4.2709902E-2,3.8126968E-2,1.5E1,-3.0057369E-2,1E1,6.31E1,-8.641991E-3,-1.0573E-3,3.4385987E-2,-1.8702438E-2,1.9020833E-2,2.9411472E-3,-5.479831E-3,6.809176E-3,3.588807E-2],"split_indices":[3,0,4,0,1,0,3,0,0,0,1,0,1,0,0,0,0,0,0,0,0,0,0],"split_type":[0,0,0,0,0,0,0,0,0,0,0,0,0,0,0,0,0,0,0,0,0,0,0],"sum_hessian":[4.8246918E2,5.9214264E1,4.232549E2,3.8969635E1,2.0244627E1,4.058788E2,1.737609E1,3.5717533E1,3.2521036E0,1.3943018E1,6.3016086E0,8.307547E0,3.975713E2,1.20885725E1,5.287516E0,2.8065296E1,7.6522365E0,3.0690913E0,3.2325175E0,8.6981674E1,3.105896E2,4.6055717E0,7.4830003E0],"tree_param":{"num_deleted":"0","num_feature":"15","num_nodes":"23","size_leaf_vector":"1"}},{"base_weights":[9.29754E-3,-1.5839158E-2,2.5705487E-1,8.777589E-2,-6.785384E-2,-1.5439384E-1,5.2745587E-1,1.5904757E-1,-2.413924E-1,-1.4005682E-1,2.0980898E-2,-2.936062E-2,-1.16550885E-2,6.755214E-1,-6.244401E-3,-1.3992639E-2,1.0123067E-2,-2.0441493E-2,6.06535E-3,-1.069933E-2,1.502686E-2,1.6977571E-2,-3.8619593E-3,2.2154896E-2,-1.0645523E-2,4.1328948E-2,1.1525369E-2],"categories":[],"categories_nodes":[],"categories_segments":[],"categories_sizes":[],"default_left":[0,0,0,0,0,0,0,0,0,0,0,0,0,0,0,0,0,0,0,0,0,0,0,0,0,0,0],"id":43,"left_children":[1,3,5,7,9,11,13,15,17,19,21,-1,23,25,-1,-1,-1,-1,-1,-1,-1,-1,-1,-1,-1,-1,-1],"loss_changes":[2.9993026E0,2.3643298E0,5.016608E0,3.479713E0,1.8752241E0,1.1277373E0,2.6916842E0,2.3656895E0,1.659225E0,5.3135757E0,4.148568E0,0E0,1.4516597E0,1.2988758E0,0E0,0E0,0E0,0E0,0E0,0E0,0E0,0E0,0E0,0E0,0E0,0E0,0E0],"parents":[2147483647,0,0,1,1,2,2,3,3,4,4,5,5,6,6,7,7,8,8,9,9,10,10,12,12,13,13],"right_children":[2,4,6,8,10,12,14,16,18,20,22,-1,24,26,-1,-1,-1,-1,-1,-1,-1,-1,-1,-1,-1,-1,-1],"split_conditions":[1E0,1.1E1,1.2E1,1E0,6.4E1,4.61E1,1E0,3.67E1,6.99E1,1E0,6.93E1,-2.936062E-2,5.95E1,1E0,-6.244401E-3,-1.3992639E-2,1.0123067E-2,-2.0441493E-2,6.06535E-3,-1.069933E-2,1.502686E-2,1.6977571E-2,-3.8619593E-3,2.2154896E-2,-1.0645523E-2,4.1328948E-2,1.1525369E-2],"split_indices":[5,1,1,6,2,2,8,2,2,7,2,0,2,10,0,0,0,0,0,0,0,0,0,0,0,0,0],"split_type":[0,0,0,0,0,0,0,0,0,0,0,0,0,0,0,0,0,0,0,0,0,0,0,0,0,0,0],"sum_hessian":[4.7994513E2,4.365865E2,4.3358654E1,1.4568646E2,2.9090002E2,1.7364868E1,2.5993786E1,1.20181526E2,2.5504942E1,1.6015381E2,1.307462E2,3.5342546E0,1.3830614E1,2.1156311E1,4.8374753E0,1.0327487E1,1.0985404E2,1.736249E1,8.14245E0,1.3758241E2,2.2571411E1,3.023238E1,1.00513824E2,3.8744063E0,9.956208E0,1.5154707E1,6.001604E0],"tree_param":{"num_deleted":"0","num_feature":"15","num_nodes":"27","size_leaf_vector":"1"}},{"base_weights":[-2.2539778E-3,-5.5045597E-2,1.9338824E-1,-3.7949953E-2,-7.134873E-1,5.225764E-1,1.1671296E-1,-4.677708E-2,3.575481E-2,-4.619091E-2,-1.218932E-2,4.798381E-2,2.4470691E-1,-1.2841944E-1,2.9143468E-1,-1.8473987E-3,-4.4299316E-2,-1.9195404E-2,2.4911718E-2,-2.0572767E-2,2.4389872E-2,3.582597E-2,6.8370774E-3],"categories":[],"categories_nodes":[],"categories_segments":[],"categories_sizes":[],"default_left":[0,0,0,0,0,0,0,0,0,0,0,0,0,0,0,0,0,0,0,0,0,0,0],"id":44,"left_children":[1,3,5,7,9,11,13,15,-1,-1,-1,-1,17,19,21,-1,-1,-1,-1,-1,-1,-1,-1],"loss_changes":[4.907143E0,4.184233E0,2.4873986E0,2.4644191E0,7.0458746E-1,2.0468993E0,3.599915E0,2.956691E0,0E0,0E0,0E0,0E0,2.2356E0,6.3588877E0,3.1155462E0,0E0,0E0,0E0,0E0,0E0,0E0,0E0,0E0],"parents":[2147483647,0,0,1,1,2,2,3,3,4,4,5,5,6,6,7,7,12,12,13,13,14,14],"right_children":[2,4,6,8,10,12,14,16,-1,-1,-1,-1,18,20,22,-1,-1,-1,-1,-1,-1,-1,-1],"split_conditions":[8E1,7.88E1,8.39E1,7.81E1,6.33E1,5.77E1,5.65E1,7.8E1,3.575481E-2,-4.619091E-2,-1.218932E-2,4.798381E-2,6.75E1,9.86E1,6.48E1,-1.8473987E-3,-4.4299316E-2,-1.9195404E-2,2.4911718E-2,-2.0572767E-2,2.4389872E-2,3.582597E-2,6.8370774E-3],"split_indices":[0,0,0,0,2,2,2,0,0,0,0,0,2,0,2,0,0,0,0,0,0,0,0],"split_type":[0,0,0,0,0,0,0,0,0,0,0,0,0,0,0,0,0,0,0,0,0,0,0],"sum_hessian":[4.7308698E2,3.7312302E2,9.996396E1,3.6471136E2,8.411653E0,1.7786438E1,8.217753E1,3.614128E2,3.298559E0,5.142177E0,3.2694752E0,5.958998E0,1.1827439E1,3.4308346E1,4.786918E1,3.5826074E2,3.1520457E0,3.2514021E0,8.576036E0,2.3737646E1,1.0570701E1,1.1803152E1,3.6066025E1],"tree_param":{"num_deleted":"0","num_feature":"15","num_nodes":"23","size_leaf_vector":"1"}},{"base_weights":[-1.0146114E-2,-1.11802645E-1,8.5749686E-2,2.823771E-1,-1.3593481E-1,3.335643E-1,1.4858997E-2,-1.0841163E-1,6.17144E-2,-2.8126958E-1,-6.118834E-2,5.010331E-1,9.523428E-3,-6.0158093E-2,1.7842804E-1,2.5939677E-2,-2.2101289E-2,-1.695889E-2,1.2532155E-2,1.9124756E-3,-1.1296085E-2,1.3607815E-2,4.8285108E-2,-6.6398636E-2,1.6510053E-2,-7.9533097E-4,-2.03856E-2,1.5655389E-2,-2.312359E-2],"categories":[],"categories_nodes":[],"categories_segments":[],"categories_sizes":[],"default_left":[0,0,0,0,0,0,0,0,0,0,0,0,0,0,0,0,0,0,0,0,0,0,0,0,0,0,0,0,0],"id":45,"left_children":[1,3,5,7,9,11,13,15,-1,17,19,21,23,25,27,-1,-1,-1,-1,-1,-1,-1,-1,-1,-1,-1,-1,-1,-1],"loss_changes":[4.6632843E0,2.2468162E0,4.3204994E0,5.236971E0,2.3666768E0,2.9647026E0,2.3727481E0,2.4567065E0,0E0,2.3721418E0,2.4033828E0,3.571828E0,8.872376E0,2.0346942E0,5.3908744E0,0E0,0E0,0E0,0E0,0E0,0E0,0E0,0E0,0E0,0E0,0E0,0E0,0E0,0E0],"parents":[2147483647,0,0,1,1,2,2,3,3,4,4,5,5,6,6,7,7,9,9,10,10,11,11,12,12,13,13,14,14],"right_children":[2,4,6,8,10,12,14,16,-1,18,20,22,24,26,28,-1,-1,-1,-1,-1,-1,-1,-1,-1,-1,-1,-1,-1,-1],"split_conditions":[6.31E1,3.48E1,3E0,1.4E1,5.56E1,7.2E1,7.13E1,1E1,6.17144E-2,6.02E1,5.36E1,6.2E1,7.33E1,1.6E1,1E1,2.5939677E-2,-2.2101289E-2,-1.695889E-2,1.2532155E-2,1.9124756E-3,-1.1296085E-2,1.3607815E-2,4.8285108E-2,-6.6398636E-2,1.6510053E-2,-7.9533097E-4,-2.03856E-2,1.5655389E-2,-2.312359E-2],"split_indices":[0,2,3,1,2,2,2,1,0,0,0,2,2,1,3,0,0,0,0,0,0,0,0,0,0,0,0,0,0],"split_type":[0,0,0,0,0,0,0,0,0,0,0,0,0,0,0,0,0,0,0,0,0,0,0,0,0,0,0,0,0],"sum_hessian":[4.7637894E2,2.3116322E2,2.4521573E2,1.2718316E1,2.184449E2,5.3719963E1,1.9149576E2,9.6449E0,3.0734167E0,7.325233E1,1.4519258E2,3.505622E1,1.8663742E1,1.3171843E2,5.9777336E1,3.1561558E0,6.4887443E0,6.638723E1,6.8650966E0,9.101879E1,5.4173786E1,2.4549736E1,1.0506487E1,3.001947E0,1.5661796E1,1.1776947E2,1.394895E1,4.9819614E1,9.957721E0],"tree_param":{"num_deleted":"0","num_feature":"15","num_nodes":"29","size_leaf_vector":"1"}},{"base_weights":[1.8858397E-2,3.3462766E-1,-2.6151566E-2,2.532309E-1,4.708157E-2,4.6774663E-2,-1.3234073E-1,5.5515405E-2,4.424765E-1,-3.2936923E-2,6.529946E-2,-8.935725E-2,-5.010177E-1,3.1751484E-2,-4.649758E-3,4.3469336E-2,1.0255878E-2,-8.440862E-3,5.7940898E-3,-5.875817E-3,2.1237481E-2,-1.6552849E-2,-3.4787357E-2],"categories":[],"categories_nodes":[],"categories_segments":[],"categories_sizes":[],"default_left":[0,0,0,0,0,0,0,0,0,0,0,0,0,0,0,0,0,0,0,0,0,0,0],"id":46,"left_children":[1,3,5,7,-1,9,11,13,15,-1,17,19,21,-1,-1,-1,-1,-1,-1,-1,-1,-1,-1],"loss_changes":[6.841137E0,2.7283225E0,3.271636E0,2.0076978E0,0E0,3.3199372E0,2.6800456E0,2.443555E0,2.6192226E0,0E0,2.923564E0,2.2968335E0,3.5668325E-1,0E0,0E0,0E0,0E0,0E0,0E0,0E0,0E0,0E0,0E0],"parents":[2147483647,0,0,1,1,2,2,3,3,5,5,6,6,7,7,8,8,10,10,11,11,12,12],"right_children":[2,4,6,8,-1,10,12,14,16,-1,18,20,22,-1,-1,-1,-1,-1,-1,-1,-1,-1,-1],"split_conditions":[2E0,8.64E1,7E0,6.05E1,4.708157E-2,1.77E1,1.6E1,4.17E1,6.96E1,-3.2936923E-2,4.42E1,9.24E1,6.52E1,3.1751484E-2,-4.649758E-3,4.3469336E-2,1.0255878E-2,-8.440862E-3,5.7940898E-3,-5.875817E-3,2.1237481E-2,-1.6552849E-2,-3.4787357E-2],"split_indices":[3,0,3,2,0,0,1,0,2,0,2,2,2,0,0,0,0,0,0,0,0,0,0],"split_type":[0,0,0,0,0,0,0,0,0,0,0,0,0,0,0,0,0,0,0,0,0,0,0],"sum_hessian":[4.7972186E2,5.904621E1,4.2067566E2,5.3314175E1,5.732035E0,2.497307E2,1.7094496E2,2.6706135E1,2.660804E1,5.505234E0,2.4422546E2,1.5420842E2,1.673655E1,4.77954E0,2.1926594E1,8.556215E0,1.8051825E1,4.2976116E1,2.0124934E2,1.4693196E2,7.2764626E0,1.0378359E1,6.358191E0],"tree_param":{"num_deleted":"0","num_feature":"15","num_nodes":"23","size_leaf_vector":"1"}},{"base_weights":[3.0842168E-2,-2.2320235E-2,2.515461E-1,6.343535E-2,-1.293513E-1,1.2576044E-1,6.4473397E-1,2.0396832E-2,5.024606E-1,3.2988065E-1,-1.5104882E-1,3.3063132E-1,-1.9070669E-1,9.070356E-1,2.5304034E-1,-4.700035E-3,8.200628E-3,1.0832443E-2,5.5910774E-2,5.014051E-2,-2.2553638E-2,-3.5939362E-2,-5.728067E-3,-1.44577725E-2,2.3789104E-2,-1.841549E-2,9.839217E-3,2.7472867E-2,5.8960456E-2,-4.837829E-3,2.2112327E-2],"categories":[],"categories_nodes":[],"categories_segments":[],"categories_sizes":[],"default_left":[0,0,0,0,0,0,0,0,0,0,0,0,0,0,0,0,0,0,0,0,0,0,0,0,0,0,0,0,0,0,0],"id":47,"left_children":[1,3,5,7,9,11,13,15,17,19,21,23,25,27,29,-1,-1,-1,-1,-1,-1,-1,-1,-1,-1,-1,-1,-1,-1,-1,-1],"loss_changes":[5.58788E0,3.5358E0,4.490601E0,4.0341096E0,1.7565739E0,4.6841497E0,2.0474424E0,3.2351687E0,3.113422E0,4.6785564E0,3.3200696E0,4.062789E0,2.0436893E0,6.0622406E-1,7.2286326E-1,0E0,0E0,0E0,0E0,0E0,0E0,0E0,0E0,0E0,0E0,0E0,0E0,0E0,0E0,0E0,0E0],"parents":[2147483647,0,0,1,1,2,2,3,3,4,4,5,5,6,6,7,7,8,8,9,9,10,10,11,11,12,12,13,13,14,14],"right_children":[2,4,6,8,10,12,14,16,18,20,22,24,26,28,30,-1,-1,-1,-1,-1,-1,-1,-1,-1,-1,-1,-1,-1,-1,-1,-1],"split_conditions":[8.2E1,6E0,7.6E1,1E0,3.02E1,7E0,9.15E1,6.43E1,7.27E1,9E0,3.67E1,4.04E1,1E1,4E0,5E0,-4.700035E-3,8.200628E-3,1.0832443E-2,5.5910774E-2,5.014051E-2,-2.2553638E-2,-3.5939362E-2,-5.728067E-3,-1.44577725E-2,2.3789104E-2,-1.841549E-2,9.839217E-3,2.7472867E-2,5.8960456E-2,-4.837829E-3,2.2112327E-2],"split_indices":[0,3,2,5,2,3,0,2,0,3,2,2,3,3,3,0,0,0,0,0,0,0,0,0,0,0,0,0,0,0,0],"split_type":[0,0,0,0,0,0,0,0,0,0,0,0,0,0,0,0,0,0,0,0,0,0,0,0,0,0,0,0,0,0,0],"sum_hessian":[4.747686E2,3.8333182E2,9.1436775E1,2.1304384E2,1.7028798E2,7.0274826E1,2.1161943E1,1.9497638E2,1.8067463E1,7.0418677E0,1.6324611E2,4.2631668E1,2.7643162E1,1.1886412E1,9.275532E0,1.08720345E2,8.625604E1,1.3263059E1,4.8044043E0,3.6299443E0,3.4119236E0,8.728755E0,1.5451735E2,7.9013166E0,3.473035E1,1.8989151E1,8.654011E0,6.4418983E0,5.4445133E0,3.4275084E0,5.848024E0],"tree_param":{"num_deleted":"0","num_feature":"15","num_nodes":"31","size_leaf_vector":"1"}},{"base_weights":[-3.5209553E-3,2.8663513E-1,-4.4611197E-2,3.7801543E-1,-5.793351E-2,-6.640838E-2,4.8068032E-1,1.01303294E-1,4.9461514E-1,2.941795E-2,-4.974739E-1,7.4391E-2,-1.058604E-1,-1.7268186E-2,7.200493E-1,-3.5839733E-3,2.8747657E-2,3.204247E-2,6.8962984E-3,-2.6210046E-3,-4.4937503E-2,2.0490449E-2,-4.1746735E-3,-7.0231305E-3,6.4511E-3,5.9234288E-2,2.3106052E-2],"categories":[],"categories_nodes":[],"categories_segments":[],"categories_sizes":[],"default_left":[0,0,0,0,0,0,0,0,0,0,0,0,0,0,0,0,0,0,0,0,0,0,0,0,0,0,0],"id":48,"left_children":[1,3,5,7,9,11,13,15,17,-1,19,21,23,-1,25,-1,-1,-1,-1,-1,-1,-1,-1,-1,-1,-1,-1],"loss_changes":[5.719223E0,1.895576E0,4.842213E0,1.4716935E0,4.08234E0,2.2534528E0,3.5823486E0,1.2898996E0,1.629036E0,0E0,1.46771E0,4.751017E0,2.5879378E0,0E0,1.0579462E0,0E0,0E0,0E0,0E0,0E0,0E0,0E0,0E0,0E0,0E0,0E0,0E0],"parents":[2147483647,0,0,1,1,2,2,3,3,4,4,5,5,6,6,7,7,8,8,10,10,11,11,12,12,14,14],"right_children":[2,4,6,8,10,12,14,16,18,-1,20,22,24,-1,26,-1,-1,-1,-1,-1,-1,-1,-1,-1,-1,-1,-1],"split_conditions":[2E0,1E0,1E0,5E1,1.2E1,1E1,4.38E1,1.4E1,7.82E1,2.941795E-2,6.69E1,5E0,8.16E1,-1.7268186E-2,5.42E1,-3.5839733E-3,2.8747657E-2,3.204247E-2,6.8962984E-3,-2.6210046E-3,-4.4937503E-2,2.0490449E-2,-4.1746735E-3,-7.0231305E-3,6.4511E-3,5.9234288E-2,2.3106052E-2],"split_indices":[3,8,4,2,1,1,2,1,2,0,2,3,2,0,2,0,0,0,0,0,0,0,0,0,0,0,0],"split_type":[0,0,0,0,0,0,0,0,0,0,0,0,0,0,0,0,0,0,0,0,0,0,0,0,0,0,0],"sum_hessian":[4.776241E2,5.8506744E1,4.1911737E2,4.6166286E1,1.2340461E1,4.032576E2,1.5859759E1,1.4240298E1,3.1925987E1,4.8583097E0,7.482151E0,8.806803E1,3.1518958E2,3.463765E0,1.2395994E1,1.1052467E1,3.1878314E0,2.2077898E1,9.848088E0,4.0836377E0,3.3985136E0,2.7676022E1,6.0392006E1,2.7506915E2,4.012043E1,3.1423075E0,9.253687E0],"tree_param":{"num_deleted":"0","num_feature":"15","num_nodes":"27","size_leaf_vector":"1"}},{"base_weights":[-2.0186383E-2,-3.8931537E-2,4.2699164E-1,1.8584982E-1,-7.089521E-2,1.7946693E-1,4.2664435E-2,-1.7681359E-1,3.4602547E-1,-6.5439105E-1,-5.755758E-2,4.2071778E-1,-2.1912316E-2,3.9967958E-2,-2.1457616E-2,2.0324452E-2,-9.718704E-3,-3.952354E-2,-1.4638567E-2,5.896367E-5,-7.148128E-3,-3.7593802E-3,3.3896126E-2],"categories":[],"categories_nodes":[],"categories_segments":[],"categories_sizes":[],"default_left":[0,0,0,0,0,0,0,0,0,0,0,0,0,0,0,0,0,0,0,0,0,0,0],"id":49,"left_children":[1,3,5,7,9,11,-1,13,15,17,19,21,-1,-1,-1,-1,-1,-1,-1,-1,-1,-1,-1],"loss_changes":[4.0326743E0,3.3235528E0,1.889607E0,3.4093027E0,3.1072857E0,2.1982746E0,0E0,4.8555765E0,1.3963675E0,2.0822167E-1,1.9875424E0,1.3556178E0,0E0,0E0,0E0,0E0,0E0,0E0,0E0,0E0,0E0,0E0,0E0],"parents":[2147483647,0,0,1,1,2,2,3,3,4,4,5,5,7,7,8,8,9,9,10,10,11,11],"right_children":[2,4,6,8,10,12,-1,14,16,18,20,22,-1,-1,-1,-1,-1,-1,-1,-1,-1,-1,-1],"split_conditions":[1E0,2E0,1.4E1,4.99E1,1.77E1,8E0,4.2664435E-2,2.86E1,1E0,1.4E1,7E0,5.65E1,-2.1912316E-2,3.9967958E-2,-2.1457616E-2,2.0324452E-2,-9.718704E-3,-3.952354E-2,-1.4638567E-2,5.896367E-5,-7.148128E-3,-3.7593802E-3,3.3896126E-2],"split_indices":[4,3,1,0,0,3,0,0,11,1,3,0,0,0,0,0,0,0,0,0,0,0,0],"split_type":[0,0,0,0,0,0,0,0,0,0,0,0,0,0,0,0,0,0,0,0,0,0,0],"sum_hessian":[4.7810397E2,4.5974496E2,1.8359007E1,5.663693E1,4.0310803E2,1.2513924E1,5.8450828E0,1.7319324E1,3.9317604E1,7.9342947E0,3.9517374E2,9.228572E0,3.2853518E0,3.112153E0,1.4207171E1,3.5584023E1,3.7335823E0,4.9032526E0,3.0310419E0,2.3472736E2,1.6044638E2,3.3934608E0,5.8351116E0],"tree_param":{"num_deleted":"0","num_feature":"15","num_nodes":"23","size_leaf_vector":"1"}},{"base_weights":[-1.5918713E-4,-3.5464156E-2,2.8845936E-1,-6.517204E-2,2.8336298E-1,4.206876E-1,8.8924035E-2,-5.310584E-2,-5.6504405E-1,4.3397173E-1,-2.5463128E-1,5.309951E-1,-1.3424002E-2,-1.7216861E-1,3.548022E-2,-1.3431378E-3,-1.2142758E-2,-3.9715685E-2,-1.3810115E-2,2.6557287E-2,-1.0421537E-2,-2.2879822E-2,4.492012E-3,3.3843856E-2,1.6323637E-2,6.6518234E-3,-2.994681E-2],"categories":[],"categories_nodes":[],"categories_segments":[],"categories_sizes":[],"default_left":[0,0,0,0,0,0,0,0,0,0,0,0,0,0,0,0,0,0,0,0,0,0,0,0,0,0,0],"id":50,"left_children":[1,3,5,7,9,11,13,15,17,19,21,23,-1,25,-1,-1,-1,-1,-1,-1,-1,-1,-1,-1,-1,-1,-1],"loss_changes":[4.874122E0,4.055302E0,1.3381333E0,2.326435E0,3.069174E0,2.5058837E0,3.6950138E0,1.8985801E0,3.8353848E-1,1.9146724E0,6.4354664E-1,5.886049E-1,0E0,2.205869E0,0E0,0E0,0E0,0E0,0E0,0E0,0E0,0E0,0E0,0E0,0E0,0E0,0E0],"parents":[2147483647,0,0,1,1,2,2,3,3,4,4,5,5,6,6,7,7,8,8,9,9,10,10,11,11,13,13],"right_children":[2,4,6,8,10,12,14,16,18,20,22,24,-1,26,-1,-1,-1,-1,-1,-1,-1,-1,-1,-1,-1,-1,-1],"split_conditions":[8.91E1,1E0,7E0,8.71E1,8E0,1E0,1E1,1E1,5E0,1E0,1E1,1E2,-1.3424002E-2,9E0,3.548022E-2,-1.3431378E-3,-1.2142758E-2,-3.9715685E-2,-1.3810115E-2,2.6557287E-2,-1.0421537E-2,-2.2879822E-2,4.492012E-3,3.3843856E-2,1.6323637E-2,6.6518234E-3,-2.994681E-2],"split_indices":[0,5,3,0,3,11,3,3,3,12,3,0,0,3,0,0,0,0,0,0,0,0,0,0,0,0,0],