{"learner":{"attributes":{"scikit_learn":"{\"_estimator_type\": \"classifier\"}"},"feature_names":["production_score","games_played","combine_speed_score","conference_tier","is_award_winner","is_all_american","position_qb","position_rb","position_wr","position_te","position_db","position_lb","position_dl","position_ol","position_other"],"feature_types":["float","float","float","float","int","int","int","int","int","int","int","int","int","int","int"],"gradient_booster":{"model":{"cats":{"enc":[],"feature_segments":[],"sorted_idx":[]},"gbtree_model_param":{"num_parallel_tree":"1","num_trees":"400"},"iteration_indptr":[0,1,2,3,4,5,6,7,8,9,10,11,12,13,14,15,16,17,18,19,20,21,22,23,24,25,26,27,28,29,30,31,32,33,34,35,36,37,38,39,40,41,42,43,44,45,46,47,48,49,50,51,52,53,54,55,56,57,58,59,60,61,62,63,64,65,66,67,68,69,70,71,72,73,74,75,76,77,78,79,80,81,82,83,84,85,86,87,88,89,90,91,92,93,94,95,96,97,98,99,100,101,102,103,104,105,106,107,108,109,110,111,112,113,114,115,116,117,118,119,120,121,122,123,124,125,126,127,128,129,130,131,132,133,134,135,136,137,138,139,140,141,142,143,144,145,146,147,148,149,150,151,152,153,154,155,156,157,158,159,160,161,162,163,164,165,166,167,168,169,170,171,172,173,174,175,176,177,178,179,180,181,182,183,184,185,186,187,188,189,190,191,192,193,194,195,196,197,198,199,200,201,202,203,204,205,206,207,208,209,210,211,212,213,214,215,216,217,218,219,220,221,222,223,224,225,226,227,228,229,230,231,232,233,234,235,236,237,238,239,240,241,242,243,244,245,246,247,248,249,250,251,252,253,254,255,256,257,258,259,260,261,262,263,264,265,266,267,268,269,270,271,272,273,274,275,276,277,278,279,280,281,282,283,284,285,286,287,288,289,290,291,292,293,294,295,296,297,298,299,300,301,302,303,304,305,306,307,308,309,310,311,312,313,314,315,316,317,318,319,320,321,322,323,324,325,326,327,328,329,330,331,332,333,334,335,336,337,338,339,340,341,342,343,344,345,346,347,348,349,350,351,352,353,354,355,356,357,358,359,360,361,362,363,364,365,366,367,368,369,370,371,372,373,374,375,376,377,378,379,380,381,382,383,384,385,386,387,388,389,390,391,392,393,394,395,396,397,398,399,400],"tree_info":[0,0,0,0,0,0,0,0,0,0,0,0,0,0,0,0,0,0,0,0,0,0,0,0,0,0,0,0,0,0,0,0,0,0,0,0,0,0,0,0,0,0,0,0,0,0,0,0,0,0,0,0,0,0,0,0,0,0,0,0,0,0,0,0,0,0,0,0,0,0,0,0,0,0,0,0,0,0,0,0,0,0,0,0,0,0,0,0,0,0,0,0,0,0,0,0,0,0,0,0,0,0,0,0,0,0,0,0,0,0,0,0,0,0,0,0,0,0,0,0,0,0,0,0,0,0,0,0,0,0,0,0,0,0,0,0,0,0,0,0,0,0,0,0,0,0,0,0,0,0,0,0,0,0,0,0,0,0,0,0,0,0,0,0,0,0,0,0,0,0,0,0,0,0,0,0,0,0,0,0,0,0,0,0,0,0,0,0,0,0,0,0,0,0,0,0,0,0,0,0,0,0,0,0,0,0,0,0,0,0,0,0,0,0,0,0,0,0,0,0,0,0,0,0,0,0,0,0,0,0,0,0,0,0,0,0,0,0,0,0,0,0,0,0,0,0,0,0,0,0,0,0,0,0,0,0,0,0,0,0,0,0,0,0,0,0,0,0,0,0,0,0,0,0,0,0,0,0,0,0,0,0,0,0,0,0,0,0,0,0,0,0,0,0,0,0,0,0,0,0,0,0,0,0,0,0,0,0,0,0,0,0,0,0,0,0,0,0,0,0,0,0,0,0,0,0,0,0,0,0,0,0,0,0,0,0,0,0,0,0,0,0,0,0,0,0,0,0,0,0,0,0,0,0,0,0,0,0,0,0,0,0,0,0,0,0,0,0,0,0,0,0,0,0,0,0,0,0,0,0,0,0,0,0,0,0,0,0,0,0,0,0,0,0,0,0,0,0,0,0],"trees":[{"base_weights":[-1.2784373E-2,-2.9992592E-1,5.0617427E-1,3.365382E-1,-5.17923E-1,9.533161E-1,1.8360911E-1,-3.5717103E-1,4.4818556E-1,-9.482084E-1,-3.4842035E-1,4.5432755E-1,1.0706884E0,-1.9067667E-1,3.1651753E-1,-5.8899003E-1,1.7426671E-1,2.1869656E-1,6.587587E-1,-7.837338E-1,-7.150986E-2,-2.414195E-1,-6.7571443E-1,2.1774432E-1,9.888725E-1,6.922037E-1,1.1994327E0,-4.053228E-1,7.203143E-2,5.127228E-1,2.9897457E-2,-4.903412E-2,-1.1672618E-2,2.970487E-2,-1.3967087E-2,1.2573449E-2,-4.6243194E-2,3.4695823E-2,1.5633227E-2,-4.623706E-2,-2.1148937E-2,-1.249017E-2,5.9470055E-3,-3.4902953E-2,-3.7821727E-3,1.4123265E-2,-1.3967087E-2,4.6480972E-2,2.031276E-2,1.1535585E-2,3.650613E-2,5.3851947E-2,3.7438765E-2,-3.2629047E-3,-3.027785E-2,2.0373818E-2,-9.993704E-3,3.466428E-2,1.6137948E-2,-4.4007553E-3,2.601816E-2],"categories":[],"categories_nodes":[],"categories_segments":[],"categories_sizes":[],"default_left":[0,0,0,0,0,0,0,0,0,0,0,0,0,0,0,0,0,0,0,0,0,0,0,0,0,0,0,0,0,0,0,0,0,0,0,0,0,0,0,0,0,0,0,0,0,0,0,0,0,0,0,0,0,0,0,0,0,0,0,0,0],"id":0,"left_children":[1,3,5,7,9,11,13,15,17,19,21,23,25,27,29,31,33,35,37,39,-1,41,43,45,47,49,51,53,55,57,59,-1,-1,-1,-1,-1,-1,-1,-1,-1,-1,-1,-1,-1,-1,-1,-1,-1,-1,-1,-1,-1,-1,-1,-1,-1,-1,-1,-1,-1,-1],"loss_changes":[1.5622037E2,9.381384E1,5.3687782E1,1.3542822E1,3.6363144E1,8.665497E0,1.0913973E1,3.1222804E0,7.0697517E0,1.8151108E1,1.2532047E1,3.7675385E0,5.2982025E0,3.2883747E0,9.060324E0,2.9154186E0,2.7036188E0,9.952259E0,3.9849052E0,1.07957E1,0E0,7.6383095E0,1.0071934E1,1.8967175E0,1.9121265E-1,2.7890759E0,2.3183746E0,3.5764623E0,3.9050257E0,3.3526955E0,5.857943E0,0E0,0E0,0E0,0E0,0E0,0E0,0E0,0E0,0E0,0E0,0E0,0E0,0E0,0E0,0E0,0E0,0E0,0E0,0E0,0E0,0E0,0E0,0E0,0E0,0E0,0E0,0E0,0E0,0E0,0E0],"parents":[2147483647,0,0,1,1,2,2,3,3,4,4,5,5,6,6,7,7,8,8,9,9,10,10,11,11,12,12,13,13,14,14,15,15,16,16,17,17,18,18,19,19,21,21,22,22,23,23,24,24,25,25,26,26,27,27,28,28,29,29,30,30],"right_children":[2,4,6,8,10,12,14,16,18,20,22,24,26,28,30,32,34,36,38,40,-1,42,44,46,48,50,52,54,56,58,60,-1,-1,-1,-1,-1,-1,-1,-1,-1,-1,-1,-1,-1,-1,-1,-1,-1,-1,-1,-1,-1,-1,-1,-1,-1,-1,-1,-1,-1,-1],"split_conditions":[7.38E1,3E0,4E0,3.89E1,4.59E1,4.92E1,5.19E1,7.26E1,6.01E1,1E1,9E0,1.5E1,7.92E1,8.74E1,8E0,2.22E1,8.48E1,5.89E1,2E0,5.62E1,-7.150986E-2,8.01E1,7.14E1,9.71E1,9.03E1,1.2E1,9.03E1,7.96E1,9.39E1,5.99E1,9.85E1,-4.903412E-2,-1.1672618E-2,2.970487E-2,-1.3967087E-2,1.2573449E-2,-4.6243194E-2,3.4695823E-2,1.5633227E-2,-4.623706E-2,-2.1148937E-2,-1.249017E-2,5.9470055E-3,-3.4902953E-2,-3.7821727E-3,1.4123265E-2,-1.3967087E-2,4.6480972E-2,2.031276E-2,1.1535585E-2,3.650613E-2,5.3851947E-2,3.7438765E-2,-3.2629047E-3,-3.027785E-2,2.0373818E-2,-9.993704E-3,3.466428E-2,1.6137948E-2,-4.4007553E-3,2.601816E-2],"split_indices":[0,3,3,0,0,2,2,2,2,3,3,1,0,0,3,0,2,2,3,2,0,2,2,0,0,1,0,0,0,2,0,0,0,0,0,0,0,0,0,0,0,0,0,0,0,0,0,0,0,0,0,0,0,0,0,0,0,0,0,0,0],"split_type":[0,0,0,0,0,0,0,0,0,0,0,0,0,0,0,0,0,0,0,0,0,0,0,0,0,0,0,0,0,0,0,0,0,0,0,0,0,0,0,0,0,0,0,0,0,0,0,0,0,0,0,0,0,0,0,0,0,0,0,0,0],"sum_hessian":[1.0463374E3,6.7389246E2,3.724449E2,1.717902E2,5.0210226E2,1.5526297E2,2.1718193E2,2.3510584E1,1.4827962E2,1.4059795E2,3.6150433E2,3.0493925E1,1.24769035E2,5.6797848E1,1.6038408E2,1.6294464E1,7.21612E0,7.192842E1,7.6351204E1,1.19182365E2,2.141558E1,2.73747E2,8.7757324E1,2.2113916E1,8.38001E0,3.3287262E1,9.148177E1,3.0959482E1,2.5838364E1,9.474067E1,6.564341E1,4.190005E0,1.2104459E1,3.2588928E0,3.957227E0,6.797119E1,3.957227E0,4.166727E1,3.468393E1,4.7021168E1,7.21612E1,2.3184694E2,4.190005E1,6.517786E1,2.2579472E1,1.8156689E1,3.957227E0,5.121117E0,3.2588928E0,1.2570015E1,2.0717247E1,5.609951E1,3.5382263E1,1.676002E1,1.4199462E1,1.070779E1,1.5130573E1,2.0717247E1,7.402342E1,5.4237286E1,1.1406125E1],"tree_param":{"num_deleted":"0","num_feature":"15","num_nodes":"61","size_leaf_vector":"1"}},{"base_weights":[1.5904205E-2,-2.6519388E-1,5.038697E-1,2.9939923E-1,-4.569375E-1,9.1794586E-1,2.0051797E-1,1.1502665E-1,6.1503446E-1,-9.0545344E-1,-2.4937984E-1,3.7378642E-1,1.0359071E0,4.298232E-1,-1.21598475E-1,-4.2352945E-1,2.1727003E-1,8.7385625E-1,2.9352468E-1,-7.506755E-1,-1.638659E0,-3.236235E-1,1.8504478E-1,5.15203E-1,-2.2425994E-2,7.2281E-1,1.1412922E0,3.693567E-1,8.4406626E-1,-2.0784675E-1,3.4414936E-2,-9.128836E-3,-4.0905826E-2,1.4851772E-2,1.1554793E-3,1.3257415E-2,4.8046816E-2,2.1609562E-2,-2.569615E-2,-4.513756E-2,-1.9053364E-2,-7.1809284E-2,-3.7319165E-2,-9.340637E-3,-3.2024E-2,3.207329E-2,2.3974485E-3,2.6353726E-2,-1.2224532E-3,3.3661652E-2,-9.96097E-3,5.2280705E-2,3.458456E-2,1.7498013E-2,-1.0998494E-2,2.3299407E-2,5.082638E-2,-1.0373807E-2,3.1644132E-2],"categories":[],"categories_nodes":[],"categories_segments":[],"categories_sizes":[],"default_left":[0,0,0,0,0,0,0,0,0,0,0,0,0,0,0,0,0,0,0,0,0,0,0,0,0,0,0,0,0,0,0,0,0,0,0,0,0,0,0,0,0,0,0,0,0,0,0,0,0,0,0,0,0,0,0,0,0,0,0],"id":1,"left_children":[1,3,5,7,9,11,13,15,17,19,21,23,25,27,29,31,33,35,37,39,41,43,45,47,-1,49,51,53,55,57,-1,-1,-1,-1,-1,-1,-1,-1,-1,-1,-1,-1,-1,-1,-1,-1,-1,-1,-1,-1,-1,-1,-1,-1,-1,-1,-1,-1,-1],"loss_changes":[1.441007E2,7.23018E1,4.8047203E1,9.799034E0,4.613517E1,1.001651E1,1.6516102E1,6.0549784E0,4.9283943E0,1.6606323E1,1.1085224E1,4.3112936E0,3.5515137E0,2.9551582E0,8.095098E0,1.8280978E0,2.649252E0,5.64073E0,7.111369E0,1.3103195E1,1.2586136E0,1.2376152E1,3.851078E0,2.1335988E0,0E0,4.37838E0,3.3409576E0,5.1917667E0,1.0268888E0,4.666859E0,0E0,0E0,0E0,0E0,0E0,0E0,0E0,0E0,0E0,0E0,0E0,0E0,0E0,0E0,0E0,0E0,0E0,0E0,0E0,0E0,0E0,0E0,0E0,0E0,0E0,0E0,0E0,0E0,0E0],"parents":[2147483647,0,0,1,1,2,2,3,3,4,4,5,5,6,6,7,7,8,8,9,9,10,10,11,11,12,12,13,13,14,14,15,15,16,16,17,17,18,18,19,19,20,20,21,21,22,22,23,23,25,25,26,26,27,27,28,28,29,29],"right_children":[2,4,6,8,10,12,14,16,18,20,22,24,26,28,30,32,34,36,38,40,42,44,46,48,-1,50,52,54,56,58,-1,-1,-1,-1,-1,-1,-1,-1,-1,-1,-1,-1,-1,-1,-1,-1,-1,-1,-1,-1,-1,-1,-1,-1,-1,-1,-1,-1,-1],"split_conditions":[7.34E1,3E0,4E0,6.85E1,4.79E1,4.92E1,8E0,3.92E1,2E0,1E1,8.06E1,1E0,7.92E1,8.44E1,8.99E1,1E0,2E0,5.17E1,1E0,5.62E1,7.59E1,1E1,8.28E1,4.64E1,-2.2425994E-2,1E0,9.03E1,7.7E1,7E0,1E0,3.4414936E-2,-9.128836E-3,-4.0905826E-2,1.4851772E-2,1.1554793E-3,1.3257415E-2,4.8046816E-2,2.1609562E-2,-2.569615E-2,-4.513756E-2,-1.9053364E-2,-7.1809284E-2,-3.7319165E-2,-9.340637E-3,-3.2024E-2,3.207329E-2,2.3974485E-3,2.6353726E-2,-1.2224532E-3,3.3661652E-2,-9.96097E-3,5.2280705E-2,3.458456E-2,1.7498013E-2,-1.0998494E-2,2.3299407E-2,5.082638E-2,-1.0373807E-2,3.1644132E-2],"split_indices":[0,3,3,2,0,2,3,0,3,3,2,12,0,2,2,8,3,0,10,2,2,3,2,2,0,7,0,2,3,4,0,0,0,0,0,0,0,0,0,0,0,0,0,0,0,0,0,0,0,0,0,0,0,0,0,0,0,0,0],"split_type":[0,0,0,0,0,0,0,0,0,0,0,0,0,0,0,0,0,0,0,0,0,0,0,0,0,0,0,0,0,0,0,0,0,0,0,0,0,0,0,0,0,0,0,0,0,0,0,0,0,0,0,0,0,0,0,0,0,0,0],"sum_hessian":[1.0485815E3,6.6560736E2,3.8297418E2,1.6859993E2,4.9700745E2,1.6107721E2,2.2189699E2,1.072918E2,6.130812E1,1.561712E2,3.4083624E2,2.9439676E1,1.3163753E2,1.294272E2,9.246979E1,1.6617664E1,9.067413E1,3.3013565E1,2.8294556E1,1.306212E2,2.5549995E1,2.9130667E2,4.9529594E1,2.5959623E1,3.480054E0,3.512892E1,9.650861E1,1.14592E2,1.48351965E1,8.572845E1,6.7413387E0,1.3573658E1,3.044007E0,4.935221E1,4.1321922E1,1.3181666E1,1.98319E1,2.2726532E1,5.5680246E0,5.3642754E1,7.6978455E1,1.9646864E1,5.9031305E0,2.4627199E2,4.503467E1,7.4401965E0,4.2089397E1,2.038681E1,5.572813E0,3.142386E1,3.7050607E0,5.8027306E1,3.8481304E1,1.0392948E2,1.066252E1,1.066252E1,4.172676E0,8.222968E1,3.4987688E0],"tree_param":{"num_deleted":"0","num_feature":"15","num_nodes":"59","size_leaf_vector":"1"}},{"base_weights":[-3.937951E-3,-2.8821385E-1,4.9582937E-1,2.3936987E-1,-4.689292E-1,8.9722896E-1,2.0599155E-1,-4.2194644E-1,3.4950107E-1,-8.614081E-1,-3.1330094E-1,3.0343047E-1,1.0039979E0,3.716153E-1,-2.3538385E-1,-9.5425636E-2,-7.976425E-1,9.635183E-2,5.6853443E-1,-1.2623533E0,-5.911284E-1,-1.6261934E-1,-5.739325E-1,-3.3278927E-2,9.363103E-1,6.321189E-1,1.1403922E0,-1.2619285E-1,4.4851884E-1,-3.5777846E-1,4.2833143E-1,-1.9109843E-2,1.5073945E-2,-6.028471E-3,-5.5537257E-2,9.094269E-3,-5.4251894E-2,3.058412E-2,1.3185456E-2,-4.17488E-2,-7.522902E-2,-1.6744686E-2,-5.1269095E-2,-1.2353933E-2,1.4379584E-3,-2.7806055E-2,4.0075085E-3,-2.9279804E-2,1.44442115E-2,4.455139E-2,1.8731868E-2,6.9115865E-3,3.606983E-2,3.7340928E-2,5.059057E-2,2.1635305E-2,-1.4552449E-2,1.4439691E-2,3.1201515E-2,-2.4733964E-2,-7.117313E-3,-1.1323227E-2,3.1086449E-2],"categories":[],"categories_nodes":[],"categories_segments":[],"categories_sizes":[],"default_left":[0,0,0,0,0,0,0,0,0,0,0,0,0,0,0,0,0,0,0,0,0,0,0,0,0,0,0,0,0,0,0,0,0,0,0,0,0,0,0,0,0,0,0,0,0,0,0,0,0,0,0,0,0,0,0,0,0,0,0,0,0,0,0],"id":2,"left_children":[1,3,5,7,9,11,13,15,17,19,21,23,25,27,29,31,33,35,37,39,41,43,45,47,49,51,53,55,57,59,61,-1,-1,-1,-1,-1,-1,-1,-1,-1,-1,-1,-1,-1,-1,-1,-1,-1,-1,-1,-1,-1,-1,-1,-1,-1,-1,-1,-1,-1,-1,-1,-1],"loss_changes":[1.5012888E2,6.433145E1,4.4390198E1,1.2712006E1,3.0395645E1,9.86171E0,1.644683E1,3.0006528E0,8.1756E0,1.4639656E1,1.4086727E1,5.544332E0,6.151108E0,6.3011017E0,5.1633525E0,2.8080294E0,4.196162E0,1.3640823E1,3.4659176E0,5.647209E0,9.791286E0,6.694995E0,1.0846355E1,5.183923E0,2.2752285E-1,4.62473E0,1.3376999E0,3.7802026E0,3.824461E0,2.3557181E0,2.7159028E0,0E0,0E0,0E0,0E0,0E0,0E0,0E0,0E0,0E0,0E0,0E0,0E0,0E0,0E0,0E0,0E0,0E0,0E0,0E0,0E0,0E0,0E0,0E0,0E0,0E0,0E0,0E0,0E0,0E0,0E0,0E0,0E0],"parents":[2147483647,0,0,1,1,2,2,3,3,4,4,5,5,6,6,7,7,8,8,9,9,10,10,11,11,12,12,13,13,14,14,15,15,16,16,17,17,18,18,19,19,20,20,21,21,22,22,23,23,24,24,25,25,26,26,27,27,28,28,29,29,30,30],"right_children":[2,4,6,8,10,12,14,16,18,20,22,24,26,28,30,32,34,36,38,40,42,44,46,48,50,52,54,56,58,60,62,-1,-1,-1,-1,-1,-1,-1,-1,-1,-1,-1,-1,-1,-1,-1,-1,-1,-1,-1,-1,-1,-1,-1,-1,-1,-1,-1,-1,-1,-1,-1,-1],"split_conditions":[7.34E1,3E0,4E0,3.8E1,4.59E1,4.73E1,9E0,1.3E1,6.01E1,5.59E1,8E0,1.5E1,7.92E1,4.4E1,9.92E1,1.1E1,2.83E1,5.89E1,2E0,9E0,1E1,1.3E1,1E0,8.17E1,3.99E1,1.2E1,6.69E1,7.99E1,7.83E1,1E1,5.1E1,-1.9109843E-2,1.5073945E-2,-6.028471E-3,-5.5537257E-2,9.094269E-3,-5.4251894E-2,3.058412E-2,1.3185456E-2,-4.17488E-2,-7.522902E-2,-1.6744686E-2,-5.1269095E-2,-1.2353933E-2,1.4379584E-3,-2.7806055E-2,4.0075085E-3,-2.9279804E-2,1.44442115E-2,4.455139E-2,1.8731868E-2,6.9115865E-3,3.606983E-2,3.7340928E-2,5.059057E-2,2.1635305E-2,-1.4552449E-2,1.4439691E-2,3.1201515E-2,-2.4733964E-2,-7.117313E-3,-1.1323227E-2,3.1086449E-2],"split_indices":[0,3,3,0,0,2,3,1,2,2,3,1,0,2,0,1,0,2,3,3,3,1,6,0,2,1,2,0,2,3,2,0,0,0,0,0,0,0,0,0,0,0,0,0,0,0,0,0,0,0,0,0,0,0,0,0,0,0,0,0,0,0,0],"split_type":[0,0,0,0,0,0,0,0,0,0,0,0,0,0,0,0,0,0,0,0,0,0,0,0,0,0,0,0,0,0,0,0,0,0,0,0,0,0,0,0,0,0,0,0,0,0,0,0,0,0,0,0,0,0,0,0,0,0,0,0,0,0,0],"sum_hessian":[1.0547053E3,6.725634E2,3.8214185E2,1.7151497E2,5.0104846E2,1.5935448E2,2.2278738E2,2.408114E1,1.4743382E2,1.4097885E2,3.600696E2,2.4871706E1,1.3448277E2,1.621133E2,6.0674088E1,1.3554661E1,1.0526479E1,6.9058685E1,7.837514E1,5.528944E1,8.5689415E1,2.2918974E2,1.3087988E2,1.6852913E1,8.018794E0,3.7600224E1,9.6882545E1,2.160701E1,1.4050629E2,5.161652E1,9.057569E0,7.484303E0,6.070358E0,5.6235895E0,4.9028893E0,6.4119644E1,4.9390416E0,4.18376E1,3.653754E1,4.28331E1,1.245634E1,6.984767E1,1.5841741E1,1.3167023E2,9.751952E1,1.1090583E2,1.9974049E1,5.771576E0,1.1081336E1,4.813619E0,3.2051754E0,1.4514518E1,2.3085705E1,3.9570545E1,5.7312E1,5.3398814E0,1.6267128E1,1.1281116E2,2.769513E1,2.008214E1,3.1534378E1,3.0420406E0,6.0155277E0],"tree_param":{"num_deleted":"0","num_feature":"15","num_nodes":"63","size_leaf_vector":"1"}},{"base_weights":[4.0253056E-3,-2.8353813E-1,4.0939042E-1,2.4023886E-1,-4.6361127E-1,7.642382E-1,3.358692E-2,1.9892843E-1,3.464762E-2,-8.1228715E-1,-2.493648E-1,8.3864254E-1,4.749575E-1,-2.6175058E-1,2.1214654E-1,-1.6016795E-1,2.5838566E-1,-6.4137495E-1,-1.2684561E0,-2.1384989E-1,-9.775822E-1,8.997231E-1,4.2709482E-1,9.2254114E-1,2.3977937E-1,5.600237E-2,-4.7842607E-1,3.6175263E-1,-1.2617555E-1,1.7690995E-3,-3.812083E-2,1.6735151E-2,3.182916E-3,-4.1719247E-2,-2.01458E-2,-7.634364E-2,-4.538007E-2,-6.800735E-3,-2.555322E-2,-2.047253E-2,-4.388724E-2,4.3533977E-2,3.0397672E-2,-2.2712354E-2,2.792573E-2,4.75041E-2,2.7307173E-2,-7.323892E-4,1.6054349E-2,1.970659E-2,-1.51078915E-2,-3.9874565E-2,-1.4651526E-2,1.7937962E-2,-3.0137778E-3,-1.2036039E-2,1.7564194E-2],"categories":[],"categories_nodes":[],"categories_segments":[],"categories_sizes":[],"default_left":[0,0,0,0,0,0,0,0,0,0,0,0,0,0,0,0,0,0,0,0,0,0,0,0,0,0,0,0,0,0,0,0,0,0,0,0,0,0,0,0,0,0,0,0,0,0,0,0,0,0,0,0,0,0,0,0,0],"id":3,"left_children":[1,3,5,7,9,11,13,15,-1,17,19,21,23,25,27,29,31,33,35,37,39,41,43,45,47,49,51,53,55,-1,-1,-1,-1,-1,-1,-1,-1,-1,-1,-1,-1,-1,-1,-1,-1,-1,-1,-1,-1,-1,-1,-1,-1,-1,-1,-1,-1],"loss_changes":[1.2268133E2,5.8182148E1,5.8217163E1,3.9178839E0,3.404957E1,4.435837E0,1.1296652E1,3.2372346E0,0E0,1.2757446E1,7.173353E0,4.073654E0,4.858186E0,5.5873775E0,6.7975125E0,3.5879743E0,3.6515799E0,6.590561E0,1.815094E0,4.985159E0,1.622734E-1,3.2206345E0,7.090216E0,2.2368145E-1,1.3828675E0,6.5568185E0,2.432662E0,3.548666E0,4.245136E0,0E0,0E0,0E0,0E0,0E0,0E0,0E0,0E0,0E0,0E0,0E0,0E0,0E0,0E0,0E0,0E0,0E0,0E0,0E0,0E0,0E0,0E0,0E0,0E0,0E0,0E0,0E0,0E0],"parents":[2147483647,0,0,1,1,2,2,3,3,4,4,5,5,6,6,7,7,9,9,10,10,11,11,12,12,13,13,14,14,15,15,16,16,17,17,18,18,19,19,20,20,21,21,22,22,23,23,24,24,25,25,26,26,27,27,28,28],"right_children":[2,4,6,8,10,12,14,16,-1,18,20,22,24,26,28,30,32,34,36,38,40,42,44,46,48,50,52,54,56,-1,-1,-1,-1,-1,-1,-1,-1,-1,-1,-1,-1,-1,-1,-1,-1,-1,-1,-1,-1,-1,-1,-1,-1,-1,-1,-1,-1],"split_conditions":[7.06E1,3E0,5E0,1E0,4.91E1,4E0,7.99E1,3.76E1,3.464762E-2,9E0,7E1,1E0,7.8E1,1.2E1,9E0,3.43E1,2E0,3.02E1,2.52E1,1E0,1E1,2E0,7.55E1,7.29E1,8.65E1,8E0,6E0,1E0,9.92E1,1.7690995E-3,-3.812083E-2,1.6735151E-2,3.182916E-3,-4.1719247E-2,-2.01458E-2,-7.634364E-2,-4.538007E-2,-6.800735E-3,-2.555322E-2,-2.047253E-2,-4.388724E-2,4.3533977E-2,3.0397672E-2,-2.2712354E-2,2.792573E-2,4.75041E-2,2.7307173E-2,-7.323892E-4,1.6054349E-2,1.970659E-2,-1.51078915E-2,-3.9874565E-2,-1.4651526E-2,1.7937962E-2,-3.0137778E-3,-1.2036039E-2,1.7564194E-2],"split_indices":[0,3,3,13,0,3,0,0,0,3,0,7,0,1,3,0,3,0,0,12,1,3,0,0,0,3,3,10,0,0,0,0,0,0,0,0,0,0,0,0,0,0,0,0,0,0,0,0,0,0,0,0,0,0,0,0,0],"split_type":[0,0,0,0,0,0,0,0,0,0,0,0,0,0,0,0,0,0,0,0,0,0,0,0,0,0,0,0,0,0,0,0,0,0,0,0,0,0,0,0,0,0,0,0,0,0,0,0,0,0,0,0,0,0,0,0,0],"sum_hessian":[1.0504469E3,6.146902E2,4.3575677E2,1.5717699E2,4.575132E2,2.2359572E2,2.1216106E2,1.4868231E2,8.494666E0,1.7306572E2,2.8444748E2,1.763409E2,4.7254814E1,7.976459E1,1.3239647E2,2.0880312E1,1.27802E2,1.2764655E2,4.541916E1,2.7245367E2,1.1993811E1,1.5251842E2,2.3822477E1,1.527024E1,3.1984573E1,3.2639923E1,4.712466E1,9.175371E1,4.0642765E1,1.7351385E1,3.5289261E0,6.674342E1,6.1058582E1,3.0918566E1,9.672799E1,5.567131E0,3.9852028E1,2.4824983E2,2.4203842E1,3.5291603E0,8.46465E0,6.2028572E1,9.048985E1,4.8661275E0,1.895635E1,5.3770676E0,9.893172E0,1.2655983E1,1.932859E1,1.6196661E1,1.6443264E1,6.9773264E0,4.0147335E1,7.6545296E1,1.5208413E1,3.1403723E1,9.239041E0],"tree_param":{"num_deleted":"0","num_feature":"15","num_nodes":"57","size_leaf_vector":"1"}},{"base_weights":[9.618958E-4,-2.5312334E-1,4.634804E-1,-6.4012164E-1,-1.07809104E-1,2.3700522E-1,7.491259E-1,-7.4329585E-1,-1.18683234E-1,-2.743996E-1,3.0870736E-2,5.251926E-2,3.7730646E-1,6.07551E-1,1.1584072E0,-7.919603E-1,-1.7371282E-1,4.2083582E-1,-4.2917162E-1,-2.278404E-1,-7.0472315E-2,5.8698308E-2,-7.724915E-1,1.1159326E-1,-5.013338E-1,5.205438E-1,6.00349E-2,7.064752E-1,-1.2674141E-3,9.200371E-3,1.2944951E0,-3.948672E-2,-2.5272908E-2,1.1293247E-2,-2.0084213E-2,2.4340237E-2,-8.5457315E-4,-3.6051765E-2,2.1033285E-3,-1.4156649E-2,4.638462E-3,2.850261E-4,1.5796958E-2,-4.2699907E-2,-1.0549581E-2,2.8190063E-3,2.8029064E-2,-2.8043866E-2,-7.606865E-3,7.0816553E-3,2.4072317E-2,-2.022137E-2,1.0544769E-2,1.5783016E-2,3.329464E-2,-1.6142905E-2,1.5342118E-2,3.2052457E-2,5.5119712E-2],"categories":[],"categories_nodes":[],"categories_segments":[],"categories_sizes":[],"default_left":[0,0,0,0,0,0,0,0,0,0,0,0,0,0,0,0,0,0,0,0,0,0,0,0,0,0,0,0,0,0,0,0,0,0,0,0,0,0,0,0,0,0,0,0,0,0,0,0,0,0,0,0,0,0,0,0,0,0,0],"id":4,"left_children":[1,3,5,7,9,11,13,15,17,19,21,23,25,27,29,31,33,35,37,39,-1,41,43,45,47,49,51,53,55,-1,57,-1,-1,-1,-1,-1,-1,-1,-1,-1,-1,-1,-1,-1,-1,-1,-1,-1,-1,-1,-1,-1,-1,-1,-1,-1,-1,-1,-1],"loss_changes":[1.2366945E2,3.8127403E1,2.3960464E1,9.876083E0,1.1444302E1,5.4048758E0,8.8305435E0,4.142975E0,5.5048494E0,1.5178459E1,6.10432E0,3.0560818E0,5.37146E0,7.4905663E0,4.9058876E0,3.8149948E0,2.1540546E0,1.0183794E0,4.7484956E0,9.54628E0,0E0,4.5555835E0,1.0908942E0,1.9775925E0,4.2732573E-1,2.1761837E0,4.521096E0,3.8720741E0,3.0003285E0,0E0,3.6611938E-1,0E0,0E0,0E0,0E0,0E0,0E0,0E0,0E0,0E0,0E0,0E0,0E0,0E0,0E0,0E0,0E0,0E0,0E0,0E0,0E0,0E0,0E0,0E0,0E0,0E0,0E0,0E0,0E0],"parents":[2147483647,0,0,1,1,2,2,3,3,4,4,5,5,6,6,7,7,8,8,9,9,10,10,11,11,12,12,13,13,14,14,15,15,16,16,17,17,18,18,19,19,21,21,22,22,23,23,24,24,25,25,26,26,27,27,28,28,30,30],"right_children":[2,4,6,8,10,12,14,16,18,20,22,24,26,28,30,32,34,36,38,40,-1,42,44,46,48,50,52,54,56,-1,58,-1,-1,-1,-1,-1,-1,-1,-1,-1,-1,-1,-1,-1,-1,-1,-1,-1,-1,-1,-1,-1,-1,-1,-1,-1,-1,-1,-1],"split_conditions":[7.38E1,4.59E1,6.79E1,7.98E1,6.01E1,5.19E1,1E0,1E0,8.58E1,5.99E1,7.29E1,5.06E1,6.31E1,1E0,1.1E1,5.31E1,5.16E1,3.99E1,9.15E1,6.69E1,-7.0472315E-2,1.6E1,7.31E1,1E0,8.96E1,7.84E1,7.99E1,7.92E1,7.73E1,9.200371E-3,7.26E1,-3.948672E-2,-2.5272908E-2,1.1293247E-2,-2.0084213E-2,2.4340237E-2,-8.5457315E-4,-3.6051765E-2,2.1033285E-3,-1.4156649E-2,4.638462E-3,2.850261E-4,1.5796958E-2,-4.2699907E-2,-1.0549581E-2,2.8190063E-3,2.8029064E-2,-2.8043866E-2,-7.606865E-3,7.0816553E-3,2.4072317E-2,-2.022137E-2,1.0544769E-2,1.5783016E-2,3.329464E-2,-1.6142905E-2,1.5342118E-2,3.2052457E-2,5.5119712E-2],"split_indices":[0,0,2,2,2,2,5,5,2,2,0,2,2,7,1,2,2,0,2,0,0,1,2,13,0,0,0,0,2,0,2,0,0,0,0,0,0,0,0,0,0,0,0,0,0,0,0,0,0,0,0,0,0,0,0,0,0,0,0],"split_type":[0,0,0,0,0,0,0,0,0,0,0,0,0,0,0,0,0,0,0,0,0,0,0,0,0,0,0,0,0,0,0,0,0,0,0,0,0,0,0,0,0,0,0,0,0,0,0,0,0,0,0,0,0,0,0,0,0,0,0],"sum_hessian":[1.0503363E3,6.7821216E2,3.7212415E2,1.8421336E2,4.939988E2,2.0858018E2,1.6354395E2,1.534296E2,3.078377E1,2.2397183E2,2.7002698E2,9.069593E1,1.1788425E2,1.2335761E2,4.0186337E1,1.4099292E2,1.24366665E1,1.1114792E1,1.9668978E1,2.1829199E2,5.6798472E0,2.618826E2,8.144386E0,8.26762E1,8.019734E0,8.0775955E1,3.7108295E1,1.059774E2,1.7380215E1,5.481492E0,3.4704845E1,6.121154E1,7.978139E1,5.265142E0,7.1715245E0,7.5391035E0,3.5756881E0,9.493974E0,1.0175004E1,1.5969917E2,5.859281E1,2.2794064E2,3.3941944E1,4.4599566E0,3.6844296E0,7.832892E1,4.347281E0,4.120963E0,3.8987715E0,1.6061754E1,6.47142E1,9.429481E0,2.7678816E1,3.1663649E1,7.431375E1,8.473246E0,8.906969E0,6.559231E0,2.8145613E1],"tree_param":{"num_deleted":"0","num_feature":"15","num_nodes":"59","size_leaf_vector":"1"}},{"base_weights":[1.6844568E-3,-2.4939987E-1,4.5351872E-1,2.2473934E-1,-4.0692842E-1,8.205657E-1,1.9204013E-1,-4.252915E-1,3.235811E-1,-7.3554856E-1,-2.23479E-1,6.9109327E-1,1.2373354E0,1.2059901E-1,7.467125E-1,-6.694259E-1,1.715047E-2,5.332842E-2,5.611449E-1,-1.0901313E0,-4.9718142E-1,-2.9747948E-1,1.8828239E-1,7.693589E-1,1.8814693E-1,1.1356038E-2,5.553182E-2,2.7407703E-1,-1.0979721E-1,4.6338096E-1,4.9113702E-2,-1.8064132E-2,-5.0139792E-2,7.394508E-3,-5.25305E-2,2.42406E-2,-4.2288955E-3,-3.636055E-2,-6.242953E-2,-1.4396058E-2,-4.463821E-2,-8.722134E-3,-2.8384468E-2,2.4136059E-2,2.342504E-3,1.7993603E-2,3.4059137E-2,-3.653644E-2,2.0004464E-2,-6.470388E-4,1.54293915E-2,-1.0410283E-2,3.4079822E-3,3.2841035E-3,4.103683E-2],"categories":[],"categories_nodes":[],"categories_segments":[],"categories_sizes":[],"default_left":[0,0,0,0,0,0,0,0,0,0,0,0,0,0,0,0,0,0,0,0,0,0,0,0,0,0,0,0,0,0,0,0,0,0,0,0,0,0,0,0,0,0,0,0,0,0,0,0,0,0,0,0,0,0,0],"id":5,"left_children":[1,3,5,7,9,11,13,15,17,19,21,23,25,27,29,31,-1,33,35,37,39,41,43,45,47,-1,-1,49,51,53,-1,-1,-1,-1,-1,-1,-1,-1,-1,-1,-1,-1,-1,-1,-1,-1,-1,-1,-1,-1,-1,-1,-1,-1,-1],"loss_changes":[1.19190094E2,5.0532425E1,3.5859802E1,1.0999904E1,3.041655E1,7.552841E0,8.646042E0,5.029691E0,9.428103E0,1.4781128E1,1.0019182E1,4.624138E0,4.739483E0,6.9784403E0,2.8339252E0,1.7341166E0,0E0,1.2829406E1,2.4068336E0,4.721794E0,8.963736E0,8.930719E0,2.6799414E0,2.3592567E0,6.5179696E0,0E0,0E0,3.837697E0,2.3480911E0,3.6299686E0,0E0,0E0,0E0,0E0,0E0,0E0,0E0,0E0,0E0,0E0,0E0,0E0,0E0,0E0,0E0,0E0,0E0,0E0,0E0,0E0,0E0,0E0,0E0,0E0,0E0],"parents":[2147483647,0,0,1,1,2,2,3,3,4,4,5,5,6,6,7,7,8,8,9,9,10,10,11,11,12,12,13,13,14,14,15,15,17,17,18,18,19,19,20,20,21,21,22,22,23,23,24,24,27,27,28,28,29,29],"right_children":[2,4,6,8,10,12,14,16,18,20,22,24,26,28,30,32,-1,34,36,38,40,42,44,46,48,-1,-1,50,52,54,-1,-1,-1,-1,-1,-1,-1,-1,-1,-1,-1,-1,-1,-1,-1,-1,-1,-1,-1,-1,-1,-1,-1,-1,-1],"split_conditions":[7.34E1,3E0,4E0,3.72E1,4.97E1,1E0,8.5E1,7.75E1,6.01E1,5.62E1,8.01E1,1E0,1.2E1,8E0,8.94E1,3.43E1,1.715047E-2,5.89E1,1E0,9E0,1E1,1E1,8.33E1,4.92E1,7.69E1,1.1356038E-2,5.553182E-2,5.19E1,8.63E1,9.34E1,4.9113702E-2,-1.8064132E-2,-5.0139792E-2,7.394508E-3,-5.25305E-2,2.42406E-2,-4.2288955E-3,-3.636055E-2,-6.242953E-2,-1.4396058E-2,-4.463821E-2,-8.722134E-3,-2.8384468E-2,2.4136059E-2,2.342504E-3,1.7993603E-2,3.4059137E-2,-3.653644E-2,2.0004464E-2,-6.470388E-4,1.54293915E-2,-1.0410283E-2,3.4079822E-3,3.2841035E-3,4.103683E-2],"split_indices":[0,3,3,0,0,5,2,2,2,2,2,7,1,3,0,0,0,2,9,3,3,3,2,2,0,0,0,2,0,2,0,0,0,0,0,0,0,0,0,0,0,0,0,0,0,0,0,0,0,0,0,0,0,0,0],"split_type":[0,0,0,0,0,0,0,0,0,0,0,0,0,0,0,0,0,0,0,0,0,0,0,0,0,0,0,0,0,0,0,0,0,0,0,0,0,0,0,0,0,0,0,0,0,0,0,0,0,0,0,0,0,0,0],"sum_hessian":[1.0486127E3,6.743335E2,3.7427914E2,1.6806233E2,5.0627118E2,1.5481773E2,2.1946141E2,2.1746191E1,1.4631615E2,1.8029396E2,3.259772E2,1.201504E2,3.466733E1,1.9549883E2,2.3962587E1,1.7079988E1,4.666203E0,6.902161E1,7.729454E1,7.1042076E1,1.09251884E2,2.7655344E2,4.9423775E1,1.0351265E2,1.6637747E1,5.1324444E0,2.9534887E1,1.17222E2,7.827682E1,1.6316885E1,7.645702E0,1.3731984E1,3.3480036E0,6.3750362E1,5.27124E0,7.250715E1,4.7873936E0,5.341599E1,1.7626081E1,9.0709E1,1.8542887E1,2.3314987E2,4.3403557E1,1.0897827E1,3.8525948E1,2.2488825E1,8.102383E1,3.2464592E0,1.3391287E1,3.280387E1,8.441814E1,4.3995296E1,3.4281525E1,1.0408297E1,5.908588E0],"tree_param":{"num_deleted":"0","num_feature":"15","num_nodes":"55","size_leaf_vector":"1"}},{"base_weights":[4.4980394E-3,-1.062401E-1,2.7793762E-1,-1.3999689E-1,2.2428378E-1,1.7203102E-1,8.537722E-1,-1.2674682E-1,-8.876676E-1,-3.8199607E-2,3.0195245E-1,2.5997916E-1,-2.176667E-1,-2.2338431E-2,1.1130519E0,-2.9047993E-1,-5.59793E-2,-7.391576E-2,-1.6757368E-1,-1.5253603E-2,3.6282983E-1,7.668566E-1,2.139725E-1,-3.3471414E-1,1.6568261E-1,-3.3903268E-1,2.234995E-2,5.2985262E-2,6.2930393E-1,-3.988073E-3,-1.564851E-2,2.3527766E-2,-2.7110714E-3,-1.3344307E-2,1.8502561E-3,2.8209193E-2,7.311012E-3,3.3615027E-2,1.6400447E-2,-4.4703213E-4,1.417795E-2,-1.0025809E-2,-3.692466E-2,-9.481234E-3,2.7992796E-2,-9.798969E-5,-2.4942202E-2,1.7331088E-2,3.6740124E-2],"categories":[],"categories_nodes":[],"categories_segments":[],"categories_sizes":[],"default_left":[0,0,0,0,0,0,0,0,0,0,0,0,0,0,0,0,0,0,0,0,0,0,0,0,0,0,0,0,0,0,0,0,0,0,0,0,0,0,0,0,0,0,0,0,0,0,0,0,0],"id":6,"left_children":[1,3,5,7,9,11,13,15,17,-1,19,21,23,25,27,29,31,-1,33,-1,35,37,39,41,43,45,-1,-1,47,-1,-1,-1,-1,-1,-1,-1,-1,-1,-1,-1,-1,-1,-1,-1,-1,-1,-1,-1,-1],"loss_changes":[3.1655344E1,8.333705E0,1.8229834E1,6.5821075E0,6.639244E0,8.822786E0,1.0601078E1,7.691018E0,7.711686E0,0E0,2.8760142E0,4.7128773E0,2.1930468E0,2.3264658E0,2.8455582E0,3.8140354E0,3.578796E0,0E0,2.8983474E-1,0E0,3.6282215E0,1.01839066E-1,6.1119328E0,1.5903401E0,2.7067418E0,7.7786845E-1,0E0,0E0,3.3011675E-1,0E0,0E0,0E0,0E0,0E0,0E0,0E0,0E0,0E0,0E0,0E0,0E0,0E0,0E0,0E0,0E0,0E0,0E0,0E0,0E0],"parents":[2147483647,0,0,1,1,2,2,3,3,4,4,5,5,6,6,7,7,8,8,10,10,11,11,12,12,13,13,14,14,15,15,16,16,18,18,20,20,21,21,22,22,23,23,24,24,25,25,28,28],"right_children":[2,4,6,8,10,12,14,16,18,-1,20,22,24,26,28,30,32,-1,34,-1,36,38,40,42,44,46,-1,-1,48,-1,-1,-1,-1,-1,-1,-1,-1,-1,-1,-1,-1,-1,-1,-1,-1,-1,-1,-1,-1],"split_conditions":[7.26E1,1E0,1E0,7.2E1,3.07E1,1E0,1.2E1,4.82E1,7.21E1,-3.8199607E-2,9E0,7.39E1,1.5E1,8.48E1,1.4E1,3.63E1,4.88E1,-7.391576E-2,7.23E1,-1.5253603E-2,5.22E1,1E0,8.01E1,1.4E1,8.58E1,7.88E1,2.234995E-2,5.2985262E-2,1E0,-3.988073E-3,-1.564851E-2,2.3527766E-2,-2.7110714E-3,-1.3344307E-2,1.8502561E-3,2.8209193E-2,7.311012E-3,3.3615027E-2,1.6400447E-2,-4.4703213E-4,1.417795E-2,-1.0025809E-2,-3.692466E-2,-9.481234E-3,2.7992796E-2,-9.798969E-5,-2.4942202E-2,1.7331088E-2,3.6740124E-2],"split_indices":[2,5,5,2,2,10,1,2,2,0,1,2,1,2,1,2,2,0,2,0,2,8,2,1,2,2,0,0,8,0,0,0,0,0,0,0,0,0,0,0,0,0,0,0,0,0,0,0,0],"split_type":[0,0,0,0,0,0,0,0,0,0,0,0,0,0,0,0,0,0,0,0,0,0,0,0,0,0,0,0,0,0,0,0,0,0,0,0,0,0,0,0,0,0,0,0,0,0,0,0,0],"sum_hessian":[1.0434391E3,7.4310596E2,3.0033316E2,6.747676E2,6.8338356E1,2.5477425E2,4.555892E1,6.641669E2,1.0600707E1,3.524765E0,6.481359E1,2.0813466E2,4.6639576E1,1.06126E1,3.4946323E1,1.9949513E2,4.6467175E2,3.871705E0,6.7290015E0,4.871495E0,5.9942097E1,1.6015528E1,1.9211914E2,3.582734E1,1.0812237E1,7.138598E0,3.4740024E0,2.3103252E1,1.1843071E1,6.9623955E1,1.2987117E2,7.478318E0,4.5719345E2,3.472519E0,3.2564828E0,1.9652758E1,4.028934E1,1.2156059E1,3.8594675E0,7.416755E1,1.17951584E2,3.2596096E1,3.2312431E0,6.481636E0,4.3306007E0,3.7321577E0,3.4064403E0,8.54753E0,3.2955413E0],"tree_param":{"num_deleted":"0","num_feature":"15","num_nodes":"49","size_leaf_vector":"1"}},{"base_weights":[-3.029063E-3,-2.359612E-1,4.266426E-1,1.2594564E-1,-4.49823E-1,7.9430723E-1,1.6889895E-1,3.847879E-1,-2.6590053E-2,-8.4854853E-1,-2.8702298E-1,3.32789E-1,9.0230536E-1,8.8649064E-2,8.1778294E-1,2.4814065E-1,8.9923596E-1,-1.3807724E-1,1.798782E-1,-9.178543E-1,3.5853636E-1,-4.621719E-1,-9.8547466E-2,6.9439805E-1,1.7067829E-1,5.2024394E-1,1.0382757E0,-1.8490599E-1,2.0841213E-1,4.510729E-1,4.7357935E-2,4.709722E-4,1.8371124E-2,4.6825367E-3,4.6109967E-2,2.4935633E-3,-2.121354E-2,1.3487513E-2,-1.5225579E-2,-2.1018134E-2,-4.345723E-2,2.3855738E-2,7.068463E-4,-1.0190738E-2,-2.7160244E-2,2.3885954E-3,-1.28818415E-2,1.5204805E-2,3.4025975E-2,-8.212514E-3,1.4672098E-2,1.3295627E-2,4.9997162E-2,4.8608236E-2,2.983359E-2,-2.9938922E-3,-3.3976756E-2,1.5122807E-2,-1.5567339E-3,4.669996E-3,3.575359E-2],"categories":[],"categories_nodes":[],"categories_segments":[],"categories_sizes":[],"default_left":[0,0,0,0,0,0,0,0,0,0,0,0,0,0,0,0,0,0,0,0,0,0,0,0,0,0,0,0,0,0,0,0,0,0,0,0,0,0,0,0,0,0,0,0,0,0,0,0,0,0,0,0,0,0,0,0,0,0,0,0,0],"id":7,"left_children":[1,3,5,7,9,11,13,15,17,19,21,23,25,27,29,31,33,35,37,39,41,43,45,47,49,51,53,55,57,59,-1,-1,-1,-1,-1,-1,-1,-1,-1,-1,-1,-1,-1,-1,-1,-1,-1,-1,-1,-1,-1,-1,-1,-1,-1,-1,-1,-1,-1,-1,-1],"loss_changes":[1.0533358E2,5.2877853E1,3.4926407E1,1.0049601E1,2.7616165E1,7.286171E0,1.1319701E1,6.409258E0,3.7291179E0,1.0696083E1,1.0064741E1,1.6663334E0,5.8370667E0,6.453853E0,2.6828346E0,3.7838006E0,3.7158203E0,8.292794E0,5.14205E0,7.1999435E0,5.933085E-1,6.9539757E0,5.282233E0,1.2345648E-1,1.7233272E0,4.2759476E0,3.7261887E0,4.335886E0,5.749271E0,1.9066148E0,0E0,0E0,0E0,0E0,0E0,0E0,0E0,0E0,0E0,0E0,0E0,0E0,0E0,0E0,0E0,0E0,0E0,0E0,0E0,0E0,0E0,0E0,0E0,0E0,0E0,0E0,0E0,0E0,0E0,0E0,0E0],"parents":[2147483647,0,0,1,1,2,2,3,3,4,4,5,5,6,6,7,7,8,8,9,9,10,10,11,11,12,12,13,13,14,14,15,15,16,16,17,17,18,18,19,19,20,20,21,21,22,22,23,23,24,24,25,25,26,26,27,27,28,28,29,29],"right_children":[2,4,6,8,10,12,14,16,18,20,22,24,26,28,30,32,34,36,38,40,42,44,46,48,50,52,54,56,58,60,-1,-1,-1,-1,-1,-1,-1,-1,-1,-1,-1,-1,-1,-1,-1,-1,-1,-1,-1,-1,-1,-1,-1,-1,-1,-1,-1,-1,-1,-1,-1],"split_conditions":[7.38E1,4E0,4E0,2E0,4.61E1,4.92E1,8.48E1,1E0,6.85E1,9.15E1,6.31E1,3.59E1,7.92E1,5.19E1,8.78E1,6.06E1,4.78E1,5.89E1,1E0,6E0,3.67E1,5.14E1,8E0,8.85E1,8.13E1,1E0,9.03E1,4.97E1,8E0,9.34E1,4.7357935E-2,4.709722E-4,1.8371124E-2,4.6825367E-3,4.6109967E-2,2.4935633E-3,-2.121354E-2,1.3487513E-2,-1.5225579E-2,-2.1018134E-2,-4.345723E-2,2.3855738E-2,7.068463E-4,-1.0190738E-2,-2.7160244E-2,2.3885954E-3,-1.28818415E-2,1.5204805E-2,3.4025975E-2,-8.212514E-3,1.4672098E-2,1.3295627E-2,4.9997162E-2,4.8608236E-2,2.983359E-2,-2.9938922E-3,-3.3976756E-2,1.5122807E-2,-1.5567339E-3,4.669996E-3,3.575359E-2],"split_indices":[0,3,3,3,0,2,2,10,2,2,2,2,0,2,0,2,2,2,10,3,0,2,3,0,0,10,0,2,3,2,0,0,0,0,0,0,0,0,0,0,0,0,0,0,0,0,0,0,0,0,0,0,0,0,0,0,0,0,0,0,0],"split_type":[0,0,0,0,0,0,0,0,0,0,0,0,0,0,0,0,0,0,0,0,0,0,0,0,0,0,0,0,0,0,0,0,0,0,0,0,0,0,0,0,0,0,0,0,0,0,0,0,0,0,0,0,0,0,0,0,0,0,0,0,0],"sum_hessian":[1.0504424E3,6.8146155E2,3.6898077E2,2.5327275E2,4.2818878E2,1.5120663E2,2.1777415E2,9.334697E1,1.5992578E2,1.2292119E2,3.052676E2,2.9447474E1,1.21759155E2,1.9481702E2,2.2957129E1,7.4927216E1,1.8419756E1,1.0406486E2,5.5860928E1,1.1647338E2,6.447808E0,1.5747504E2,1.4779256E2,8.098727E0,2.1348745E1,3.322547E1,8.853368E1,5.9155018E1,1.35662E2,1.2585147E1,1.0371982E1,3.584965E1,3.9077564E1,4.8665614E0,1.3553194E1,6.943157E1,3.463329E1,4.3930298E1,1.193063E1,3.6238E1,8.023538E1,3.3561952E0,3.0916126E0,8.159949E1,7.587555E1,8.695287E1,6.0839684E1,3.829323E0,4.269404E0,7.3024025E0,1.4046343E1,2.7580547E1,5.6449256E0,5.3194427E1,3.5339256E1,5.1704235E1,7.450781E0,8.015234E1,5.5509663E1,7.890725E0,4.6944213E0],"tree_param":{"num_deleted":"0","num_feature":"15","num_nodes":"61","size_leaf_vector":"1"}},{"base_weights":[1.873272E-2,3.811621E-1,-2.0830166E-1,1.7971961E-1,6.6802824E-1,-6.2186077E-2,-4.0625748E-1,1.1947683E-1,6.962273E-1,9.342571E-1,4.9557018E-1,-1.414312E-1,3.691458E-1,-4.4796723E-1,2.7352378E-1,5.2659813E-2,4.6142942E-1,1.882226E-2,9.400175E-1,7.7716404E-1,5.3193416E-2,4.3298247E-1,5.0695267E-2,-3.876125E-1,-7.430755E-2,4.8978087E-1,-8.793103E-2,-3.2424077E-1,-6.1549395E-1,-8.996106E-2,3.1859703E-2,1.8485106E-4,1.4685693E-2,-1.7376217E-3,3.214549E-2,1.0767629E-2,-9.904682E-3,4.1985873E-2,1.8780557E-2,4.559529E-2,2.493703E-2,1.424735E-2,3.6589943E-2,-9.055153E-3,-4.1312475E-2,3.703185E-4,-1.4999518E-2,2.9097017E-2,1.18864E-2,9.948815E-3,-2.5685608E-2,-1.1794364E-2,-4.502747E-2,-3.751042E-2,-1.8764298E-2,-3.3322617E-2,1.5172984E-2],"categories":[],"categories_nodes":[],"categories_segments":[],"categories_sizes":[],"default_left":[0,0,0,0,0,0,0,0,0,0,0,0,0,0,0,0,0,0,0,0,0,0,0,0,0,0,0,0,0,0,0,0,0,0,0,0,0,0,0,0,0,0,0,0,0,0,0,0,0,0,0,0,0,0,0,0,0],"id":8,"left_children":[1,3,5,7,9,11,13,15,17,19,21,23,25,27,29,31,33,35,37,39,-1,41,-1,43,45,47,49,51,53,55,-1,-1,-1,-1,-1,-1,-1,-1,-1,-1,-1,-1,-1,-1,-1,-1,-1,-1,-1,-1,-1,-1,-1,-1,-1,-1,-1],"loss_changes":[8.644581E1,2.3261532E1,1.865986E1,7.355616E0,7.1838226E0,1.2796402E1,7.8957214E0,4.8950167E0,4.071946E0,2.9650383E0,4.4366245E0,5.188006E0,3.2491608E0,5.162281E0,3.2024174E0,2.7363367E0,6.0930176E0,5.7190967E-1,4.4542694E-1,1.991745E0,0E0,3.2624187E0,0E0,6.777627E0,6.2675176E0,1.8966322E0,2.5832124E0,3.2215834E0,4.691704E0,4.017744E0,0E0,0E0,0E0,0E0,0E0,0E0,0E0,0E0,0E0,0E0,0E0,0E0,0E0,0E0,0E0,0E0,0E0,0E0,0E0,0E0,0E0,0E0,0E0,0E0,0E0,0E0,0E0],"parents":[2147483647,0,0,1,1,2,2,3,3,4,4,5,5,6,6,7,7,8,8,9,9,10,10,11,11,12,12,13,13,14,14,15,15,16,16,17,17,18,18,19,19,21,21,23,23,24,24,25,25,26,26,27,27,28,28,29,29],"right_children":[2,4,6,8,10,12,14,16,18,20,22,24,26,28,30,32,34,36,38,40,-1,42,-1,44,46,48,50,52,54,56,-1,-1,-1,-1,-1,-1,-1,-1,-1,-1,-1,-1,-1,-1,-1,-1,-1,-1,-1,-1,-1,-1,-1,-1,-1,-1,-1],"split_conditions":[4E0,6.81E1,8E0,1E0,2E0,8.01E1,9.04E1,1E0,1.2E1,1E0,1E0,4.66E1,1E0,1E1,1E1,1.6E1,5.03E1,5.66E1,1.5E1,7.39E1,5.3193416E-2,1E0,5.0695267E-2,1E0,7.13E1,8.69E1,1.4E1,8.75E1,5.1E1,1.2E1,3.1859703E-2,1.8485106E-4,1.4685693E-2,-1.7376217E-3,3.214549E-2,1.0767629E-2,-9.904682E-3,4.1985873E-2,1.8780557E-2,4.559529E-2,2.493703E-2,1.424735E-2,3.6589943E-2,-9.055153E-3,-4.1312475E-2,3.703185E-4,-1.4999518E-2,2.9097017E-2,1.18864E-2,9.948815E-3,-2.5685608E-2,-1.1794364E-2,-4.502747E-2,-3.751042E-2,-1.8764298E-2,-3.3322617E-2,1.5172984E-2],"split_indices":[3,2,3,5,3,2,2,10,1,5,4,2,8,3,3,1,2,2,1,2,0,7,0,10,2,2,1,2,2,1,0,0,0,0,0,0,0,0,0,0,0,0,0,0,0,0,0,0,0,0,0,0,0,0,0,0,0],"split_type":[0,0,0,0,0,0,0,0,0,0,0,0,0,0,0,0,0,0,0,0,0,0,0,0,0,0,0,0,0,0,0,0,0,0,0,0,0,0,0,0,0,0,0,0,0,0,0,0,0,0,0,0,0,0,0,0,0],"sum_hessian":[1.0486145E3,4.036167E2,6.449978E2,2.3806778E2,1.6554893E2,3.7184494E2,2.7315286E2,2.143038E2,2.376397E1,6.334459E1,1.0220434E2,3.146998E2,5.7145145E1,2.5768307E2,1.5469799E1,1.8023932E2,3.406449E1,6.5741057E0,1.7189863E1,4.7461277E1,1.5883314E1,9.598197E1,6.2223706E0,6.639955E1,2.4830025E2,4.5155758E1,1.1989389E1,1.4990587E2,1.0777719E2,9.614976E0,5.854824E0,1.5723561E2,2.300371E1,1.4114289E1,1.9950201E1,3.3839443E0,3.1901615E0,1.2943151E1,4.246712E0,1.2218786E1,3.524249E1,8.428531E1,1.1696662E1,5.4204784E1,1.2194771E1,1.9505852E2,5.3241726E1,1.8972326E1,2.6183432E1,7.801578E0,4.1878114E0,1.4592409E2,3.981786E0,3.19762E1,7.5800995E1,3.4216633E0,6.193312E0],"tree_param":{"num_deleted":"0","num_feature":"15","num_nodes":"57","size_leaf_vector":"1"}},{"base_weights":[-7.884712E-3,-2.2174737E-1,3.9657435E-1,1.7792904E-1,-3.5566944E-1,8.005539E-1,1.1267894E-1,-3.4806386E-1,2.53773E-1,-7.1137565E-1,-2.1700113E-1,6.78311E-1,1.192519E0,2.7690348E-1,-1.14324644E-1,-1.4449102E-2,-7.199137E-1,3.1702736E-1,-4.7463754E-1,-6.098085E-1,-1.1961591E0,-1.5698211E-1,-5.435809E-1,7.440813E-1,-2.7249804E-2,7.1159755E-3,5.2773967E-2,3.6393052E-1,1.6647585E-1,-2.0886426E-1,3.36572E-1,-1.78879E-2,1.5681881E-2,-1.2426163E-3,-4.7294643E-2,1.0113803E-2,3.2785874E-2,1.1234292E-2,-3.153665E-2,-2.8957948E-2,-6.9909524E-3,-6.921574E-2,-3.9320815E-2,-7.5130574E-3,8.165144E-3,-6.9032423E-3,-3.0017165E-2,3.376239E-2,8.650654E-3,-2.0789754E-2,1.7097587E-2,2.3399886E-2,8.683167E-3,-1.1879623E-2,1.5781313E-2,-1.1182944E-2,1.3290415E-2,2.0313086E-2,-1.21264085E-2],"categories":[],"categories_nodes":[],"categories_segments":[],"categories_sizes":[],"default_left":[0,0,0,0,0,0,0,0,0,0,0,0,0,0,0,0,0,0,0,0,0,0,0,0,0,0,0,0,0,0,0,0,0,0,0,0,0,0,0,0,0,0,0,0,0,0,0,0,0,0,0,0,0,0,0,0,0,0,0],"id":9,"left_children":[1,3,5,7,9,11,13,15,17,19,21,23,25,27,29,31,33,35,37,39,41,43,45,47,49,-1,-1,51,53,55,57,-1,-1,-1,-1,-1,-1,-1,-1,-1,-1,-1,-1,-1,-1,-1,-1,-1,-1,-1,-1,-1,-1,-1,-1,-1,-1,-1,-1],"loss_changes":[9.0627365E1,3.67455E1,4.1471794E1,6.976646E0,2.518171E1,6.349617E0,8.009172E0,2.7413085E0,7.1302404E0,6.342987E0,7.1869717E0,5.412651E0,4.1660194E0,1.1354733E0,3.9295597E0,2.4115508E0,3.2983136E0,4.308485E0,3.18568E0,5.8716164E0,1.0136337E0,3.54491E0,4.2595882E0,5.4284744E0,2.6569915E0,0E0,0E0,2.105239E0,6.10986E0,2.9801574E0,1.915101E0,0E0,0E0,0E0,0E0,0E0,0E0,0E0,0E0,0E0,0E0,0E0,0E0,0E0,0E0,0E0,0E0,0E0,0E0,0E0,0E0,0E0,0E0,0E0,0E0,0E0,0E0,0E0,0E0],"parents":[2147483647,0,0,1,1,2,2,3,3,4,4,5,5,6,6,7,7,8,8,9,9,10,10,11,11,12,12,13,13,14,14,15,15,16,16,17,17,18,18,19,19,20,20,21,21,22,22,23,23,24,24,27,27,28,28,29,29,30,30],"right_children":[2,4,6,8,10,12,14,16,18,20,22,24,26,28,30,32,34,36,38,40,42,44,46,48,50,-1,-1,52,54,56,58,-1,-1,-1,-1,-1,-1,-1,-1,-1,-1,-1,-1,-1,-1,-1,-1,-1,-1,-1,-1,-1,-1,-1,-1,-1,-1,-1,-1],"split_conditions":[7.38E1,3E0,4E0,3.72E1,4.59E1,1E0,8E0,1.3E1,1E0,1E1,1E1,1E0,1.1E1,1.3E1,9.92E1,2.72E1,2.83E1,1E0,1.1E1,1E0,2.52E1,1E0,5.82E1,1E0,8.17E1,7.1159755E-3,5.2773967E-2,8.27E1,8.11E1,1E0,1E0,-1.78879E-2,1.5681881E-2,-1.2426163E-3,-4.7294643E-2,1.0113803E-2,3.2785874E-2,1.1234292E-2,-3.153665E-2,-2.8957948E-2,-6.9909524E-3,-6.921574E-2,-3.9320815E-2,-7.5130574E-3,8.165144E-3,-6.9032423E-3,-3.0017165E-2,3.376239E-2,8.650654E-3,-2.0789754E-2,1.7097587E-2,2.3399886E-2,8.683167E-3,-1.1879623E-2,1.5781313E-2,-1.1182944E-2,1.3290415E-2,2.0313086E-2,-1.21264085E-2],"split_indices":[0,3,3,0,0,5,3,1,9,3,3,12,1,1,0,0,0,5,1,8,0,5,0,7,0,0,0,0,0,11,7,0,0,0,0,0,0,0,0,0,0,0,0,0,0,0,0,0,0,0,0,0,0,0,0,0,0,0,0],"split_type":[0,0,0,0,0,0,0,0,0,0,0,0,0,0,0,0,0,0,0,0,0,0,0,0,0,0,0,0,0,0,0,0,0,0,0,0,0,0,0,0,0,0,0,0,0,0,0,0,0,0,0,0,0,0,0,0,0,0,0],"sum_hessian":[1.0457144E3,6.843223E2,3.6139203E2,1.7166814E2,5.126542E2,1.4840033E2,2.1299168E2,2.1181442E1,1.504867E2,1.4263716E2,3.7001703E2,1.15202446E2,3.3197887E1,1.2345732E2,8.953436E1,1.1712303E1,9.469139E0,1.3898239E2,1.1504301E1,1.1979646E2,2.2840704E1,3.1382312E2,5.619391E1,1.0532935E2,9.873095E0,3.9556928E0,2.9242195E1,6.776034E1,5.5696987E1,7.445925E1,1.507511E1,5.6244693E0,6.0878344E0,4.232208E0,5.2369313E0,1.2457745E2,1.4404931E1,3.4067302E0,8.097571E0,9.437194E1,2.5424522E1,4.483684E0,1.835702E1,2.8956937E2,2.4253754E1,2.0771963E1,3.5421944E1,8.805151E1,1.7277838E1,4.6708345E0,5.20226E0,2.5855085E1,4.1905254E1,1.8268583E1,3.7428402E1,6.628152E1,8.177735E0,1.2054366E1,3.020744E0],"tree_param":{"num_deleted":"0","num_feature":"15","num_nodes":"59","size_leaf_vector":"1"}},{"base_weights":[1.2588E-2,-2.1143287E-1,3.4170428E-1,1.971861E-1,-3.469962E-1,6.502456E-1,2.1334965E-2,2.5475594E-1,-4.8934567E-1,-6.0200095E-1,-1.8026362E-1,5.2728105E-1,1.111118E0,2.2698748E-1,-1.732667E-1,1.3109699E-1,5.561806E-1,1.4316163E-2,-8.86492E-1,-4.406638E-1,-1.0633157E0,-1.4222872E-1,-1.0107299E0,4.5361784E-1,8.5242194E-1,2.7566963E-1,1.2554703E0,4.5660716E-1,4.2935576E-2,-2.3366387E-1,2.9004704E-2,-4.171764E-2,7.5872988E-3,2.8723788E-2,7.37973E-3,-1.2942639E-2,-4.8112553E-2,-2.8098185E-2,-7.3372093E-3,-1.1883623E-2,-4.7099248E-2,-1.2019671E-2,1.3302389E-3,-1.4975226E-3,-5.9709094E-2,1.9850072E-2,-6.0676746E-3,2.9194977E-2,4.8815288E-2,1.9436518E-3,1.798427E-2,1.4848143E-2,5.2906554E-2,1.51839275E-2,3.578463E-2,-1.3180418E-2,1.2699681E-2,-1.6134046E-2,1.7813483E-3],"categories":[],"categories_nodes":[],"categories_segments":[],"categories_sizes":[],"default_left":[0,0,0,0,0,0,0,0,0,0,0,0,0,0,0,0,0,0,0,0,0,0,0,0,0,0,0,0,0,0,0,0,0,0,0,0,0,0,0,0,0,0,0,0,0,0,0,0,0,0,0,0,0,0,0,0,0,0,0],"id":10,"left_children":[1,3,5,7,9,11,13,15,17,19,21,23,25,27,29,31,33,-1,35,37,39,41,43,45,47,49,51,53,55,57,-1,-1,-1,-1,-1,-1,-1,-1,-1,-1,-1,-1,-1,-1,-1,-1,-1,-1,-1,-1,-1,-1,-1,-1,-1,-1,-1,-1,-1],"loss_changes":[7.68353E1,3.4418243E1,4.1704536E1,6.25531E0,1.970422E1,1.15961E1,8.367155E0,5.2859697E0,4.470564E0,1.32111435E1,8.801252E0,3.7230453E0,5.004936E0,4.274429E0,6.001542E0,7.2998962E0,2.3659592E0,0E0,1.1584778E0,9.156363E0,3.7543297E0,7.562818E0,5.685322E0,3.7406712E0,4.8715973E-1,2.8695846E-1,1.7402611E0,1.1817455E0,5.984681E0,4.808024E0,0E0,0E0,0E0,0E0,0E0,0E0,0E0,0E0,0E0,0E0,0E0,0E0,0E0,0E0,0E0,0E0,0E0,0E0,0E0,0E0,0E0,0E0,0E0,0E0,0E0,0E0,0E0,0E0,0E0],"parents":[2147483647,0,0,1,1,2,2,3,3,4,4,5,5,6,6,7,7,8,8,9,9,10,10,11,11,12,12,13,13,14,14,15,15,16,16,18,18,19,19,20,20,21,21,22,22,23,23,24,24,25,25,26,26,27,27,28,28,29,29],"right_children":[2,4,6,8,10,12,14,16,18,20,22,24,26,28,30,32,34,-1,36,38,40,42,44,46,48,50,52,54,56,58,-1,-1,-1,-1,-1,-1,-1,-1,-1,-1,-1,-1,-1,-1,-1,-1,-1,-1,-1,-1,-1,-1,-1,-1,-1,-1,-1,-1,-1],"split_conditions":[7.06E1,3E0,5E0,1E0,4.97E1,1E0,8E0,7.21E1,1.1E1,9E0,7E1,7.9E1,1.2E1,1.2E1,9.04E1,2.22E1,8.71E1,1.4316163E-2,5.89E1,6.02E1,9E0,6.31E1,5.03E1,7.66E1,1.5E1,3E0,5E1,8.28E1,8.17E1,8.68E1,2.9004704E-2,-4.171764E-2,7.5872988E-3,2.8723788E-2,7.37973E-3,-1.2942639E-2,-4.8112553E-2,-2.8098185E-2,-7.3372093E-3,-1.1883623E-2,-4.7099248E-2,-1.2019671E-2,1.3302389E-3,-1.4975226E-3,-5.9709094E-2,1.9850072E-2,-6.0676746E-3,2.9194977E-2,4.8815288E-2,1.9436518E-3,1.798427E-2,1.4848143E-2,5.2906554E-2,1.51839275E-2,3.578463E-2,-1.3180418E-2,1.2699681E-2,-1.6134046E-2,1.7813483E-3],"split_indices":[0,3,3,9,0,5,3,2,1,3,0,2,1,1,2,0,2,0,2,2,1,2,2,2,1,3,2,2,0,0,0,0,0,0,0,0,0,0,0,0,0,0,0,0,0,0,0,0,0,0,0,0,0,0,0,0,0,0,0],"split_type":[0,0,0,0,0,0,0,0,0,0,0,0,0,0,0,0,0,0,0,0,0,0,0,0,0,0,0,0,0,0,0,0,0,0,0,0,0,0,0,0,0,0,0,0,0,0,0,0,0,0,0,0,0,0,0,0,0,0,0],"sum_hessian":[1.0401525E3,6.191029E2,4.2104962E2,1.5411383E2,4.6498904E2,2.1395966E2,2.0708995E2,1.4277057E2,1.1343254E1,1.8279994E2,2.8218912E2,1.7058914E2,4.337051E1,1.00605225E2,1.06484726E2,1.02255394E2,4.0515182E1,3.65171E0,7.6915436E0,1.3688274E2,4.5917206E1,2.7095096E2,1.1238139E1,1.4103232E2,2.955683E1,6.818385E0,3.6552124E1,4.4102688E1,5.6502537E1,1.0047016E2,6.0145693E0,4.06152E0,9.819387E1,2.7572212E1,1.2942969E1,3.4949093E0,4.1966343E0,6.698262E1,6.990011E1,6.4214826E0,3.9495724E1,1.4209157E2,1.288594E2,4.079045E0,7.1590943E0,1.3192087E2,9.111456E0,2.441057E1,5.1462593E0,3.51233E0,3.3060553E0,3.0421286E0,3.3509995E1,3.9095684E1,5.0070047E0,2.3892E1,3.261054E1,6.2126236E1,3.834392E1],"tree_param":{"num_deleted":"0","num_feature":"15","num_nodes":"59","size_leaf_vector":"1"}},{"base_weights":[3.5035124E-3,-2.0312741E-1,3.977497E-1,-1.01996265E-1,-6.334963E-1,7.679768E-1,1.4913547E-1,-5.54004E-1,-1.2434032E-2,-1.0596267E0,-4.2575645E-1,1.3125281E-1,8.6489654E-1,-1.77345E-2,3.2938597E-1,-7.831042E-1,3.390744E-2,2.468058E-1,-1.2955782E-1,-7.7165735E-1,-1.4194037E0,-9.0725285E-1,-2.8391317E-1,-1.3508052E-1,2.9930443E-2,5.167193E-1,9.392607E-1,-2.0244887E-1,2.4697159E-1,2.4348743E-1,9.39226E-1,-4.670407E-2,-2.527755E-2,1.1572167E-2,-3.370266E-2,3.543412E-3,2.2113623E-2,-9.691217E-3,1.3639776E-3,2.3605477E-3,-4.3411396E-2,-6.3135415E-2,-2.6362505E-2,-2.5112381E-2,-5.5898853E-2,-8.237971E-3,-5.5862214E-2,1.3434986E-2,-2.0617368E-2,-1.7434197E-2,3.0165834E-2,3.353388E-2,4.5833386E-2,-3.647103E-3,-4.0633634E-2,2.0965578E-2,-3.5688954E-3,1.3699992E-2,-2.2853946E-3,1.8151E-2,4.29907E-2],"categories":[],"categories_nodes":[],"categories_segments":[],"categories_sizes":[],"default_left":[0,0,0,0,0,0,0,0,0,0,0,0,0,0,0,0,0,0,0,0,0,0,0,0,0,0,0,0,0,0,0,0,0,0,0,0,0,0,0,0,0,0,0,0,0,0,0,0,0,0,0,0,0,0,0,0,0,0,0,0,0],"id":11,"left_children":[1,3,5,7,9,11,13,15,17,19,21,23,25,27,29,31,33,35,37,39,41,43,45,47,-1,49,51,53,55,57,59,-1,-1,-1,-1,-1,-1,-1,-1,-1,-1,-1,-1,-1,-1,-1,-1,-1,-1,-1,-1,-1,-1,-1,-1,-1,-1,-1,-1,-1,-1],"loss_changes":[8.450849E1,2.9559975E1,3.2720528E1,2.2353178E1,1.0996773E1,8.715698E0,6.4624605E0,1.2326431E1,1.4060211E1,3.2261162E0,5.7941513E0,3.4008145E0,2.7251053E0,5.5465827E0,5.1796646E0,3.0839424E0,6.1904325E0,6.9295855E0,5.891149E0,6.6704874E0,1.0572624E0,1.8223972E0,5.776021E0,2.8372803E0,0E0,5.766837E0,1.1437759E0,5.949812E0,4.3940935E0,2.7534175E0,3.279972E-1,0E0,0E0,0E0,0E0,0E0,0E0,0E0,0E0,0E0,0E0,0E0,0E0,0E0,0E0,0E0,0E0,0E0,0E0,0E0,0E0,0E0,0E0,0E0,0E0,0E0,0E0,0E0,0E0,0E0,0E0],"parents":[2147483647,0,0,1,1,2,2,3,3,4,4,5,5,6,6,7,7,8,8,9,9,10,10,11,11,12,12,13,13,14,14,15,15,16,16,17,17,18,18,19,19,20,20,21,21,22,22,23,23,25,25,26,26,27,27,28,28,29,29,30,30],"right_children":[2,4,6,8,10,12,14,16,18,20,22,24,26,28,30,32,34,36,38,40,42,44,46,48,-1,50,52,54,56,58,60,-1,-1,-1,-1,-1,-1,-1,-1,-1,-1,-1,-1,-1,-1,-1,-1,-1,-1,-1,-1,-1,-1,-1,-1,-1,-1,-1,-1,-1,-1],"split_conditions":[7.38E1,9E0,4E0,3.89E1,4.74E1,4.37E1,8.68E1,7.2E1,3E0,3.99E1,4.66E1,1.5E1,1E1,6.69E1,8.4E1,2.22E1,1E0,6.85E1,6.22E1,1E1,1E0,6.9E1,1E0,2E0,2.9930443E-2,7.8E1,7.88E1,6.4E1,7.7E1,7.13E1,8.94E1,-4.670407E-2,-2.527755E-2,1.1572167E-2,-3.370266E-2,3.543412E-3,2.2113623E-2,-9.691217E-3,1.3639776E-3,2.3605477E-3,-4.3411396E-2,-6.3135415E-2,-2.6362505E-2,-2.5112381E-2,-5.5898853E-2,-8.237971E-3,-5.5862214E-2,1.3434986E-2,-2.0617368E-2,-1.7434197E-2,3.0165834E-2,3.353388E-2,4.5833386E-2,-3.647103E-3,-4.0633634E-2,2.0965578E-2,-3.5688954E-3,1.3699992E-2,-2.2853946E-3,1.8151E-2,4.29907E-2],"split_indices":[0,3,3,0,0,2,0,2,3,0,2,1,1,2,2,0,10,2,0,3,6,0,12,3,0,0,2,2,2,2,0,0,0,0,0,0,0,0,0,0,0,0,0,0,0,0,0,0,0,0,0,0,0,0,0,0,0,0,0,0,0],"split_type":[0,0,0,0,0,0,0,0,0,0,0,0,0,0,0,0,0,0,0,0,0,0,0,0,0,0,0,0,0,0,0,0,0,0,0,0,0,0,0,0,0,0,0,0,0,0,0,0,0,0,0,0,0,0,0,0,0,0,0,0,0],"sum_hessian":[1.0353875E3,6.796542E2,3.5573322E2,5.5133466E2,1.2831955E2,1.4207353E2,2.1365967E2,9.031948E1,4.6101517E2,4.0710537E1,8.760902E1,1.907997E1,1.2299356E2,1.1141601E2,1.0224366E2,6.475387E1,2.556561E1,1.4312265E2,3.1789252E2,2.4358532E1,1.6352005E1,1.8707848E1,6.890117E1,1.3872806E1,5.2071633E0,2.304485E1,9.9948715E1,6.5761925E1,4.5654087E1,9.084677E1,1.1396889E1,1.6376177E1,4.837769E1,2.0315714E1,5.249897E0,9.519574E1,4.7926907E1,1.8795435E2,1.2993819E2,6.898656E0,1.7459875E1,1.263436E1,3.7176437E0,1.3368158E1,5.339689E0,6.549685E1,3.4043257E0,6.250437E0,7.6223693E0,4.4311156E0,1.8613733E1,7.054502E1,2.9403696E1,5.882659E1,6.9353294E0,2.4717358E1,2.093673E1,6.823404E1,2.2612728E1,3.4365442E0,7.960344E0],"tree_param":{"num_deleted":"0","num_feature":"15","num_nodes":"61","size_leaf_vector":"1"}},{"base_weights":[-2.4334837E-2,-2.3400582E-1,3.683294E-1,3.8481962E-2,-3.8830063E-1,7.342605E-1,1.2644298E-1,-8.096301E-2,2.596797E-1,-6.5187633E-1,-2.385653E-1,5.408861E-1,9.301847E-1,2.738708E-1,-7.598934E-2,-1.7260282E-1,3.5526726E-1,3.320771E-1,-3.375184E-2,-5.373764E-1,-1.1497554E0,-1.6814399E-1,-5.486823E-1,6.1574024E-1,9.2217796E-2,5.7915455E-1,4.212954E-2,-3.637555E-2,3.7198684E-1,-1.3568826E-1,4.1317724E-2,1.169884E-2,-9.98997E-3,-5.845728E-3,2.5942462E-2,2.552197E-2,5.720901E-3,-2.5468122E-2,-2.0995252E-3,-6.459026E-2,-3.7545603E-2,-8.47696E-3,1.4241847E-2,-2.4993412E-2,1.48541955E-2,2.7826088E-2,1.1542368E-2,2.3418447E-2,-3.392669E-2,6.8470375E-3,3.6838114E-2,4.017415E-3,-2.17929E-2,2.3702078E-2,1.0959154E-2,-7.929233E-3,3.379486E-2],"categories":[],"categories_nodes":[],"categories_segments":[],"categories_sizes":[],"default_left":[0,0,0,0,0,0,0,0,0,0,0,0,0,0,0,0,0,0,0,0,0,0,0,0,0,0,0,0,0,0,0,0,0,0,0,0,0,0,0,0,0,0,0,0,0,0,0,0,0,0,0,0,0,0,0,0,0],"id":12,"left_children":[1,3,5,7,9,11,13,15,17,19,21,23,25,27,29,31,33,35,-1,37,39,41,43,45,47,49,-1,51,53,55,-1,-1,-1,-1,-1,-1,-1,-1,-1,-1,-1,-1,-1,-1,-1,-1,-1,-1,-1,-1,-1,-1,-1,-1,-1,-1,-1],"loss_changes":[8.5784195E1,2.8570042E1,3.2013237E1,6.5325794E0,1.6962196E1,4.9579163E0,6.574076E0,6.4894047E0,7.203034E0,8.306854E0,5.9827023E0,2.4597855E0,2.4227448E0,3.8876467E0,6.3176713E0,4.864884E0,4.2480826E0,4.654274E0,0E0,6.1872215E0,1.271759E0,5.310964E0,3.8077974E0,1.4736881E0,6.011639E0,2.693368E0,0E0,2.2451773E0,1.9297647E0,5.65193E0,0E0,0E0,0E0,0E0,0E0,0E0,0E0,0E0,0E0,0E0,0E0,0E0,0E0,0E0,0E0,0E0,0E0,0E0,0E0,0E0,0E0,0E0,0E0,0E0,0E0,0E0,0E0],"parents":[2147483647,0,0,1,1,2,2,3,3,4,4,5,5,6,6,7,7,8,8,9,9,10,10,11,11,12,12,13,13,14,14,15,15,16,16,17,17,19,19,20,20,21,21,22,22,23,23,24,24,25,25,27,27,28,28,29,29],"right_children":[2,4,6,8,10,12,14,16,18,20,22,24,26,28,30,32,34,36,-1,38,40,42,44,46,48,50,-1,52,54,56,-1,-1,-1,-1,-1,-1,-1,-1,-1,-1,-1,-1,-1,-1,-1,-1,-1,-1,-1,-1,-1,-1,-1,-1,-1,-1,-1],"split_conditions":[7.34E1,4E0,4E0,6.85E1,4.97E1,6.73E1,8E0,1E0,1E0,1E1,1E1,1E0,7.92E1,5.14E1,1E0,4.01E1,4.7E1,2E0,-3.375184E-2,7.98E1,5.14E1,1E0,8.65E1,1E0,9.28E1,8E1,4.212954E-2,1E0,6.11E1,8.99E1,4.1317724E-2,1.169884E-2,-9.98997E-3,-5.845728E-3,2.5942462E-2,2.552197E-2,5.720901E-3,-2.5468122E-2,-2.0995252E-3,-6.459026E-2,-3.7545603E-2,-8.47696E-3,1.4241847E-2,-2.4993412E-2,1.48541955E-2,2.7826088E-2,1.1542368E-2,2.3418447E-2,-3.392669E-2,6.8470375E-3,3.6838114E-2,4.017415E-3,-2.17929E-2,2.3702078E-2,1.0959154E-2,-7.929233E-3,3.379486E-2],"split_indices":[0,3,3,2,0,2,3,10,9,3,3,7,0,2,4,2,2,3,0,2,2,5,2,6,0,2,0,10,2,2,0,0,0,0,0,0,0,0,0,0,0,0,0,0,0,0,0,0,0,0,0,0,0,0,0,0,0],"split_type":[0,0,0,0,0,0,0,0,0,0,0,0,0,0,0,0,0,0,0,0,0,0,0,0,0,0,0,0,0,0,0,0,0,0,0,0,0,0,0,0,0,0,0,0,0,0,0,0,0,0,0,0,0,0,0,0,0],"sum_hessian":[1.0399048E3,6.7818066E2,3.6172418E2,2.4545418E2,4.3272647E2,1.431413E2,2.1858289E2,1.5979836E2,8.565583E1,1.5555428E2,2.771722E2,7.3932076E1,6.920922E1,1.26269905E2,9.231298E1,1.325563E2,2.7242052E1,8.10381E1,4.6177263E0,1.2815996E2,2.7394312E1,2.271363E2,5.003589E1,6.304201E1,1.089006E1,1.9445215E1,4.9764004E1,3.0489693E1,9.578021E1,8.843003E1,3.8829534E0,1.8462835E1,1.1409347E2,1.0239136E1,1.7002916E1,3.0042072E1,5.099603E1,1.06110695E2,2.2049269E1,6.477755E0,2.0916557E1,2.101781E2,1.6958214E1,4.650726E1,3.5286286E0,4.9761795E1,1.3280217E1,7.390879E0,3.4991817E0,9.548596E0,9.896619E0,2.4657434E1,5.832259E0,2.7914099E1,6.786611E1,8.387792E1,4.552105E0],"tree_param":{"num_deleted":"0","num_feature":"15","num_nodes":"57","size_leaf_vector":"1"}},{"base_weights":[-5.7302937E-3,3.2712525E-1,-2.0598993E-1,1.158133E-1,7.5040305E-1,-6.087999E-1,-4.8766367E-2,-2.9791448E-1,1.8262053E-1,6.3499E-1,1.1285082E0,-4.588977E-2,-5.446237E-1,5.061106E-2,-2.942036E-1,3.4337617E-2,-7.6321894E-1,1.0073619E-1,5.251055E-1,6.889099E-1,3.823165E-2,1.4775344E-2,4.9442623E-2,-4.6588725E-1,-8.8943046E-1,-2.7521279E-2,3.1753635E-1,-3.484232E-1,3.370558E-1,-2.587751E-3,1.4833231E-2,-1.0619114E-2,-5.129835E-2,8.100266E-3,-4.4354787E-3,4.1552603E-2,6.6719246E-3,3.6795188E-2,2.1092065E-2,-1.9638479E-2,3.3737775E-2,-2.0685265E-2,-1.0319346E-2,-4.0968195E-2,2.1989152E-3,-2.759851E-3,1.5802315E-2,1.0629309E-2,4.6053465E-2,-1.2174468E-2,-4.0855E-2,2.7058061E-2,1.2113621E-3],"categories":[],"categories_nodes":[],"categories_segments":[],"categories_sizes":[],"default_left":[0,0,0,0,0,0,0,0,0,0,0,0,0,0,0,0,0,0,0,0,0,0,0,0,0,0,0,0,0,0,0,0,0,0,0,0,0,0,0,0,0,0,0,0,0,0,0,0,0,0,0,0,0],"id":13,"left_children":[1,3,5,7,9,11,13,15,17,19,21,-1,23,25,27,29,31,33,35,37,39,-1,-1,41,43,45,47,49,51,-1,-1,-1,-1,-1,-1,-1,-1,-1,-1,-1,-1,-1,-1,-1,-1,-1,-1,-1,-1,-1,-1,-1,-1],"loss_changes":[6.945306E1,3.4921436E1,4.116896E1,7.3030233E0,4.9629364E0,5.6829605E0,1.1453875E1,5.7216024E0,6.2966065E0,3.2557373E0,1.9234962E0,0E0,4.0653343E0,6.988541E0,4.7486715E0,7.7209485E-1,3.637064E0,3.9844244E0,7.8243656E0,3.0045738E0,4.4669604E0,0E0,0E0,1.3201122E0,3.8205853E0,4.58087E0,2.9707823E0,3.3984995E0,1.1467726E0,0E0,0E0,0E0,0E0,0E0,0E0,0E0,0E0,0E0,0E0,0E0,0E0,0E0,0E0,0E0,0E0,0E0,0E0,0E0,0E0,0E0,0E0,0E0,0E0],"parents":[2147483647,0,0,1,1,2,2,3,3,4,4,5,5,6,6,7,7,8,8,9,9,10,10,12,12,13,13,14,14,15,15,16,16,17,17,18,18,19,19,20,20,23,23,24,24,25,25,26,26,27,27,28,28],"right_children":[2,4,6,8,10,12,14,16,18,20,22,-1,24,26,28,30,32,34,36,38,40,-1,-1,42,44,46,48,50,52,-1,-1,-1,-1,-1,-1,-1,-1,-1,-1,-1,-1,-1,-1,-1,-1,-1,-1,-1,-1,-1,-1,-1,-1],"split_conditions":[4E0,7.57E1,5.22E1,3.85E1,1E0,2.22E1,9E0,3.26E1,1E0,1E0,1.2E1,-4.588977E-2,1E1,8.65E1,9.85E1,1E0,1.3E1,3E0,2E0,2E0,1.4E1,1.4775344E-2,4.9442623E-2,1E0,4.91E1,1E0,1E0,1E0,1.1E1,-2.587751E-3,1.4833231E-2,-1.0619114E-2,-5.129835E-2,8.100266E-3,-4.4354787E-3,4.1552603E-2,6.6719246E-3,3.6795188E-2,2.1092065E-2,-1.9638479E-2,3.3737775E-2,-2.0685265E-2,-1.0319346E-2,-4.0968195E-2,2.1989152E-3,-2.759851E-3,1.5802315E-2,1.0629309E-2,4.6053465E-2,-1.2174468E-2,-4.0855E-2,2.7058061E-2,1.2113621E-3],"split_indices":[3,0,0,0,5,0,3,0,10,12,1,0,3,0,0,10,1,3,3,3,1,0,0,8,0,5,13,13,1,0,0,0,0,0,0,0,0,0,0,0,0,0,0,0,0,0,0,0,0,0,0,0,0],"split_type":[0,0,0,0,0,0,0,0,0,0,0,0,0,0,0,0,0,0,0,0,0,0,0,0,0,0,0,0,0,0,0,0,0,0,0,0,0,0,0,0,0,0,0,0,0,0,0,0,0,0,0,0,0],"sum_hessian":[1.0399279E3,3.9040103E2,6.4952686E2,2.6125095E2,1.2915007E2,1.8154153E2,4.679853E2,3.583994E1,2.2541101E2,1.0100012E2,2.8149944E1,1.753604E1,1.640055E2,3.3367444E2,1.3431084E2,2.144983E1,1.4390112E1,1.8296117E2,4.2449844E1,9.248889E1,8.511227E0,4.0437865E0,2.4106157E1,1.3543105E2,2.8574455E1,2.5881345E2,7.486101E1,1.24099815E2,1.0211024E1,1.719655E1,4.2532783E0,8.1187725E0,6.271339E0,1.2357603E2,5.9385143E1,1.666204E1,2.5787802E1,3.614237E1,5.6346523E1,5.3713765E0,3.13985E0,1.0745741E2,2.7973629E1,2.4931953E1,3.6425023E0,2.3644385E2,2.2369598E1,7.172356E1,3.1374497E0,1.1783674E2,6.263078E0,4.275631E0,5.9353933E0],"tree_param":{"num_deleted":"0","num_feature":"15","num_nodes":"53","size_leaf_vector":"1"}},{"base_weights":[-2.7738472E-3,-1.9174957E-1,3.474401E-1,8.431923E-2,-3.48658E-1,6.71192E-1,1.3300619E-1,2.8337792E-1,-3.1167004E-2,-6.5219784E-1,-2.2277373E-1,5.618258E-1,4.2618774E-2,2.6199287E-1,-5.5810373E-2,2.1594599E-1,3.445661E-2,-3.0689025E-1,2.7882854E-2,-5.022002E-1,-9.508254E-1,-1.23320855E-1,-3.6115745E-1,6.177976E-1,2.0414521E-1,6.276471E-1,2.16582E-1,-1.00822374E-1,3.64221E-2,4.718481E-3,1.7385257E-2,-2.6225828E-2,-2.0024477E-4,5.7757986E-3,-7.650943E-3,-4.303861E-2,-1.6794154E-2,-5.666113E-2,-3.292056E-2,-6.4360523E-3,1.3517652E-2,-1.8489722E-2,7.033882E-3,2.7499147E-2,1.3380135E-2,-1.238868E-2,1.5825925E-2,1.3510959E-2,4.649932E-2,-3.0915784E-3,1.1409359E-2,-5.7144077E-3,1.1439584E-2],"categories":[],"categories_nodes":[],"categories_segments":[],"categories_sizes":[],"default_left":[0,0,0,0,0,0,0,0,0,0,0,0,0,0,0,0,0,0,0,0,0,0,0,0,0,0,0,0,0,0,0,0,0,0,0,0,0,0,0,0,0,0,0,0,0,0,0,0,0,0,0,0,0],"id":14,"left_children":[1,3,5,7,9,11,13,15,17,19,21,23,-1,25,27,29,-1,31,33,35,37,39,41,43,45,47,49,51,-1,-1,-1,-1,-1,-1,-1,-1,-1,-1,-1,-1,-1,-1,-1,-1,-1,-1,-1,-1,-1,-1,-1,-1,-1],"loss_changes":[6.9028076E1,2.9374504E1,2.5288872E1,5.6710534E0,1.6366993E1,5.6713257E0,5.4007316E0,3.3427238E0,2.5610766E0,5.1736565E0,4.1802588E0,2.1951141E0,0E0,2.0487156E0,4.0319824E0,1.7145424E0,0E0,2.9169173E0,3.3480718E0,3.616167E0,1.2782898E0,3.1768308E0,7.0211563E0,1.7393799E0,1.813375E0,1.7790136E0,2.4139943E0,1.4628899E0,0E0,0E0,0E0,0E0,0E0,0E0,0E0,0E0,0E0,0E0,0E0,0E0,0E0,0E0,0E0,0E0,0E0,0E0,0E0,0E0,0E0,0E0,0E0,0E0,0E0],"parents":[2147483647,0,0,1,1,2,2,3,3,4,4,5,5,6,6,7,7,8,8,9,9,10,10,11,11,13,13,14,14,15,15,17,17,18,18,19,19,20,20,21,21,22,22,23,23,24,24,25,25,26,26,27,27],"right_children":[2,4,6,8,10,12,14,16,18,20,22,24,-1,26,28,30,-1,32,34,36,38,40,42,44,46,48,50,52,-1,-1,-1,-1,-1,-1,-1,-1,-1,-1,-1,-1,-1,-1,-1,-1,-1,-1,-1,-1,-1,-1,-1,-1,-1],"split_conditions":[7.34E1,4E0,4E0,2E0,4.61E1,1E0,8E0,1E0,3.92E1,9E0,8E0,1E0,4.2618774E-2,7.51E1,1E0,6.29E1,3.445661E-2,3E0,6.48E1,1.81E1,2.52E1,1E0,1E0,1E0,7.89E1,7.47E1,7.94E1,1E0,3.64221E-2,4.718481E-3,1.7385257E-2,-2.6225828E-2,-2.0024477E-4,5.7757986E-3,-7.650943E-3,-4.303861E-2,-1.6794154E-2,-5.666113E-2,-3.292056E-2,-6.4360523E-3,1.3517652E-2,-1.8489722E-2,7.033882E-3,2.7499147E-2,1.3380135E-2,-1.238868E-2,1.5825925E-2,1.3510959E-2,4.649932E-2,-3.0915784E-3,1.1409359E-2,-5.7144077E-3,1.1439584E-2],"split_indices":[0,3,3,3,0,5,3,5,0,3,3,7,0,0,4,0,0,3,0,0,0,5,6,6,0,0,0,11,0,0,0,0,0,0,0,0,0,0,0,0,0,0,0,0,0,0,0,0,0,0,0,0,0],"split_type":[0,0,0,0,0,0,0,0,0,0,0,0,0,0,0,0,0,0,0,0,0,0,0,0,0,0,0,0,0,0,0,0,0,0,0,0,0,0,0,0,0,0,0,0,0,0,0,0,0,0,0,0,0],"sum_hessian":[1.0409982E3,6.76442E2,3.6455618E2,2.4530629E2,4.311357E2,1.444045E2,2.2015169E2,8.953127E1,1.5577501E2,1.2516039E2,3.059753E2,1.1494544E2,2.945905E1,1.3056856E2,8.9583145E1,8.1408066E1,8.123209E0,2.6736473E1,1.2903853E2,8.509814E1,4.0062252E1,1.7913014E2,1.2684518E2,9.8763214E1,1.6182228E1,1.3007654E1,1.175609E2,8.645198E1,3.131159E0,5.7281845E1,2.4126223E1,1.186149E1,1.4874983E1,8.447139E1,4.456715E1,9.165973E0,7.593217E1,6.455942E0,3.3606308E1,1.6623744E2,1.2892708E1,1.0686765E2,1.9977524E1,7.812124E1,2.0641977E1,4.225797E0,1.1956431E1,9.493736E0,3.513918E0,2.2238976E1,9.532192E1,7.854642E1,7.905568E0],"tree_param":{"num_deleted":"0","num_feature":"15","num_nodes":"53","size_leaf_vector":"1"}},{"base_weights":[-1.0306175E-3,-2.0477925E-1,3.094082E-1,-5.268858E-1,-1.3120368E-1,2.2085413E-1,6.7136437E-1,-6.673462E-1,-1.2486667E-1,-2.830161E-1,7.2833467E-3,2.0397814E-2,3.1459874E-1,1.8615624E-1,8.525578E-1,-5.68191E-1,-1.2566775E0,1.15813926E-1,-4.578184E-2,-1.2511685E-1,-6.157363E-1,4.087058E-2,-1.1192267E0,6.911319E-2,-2.2884347E-2,1.18719265E-1,4.2527133E-1,-1.0266172E-1,4.6092026E-2,5.2335316E-1,4.162564E-2,-2.5132222E-2,1.2574996E-3,-6.328096E-2,-1.2092899E-2,1.2305534E-2,-8.421457E-3,3.7769273E-2,-6.505507E-3,-2.093172E-2,-6.1704844E-2,-1.4160072E-2,3.756353E-3,-6.0627937E-2,-1.6978543E-2,-3.9291056E-4,1.5599605E-2,1.3503002E-2,-1.7618971E-2,2.5812289E-2,1.1671557E-2,-1.766054E-2,7.2438973E-3,1.14046E-2,4.6932735E-2],"categories":[],"categories_nodes":[],"categories_segments":[],"categories_sizes":[],"default_left":[0,0,0,0,0,0,0,0,0,0,0,0,0,0,0,0,0,0,0,0,0,0,0,0,0,0,0,0,0,0,0,0,0,0,0,0,0,0,0,0,0,0,0,0,0,0,0,0,0,0,0,0,0,0,0],"id":15,"left_children":[1,3,5,7,9,11,13,15,17,19,21,23,25,27,29,31,33,35,-1,37,39,41,43,45,-1,47,49,51,-1,53,-1,-1,-1,-1,-1,-1,-1,-1,-1,-1,-1,-1,-1,-1,-1,-1,-1,-1,-1,-1,-1,-1,-1,-1,-1],"loss_changes":[6.586372E1,1.4830006E1,1.3077305E1,6.4990387E0,1.0789691E1,6.251293E0,6.9287605E0,4.3205223E0,7.841705E0,1.2784008E1,1.0235297E1,3.13315E0,4.8667526E0,6.591654E0,3.0724564E0,2.7438965E0,3.1181488E0,1.7125772E0,0E0,6.864982E0,5.9216766E0,5.5303183E0,1.5140495E0,2.5348744E0,0E0,1.0340334E1,4.0572453E0,1.8854963E0,0E0,3.265953E0,0E0,0E0,0E0,0E0,0E0,0E0,0E0,0E0,0E0,0E0,0E0,0E0,0E0,0E0,0E0,0E0,0E0,0E0,0E0,0E0,0E0,0E0,0E0,0E0,0E0],"parents":[2147483647,0,0,1,1,2,2,3,3,4,4,5,5,6,6,7,7,8,8,9,9,10,10,11,11,12,12,13,13,14,14,15,15,16,16,17,17,19,19,20,20,21,21,22,22,23,23,25,25,26,26,27,27,29,29],"right_children":[2,4,6,8,10,12,14,16,18,20,22,24,26,28,30,32,34,36,-1,38,40,42,44,46,-1,48,50,52,-1,54,-1,-1,-1,-1,-1,-1,-1,-1,-1,-1,-1,-1,-1,-1,-1,-1,-1,-1,-1,-1,-1,-1,-1,-1,-1],"split_conditions":[7.06E1,3.89E1,7.9E1,7.26E1,6.01E1,5.2E1,7.75E1,1E0,1E0,5.35E1,7E1,5.1E1,7.94E1,1E0,1.2E1,1E0,3.2E1,8.69E1,-4.578184E-2,3.99E1,5.99E1,4.44E1,6.91E1,4.78E1,-2.2884347E-2,7.66E1,8.6E1,8.54E1,4.6092026E-2,9.92E1,4.162564E-2,-2.5132222E-2,1.2574996E-3,-6.328096E-2,-1.2092899E-2,1.2305534E-2,-8.421457E-3,3.7769273E-2,-6.505507E-3,-2.093172E-2,-6.1704844E-2,-1.4160072E-2,3.756353E-3,-6.0627937E-2,-1.6978543E-2,-3.9291056E-4,1.5599605E-2,1.3503002E-2,-1.7618971E-2,2.5812289E-2,1.1671557E-2,-1.766054E-2,7.2438973E-3,1.14046E-2,4.6932735E-2],"split_indices":[0,0,2,2,2,2,0,7,10,2,0,2,0,5,1,5,0,2,0,0,2,0,2,2,0,0,0,2,0,0,0,0,0,0,0,0,0,0,0,0,0,0,0,0,0,0,0,0,0,0,0,0,0,0,0],"split_type":[0,0,0,0,0,0,0,0,0,0,0,0,0,0,0,0,0,0,0,0,0,0,0,0,0,0,0,0,0,0,0,0,0,0,0,0,0,0,0,0,0,0,0,0,0,0,0,0,0,0,0,0,0,0,0],"sum_hessian":[1.0392976E3,6.276776E2,4.116199E2,1.1556859E2,5.121091E2,3.3200397E2,7.961595E1,8.5156136E1,3.0412453E1,2.438032E2,2.6830585E2,1.06178185E2,2.2582578E2,2.2198679E1,5.7417274E1,7.457328E1,1.058285E1,2.5321985E1,5.0904684E0,1.6627162E2,7.753158E1,2.6147366E2,6.8321958E0,9.892778E1,7.250403E0,8.227678E1,1.43549E2,1.7777914E1,4.4207654E0,2.2251955E1,3.5165318E1,6.773484E1,6.8384457E0,7.401825E0,3.1810253E0,1.5984087E1,9.337898E0,4.8171334E0,1.6145448E2,7.192289E1,5.608692E0,3.0289835E1,2.311838E2,3.5975966E0,3.234599E0,8.017425E1,1.8753534E1,5.9418163E1,2.2858616E1,5.2753815E1,9.079518E1,7.8490295E0,9.928884E0,1.7336206E1,4.9157476E0],"tree_param":{"num_deleted":"0","num_feature":"15","num_nodes":"55","size_leaf_vector":"1"}},{"base_weights":[-4.14583E-3,2.954749E-1,-1.8136422E-1,7.6596804E-2,6.0453576E-1,-3.1841472E-1,1.09450385E-1,2.0129679E-1,-1.8109728E-1,4.8948509E-1,1.0598148E0,-2.3897716E-1,-6.500741E-1,-2.1665989E-1,2.3170546E-1,2.4347603E-1,-3.25053E-1,-4.5052987E-1,1.4620778E-1,5.493592E-1,-1.12011366E-1,6.944636E-4,4.7752403E-2,-2.7897686E-1,2.161031E-1,-7.239353E-1,1.71824E-2,-1.1550698E-1,-7.667539E-1,3.909108E-1,2.3550994E-3,-5.691061E-3,1.2074357E-2,1.2044486E-2,-2.4802778E-2,-2.5807167E-3,-3.395055E-2,-6.836234E-3,2.1455767E-2,1.776427E-2,3.9757438E-2,-3.1447656E-2,7.976644E-3,-1.7810088E-2,-6.8741464E-3,-1.4160382E-2,1.4393526E-2,-4.298776E-2,-2.031646E-2,-7.184832E-3,2.268599E-2,-1.6261537E-2,-4.1439235E-2,2.9756302E-2,1.1117652E-2,-4.509646E-3,2.0807805E-2],"categories":[],"categories_nodes":[],"categories_segments":[],"categories_sizes":[],"default_left":[0,0,0,0,0,0,0,0,0,0,0,0,0,0,0,0,0,0,0,0,0,0,0,0,0,0,0,0,0,0,0,0,0,0,0,0,0,0,0,0,0,0,0,0,0,0,0,0,0,0,0,0,0,0,0,0,0],"id":16,"left_children":[1,3,5,7,9,11,13,15,17,19,21,23,25,27,29,31,33,35,37,39,41,-1,-1,43,45,47,-1,49,51,53,55,-1,-1,-1,-1,-1,-1,-1,-1,-1,-1,-1,-1,-1,-1,-1,-1,-1,-1,-1,-1,-1,-1,-1,-1,-1,-1],"loss_changes":[5.462227E1,2.5816654E1,2.579665E1,7.2654743E0,7.77631E0,1.142601E1,8.334251E0,3.4553537E0,6.5817327E0,4.6812363E0,4.321724E0,6.5446377E0,7.038166E0,3.0927365E0,5.5349665E0,3.2266512E0,2.350013E0,6.2127476E0,4.312929E0,5.025463E0,2.7693768E0,0E0,0E0,5.7636356E0,2.5320106E0,5.465267E0,0E0,2.2670612E0,4.228325E-1,3.3616781E0,3.821078E0,0E0,0E0,0E0,0E0,0E0,0E0,0E0,0E0,0E0,0E0,0E0,0E0,0E0,0E0,0E0,0E0,0E0,0E0,0E0,0E0,0E0,0E0,0E0,0E0,0E0,0E0],"parents":[2147483647,0,0,1,1,2,2,3,3,4,4,5,5,6,6,7,7,8,8,9,9,10,10,11,11,12,12,13,13,14,14,15,15,16,16,17,17,18,18,19,19,20,20,23,23,24,24,25,25,27,27,28,28,29,29,30,30],"right_children":[2,4,6,8,10,12,14,16,18,20,22,24,26,28,30,32,34,36,38,40,42,-1,-1,44,46,48,-1,50,52,54,56,-1,-1,-1,-1,-1,-1,-1,-1,-1,-1,-1,-1,-1,-1,-1,-1,-1,-1,-1,-1,-1,-1,-1,-1,-1,-1],"split_conditions":[4E0,7.05E1,7.43E1,3E0,1E0,1E1,5.19E1,1E0,1.3E1,1E0,1.1E1,1E0,9.04E1,4.97E1,8E0,3.54E1,1.1E1,1.1E1,5.64E1,7.9E1,4.75E1,6.944636E-4,4.7752403E-2,5.17E1,3.76E1,4.91E1,1.71824E-2,4.88E1,7E0,5.99E1,9.92E1,-5.691061E-3,1.2074357E-2,1.2044486E-2,-2.4802778E-2,-2.5807167E-3,-3.395055E-2,-6.836234E-3,2.1455767E-2,1.776427E-2,3.9757438E-2,-3.1447656E-2,7.976644E-3,-1.7810088E-2,-6.8741464E-3,-1.4160382E-2,1.4393526E-2,-4.298776E-2,-2.031646E-2,-7.184832E-3,2.268599E-2,-1.6261537E-2,-4.1439235E-2,2.9756302E-2,1.1117652E-2,-4.509646E-3,2.0807805E-2],"split_indices":[3,0,0,3,5,3,2,9,1,12,1,5,2,2,3,0,1,1,0,2,2,0,0,0,0,0,0,2,3,2,0,0,0,0,0,0,0,0,0,0,0,0,0,0,0,0,0,0,0,0,0,0,0,0,0,0,0],"split_type":[0,0,0,0,0,0,0,0,0,0,0,0,0,0,0,0,0,0,0,0,0,0,0,0,0,0,0,0,0,0,0,0,0,0,0,0,0,0,0,0,0,0,0,0,0,0,0,0,0,0,0,0,0,0,0,0,0],"sum_hessian":[1.0266915E3,3.8132437E2,6.453672E2,2.2396169E2,1.5736269E2,4.3858356E2,2.0678363E2,1.5107451E2,7.288717E1,1.2727497E2,3.0087715E1,3.5522278E2,8.33608E1,5.6172813E1,1.5061081E2,1.4036383E2,1.0710683E1,3.977144E1,3.311573E1,1.1583155E2,1.1443419E1,3.5555918E0,2.6532124E1,3.2687845E2,2.8344305E1,7.833137E1,5.029434E0,4.8469986E1,7.7028275E0,8.8484314E1,6.2126503E1,1.826234E1,1.2210149E2,3.423572E0,7.2871103E0,2.0785683E1,1.8985756E1,1.8578522E1,1.453721E1,9.527449E1,2.055706E1,3.1341393E0,8.30928E0,1.26840965E2,2.0003749E2,5.4126334E0,2.2931673E1,2.8340275E1,4.9991093E1,4.498222E1,3.4877653E0,4.36827E0,3.3345578E0,2.0098215E1,6.83861E1,5.1469143E1,1.0657358E1],"tree_param":{"num_deleted":"0","num_feature":"15","num_nodes":"57","size_leaf_vector":"1"}},{"base_weights":[1.4352427E-2,-1.4837503E-1,3.337686E-1,1.5363513E-1,-2.477165E-1,6.2106854E-1,1.4527293E-1,-3.125074E-1,2.3280865E-1,-4.8537105E-1,-1.1641409E-1,1.277407E-1,7.409804E-1,1.0800974E-1,3.5430234E-2,7.152212E-2,-7.165867E-1,2.8966033E-1,-4.145948E-1,-8.002572E-1,-2.8410402E-1,-8.7430485E-2,-6.786047E-1,-2.2990286E-2,3.8851455E-1,4.2709878E-1,8.590545E-1,2.391943E-1,-8.011903E-2,-1.5091858E-2,2.7674016E-2,-5.5154073E-3,-4.966324E-2,7.6636267E-3,2.507312E-2,1.6596686E-2,-2.9887578E-2,-3.4882825E-2,-5.4753E-4,-6.5847486E-3,-3.275236E-2,-7.5018345E-3,1.6384823E-3,-4.307322E-2,-6.7054504E-4,2.9303985E-2,9.091142E-3,2.2216486E-2,-2.3771144E-2,4.268512E-2,2.1029407E-2,-1.3381566E-3,1.34547055E-2,-1.136376E-2,7.357855E-3],"categories":[],"categories_nodes":[],"categories_segments":[],"categories_sizes":[],"default_left":[0,0,0,0,0,0,0,0,0,0,0,0,0,0,0,0,0,0,0,0,0,0,0,0,0,0,0,0,0,0,0,0,0,0,0,0,0,0,0,0,0,0,0,0,0,0,0,0,0,0,0,0,0,0,0],"id":17,"left_children":[1,3,5,7,9,11,13,15,17,19,21,23,25,27,-1,29,31,33,35,37,39,41,43,-1,45,47,49,51,53,-1,-1,-1,-1,-1,-1,-1,-1,-1,-1,-1,-1,-1,-1,-1,-1,-1,-1,-1,-1,-1,-1,-1,-1,-1,-1],"loss_changes":[5.3564804E1,2.052293E1,1.8744781E1,6.3326707E0,1.5987764E1,8.038227E0,5.735155E0,3.9389913E0,5.4777102E0,1.1349079E1,5.358546E0,5.3694415E0,3.724327E0,5.0126233E0,0E0,4.0905204E0,3.5653472E0,4.324024E0,3.6654348E0,3.9802933E0,7.083809E0,4.0868883E0,4.239454E0,0E0,1.0031698E0,4.545348E0,4.933754E0,3.1761885E0,4.5699215E0,0E0,0E0,0E0,0E0,0E0,0E0,0E0,0E0,0E0,0E0,0E0,0E0,0E0,0E0,0E0,0E0,0E0,0E0,0E0,0E0,0E0,0E0,0E0,0E0,0E0,0E0],"parents":[2147483647,0,0,1,1,2,2,3,3,4,4,5,5,6,6,7,7,8,8,9,9,10,10,11,11,12,12,13,13,15,15,16,16,17,17,18,18,19,19,20,20,21,21,22,22,24,24,25,25,26,26,27,27,28,28],"right_children":[2,4,6,8,10,12,14,16,18,20,22,24,26,28,-1,30,32,34,36,38,40,42,44,-1,46,48,50,52,54,-1,-1,-1,-1,-1,-1,-1,-1,-1,-1,-1,-1,-1,-1,-1,-1,-1,-1,-1,-1,-1,-1,-1,-1,-1,-1],"split_conditions":[7.38E1,3E0,4E0,3.72E1,4.99E1,4.9E1,9.27E1,1.3E1,1E0,5.62E1,7.27E1,1E1,7.92E1,8E0,3.5430234E-2,1.1E1,2.83E1,7.57E1,1.1E1,1E0,1E1,1.3E1,7.34E1,-2.2990286E-2,3.59E1,1E0,9.03E1,5.19E1,8.68E1,-1.5091858E-2,2.7674016E-2,-5.5154073E-3,-4.966324E-2,7.6636267E-3,2.507312E-2,1.6596686E-2,-2.9887578E-2,-3.4882825E-2,-5.4753E-4,-6.5847486E-3,-3.275236E-2,-7.5018345E-3,1.6384823E-3,-4.307322E-2,-6.7054504E-4,2.9303985E-2,9.091142E-3,2.2216486E-2,-2.3771144E-2,4.268512E-2,2.1029407E-2,-1.3381566E-3,1.34547055E-2,-1.136376E-2,7.357855E-3],"split_indices":[0,3,3,0,0,2,2,1,9,2,0,1,0,3,0,1,0,2,1,5,3,1,0,0,2,7,0,2,0,0,0,0,0,0,0,0,0,0,0,0,0,0,0,0,0,0,0,0,0,0,0,0,0,0,0],"split_type":[0,0,0,0,0,0,0,0,0,0,0,0,0,0,0,0,0,0,0,0,0,0,0,0,0,0,0,0,0,0,0,0,0,0,0,0,0,0,0,0,0,0,0,0,0,0,0,0,0,0,0,0,0,0,0],"sum_hessian":[1.02858E3,6.8178046E2,3.4679947E2,1.6861719E2,5.1316327E2,1.364822E2,2.1031726E2,2.4053356E1,1.4456383E2,1.8166212E2,3.3150116E2,2.7091345E1,1.0939085E2,2.0133156E2,8.985707E0,1.275461E1,1.1298746E1,1.3340175E2,1.1162085E1,6.967623E1,1.1198589E2,3.1634744E2,1.5153701E1,7.008127E0,2.0083218E1,3.1163845E1,7.8227005E1,1.18457924E2,8.2873634E1,7.6276493E0,5.1269608E0,5.9750667E0,5.3236794E0,1.0455793E2,2.8843817E1,3.1237473E0,8.038337E0,6.3747414E1,5.9288197E0,9.26011E1,1.9384792E1,1.7748837E2,1.3885909E2,9.0695715E0,6.08413E0,5.277385E0,1.4805833E1,2.8091042E1,3.0728033E0,4.680661E1,3.1420393E1,3.1297989E1,8.7159935E1,4.6713985E1,3.615965E1],"tree_param":{"num_deleted":"0","num_feature":"15","num_nodes":"55","size_leaf_vector":"1"}},{"base_weights":[-2.6051884E-3,-1.6007316E-1,3.0293128E-1,-4.0390864E-1,-6.2362626E-2,1.4856367E-1,5.1603454E-1,-4.381321E-1,1.9597031E-1,-2.2243057E-1,7.911428E-2,5.185403E-3,2.684223E-1,4.0136722E-1,9.2607033E-1,-8.431388E-1,-3.7501764E-1,4.388511E-1,-1.1585553E-2,-1.8209201E-1,-5.9840087E-2,1.0729145E-1,-6.4425856E-1,-5.34176E-1,8.80881E-2,4.404063E-1,6.519629E-2,3.148327E-1,4.2162508E-2,4.7339293E-1,1.1193382E0,-4.0724806E-2,-1.4493138E-3,-1.3266804E-2,-4.454687E-2,7.4126497E-3,2.4104647E-2,-1.3192301E-2,1.8386818E-3,3.4986794E-2,3.6612253E-3,-4.831653E-3,-3.5550106E-2,-5.4029385E-3,-3.707225E-2,1.5012885E-2,-1.5314826E-3,-5.8852565E-3,2.2400657E-2,3.357545E-2,-7.440255E-4,3.0278005E-2,7.0199827E-3,3.8385717E-3,2.648156E-2,4.7515586E-2,2.1598374E-2],"categories":[],"categories_nodes":[],"categories_segments":[],"categories_sizes":[],"default_left":[0,0,0,0,0,0,0,0,0,0,0,0,0,0,0,0,0,0,0,0,0,0,0,0,0,0,0,0,0,0,0,0,0,0,0,0,0,0,0,0,0,0,0,0,0,0,0,0,0,0,0,0,0,0,0,0,0],"id":18,"left_children":[1,3,5,7,9,11,13,15,17,19,21,23,25,27,29,31,33,35,-1,37,-1,39,41,43,45,47,49,51,-1,53,55,-1,-1,-1,-1,-1,-1,-1,-1,-1,-1,-1,-1,-1,-1,-1,-1,-1,-1,-1,-1,-1,-1,-1,-1,-1,-1],"loss_changes":[4.9843853E1,1.6262732E1,1.1514133E1,4.097309E0,1.1096991E1,3.534193E0,6.568531E0,4.416786E0,1.4524238E0,1.1533502E1,5.377598E0,4.2813544E0,3.887228E0,6.2829266E0,2.2253819E0,3.374754E0,4.817539E0,2.1583438E-1,0E0,7.5574126E0,0E0,2.9621248E0,1.1606226E0,1.8739438E0,3.024979E0,4.334779E0,3.4234004E0,6.324977E0,0E0,7.3075557E-1,2.060566E-1,0E0,0E0,0E0,0E0,0E0,0E0,0E0,0E0,0E0,0E0,0E0,0E0,0E0,0E0,0E0,0E0,0E0,0E0,0E0,0E0,0E0,0E0,0E0,0E0,0E0,0E0],"parents":[2147483647,0,0,1,1,2,2,3,3,4,4,5,5,6,6,7,7,8,8,9,9,10,10,11,11,12,12,13,13,14,14,15,15,16,16,17,17,19,19,21,21,22,22,23,23,24,24,25,25,26,26,27,27,29,29,30,30],"right_children":[2,4,6,8,10,12,14,16,18,20,22,24,26,28,30,32,34,36,-1,38,-1,40,42,44,46,48,50,52,-1,54,56,-1,-1,-1,-1,-1,-1,-1,-1,-1,-1,-1,-1,-1,-1,-1,-1,-1,-1,-1,-1,-1,-1,-1,-1,-1,-1],"split_conditions":[7.38E1,4.59E1,6.79E1,9.15E1,6.01E1,5.2E1,1E0,2.22E1,1E2,5.99E1,7.29E1,9E0,6.06E1,9.34E1,7.8E1,7.14E1,8.69E1,1.3E1,-1.1585553E-2,6.33E1,-5.9840087E-2,6.04E1,6.98E1,9E1,3.77E1,7.69E1,7.51E1,7.14E1,4.2162508E-2,1.3E1,1E0,-4.0724806E-2,-1.4493138E-3,-1.3266804E-2,-4.454687E-2,7.4126497E-3,2.4104647E-2,-1.3192301E-2,1.8386818E-3,3.4986794E-2,3.6612253E-3,-4.831653E-3,-3.5550106E-2,-5.4029385E-3,-3.707225E-2,1.5012885E-2,-1.5314826E-3,-5.8852565E-3,2.2400657E-2,3.357545E-2,-7.440255E-4,3.0278005E-2,7.0199827E-3,3.8385717E-3,2.648156E-2,4.7515586E-2,2.1598374E-2],"split_indices":[0,0,2,2,2,2,5,0,2,2,0,1,2,2,2,2,2,1,0,0,0,2,2,0,2,0,0,2,0,1,11,0,0,0,0,0,0,0,0,0,0,0,0,0,0,0,0,0,0,0,0,0,0,0,0,0,0],"split_type":[0,0,0,0,0,0,0,0,0,0,0,0,0,0,0,0,0,0,0,0,0,0,0,0,0,0,0,0,0,0,0,0,0,0,0,0,0,0,0,0,0,0,0,0,0,0,0,0,0,0,0,0,0,0,0,0,0],"sum_hessian":[1.0339838E3,6.826397E2,3.513441E2,1.9439517E2,4.8824457E2,2.0473523E2,1.4660886E2,1.8415845E2,1.0236714E1,2.2880304E2,2.5944153E2,9.369633E1,1.1103891E2,1.1611574E2,3.0493124E1,2.3162886E1,1.6099557E2,6.8879476E0,3.3487668E0,2.2288641E2,5.91663E0,2.5053427E2,8.907252E0,1.1757717E1,8.193861E1,5.951018E1,5.1528725E1,1.03832016E2,1.2283719E1,1.0155659E1,2.0337465E1,1.8819935E1,4.34295E0,1.5344005E2,7.555527E0,3.539629E0,3.3483186E0,1.3499988E2,8.7886536E1,3.9452953E0,2.4658897E2,3.3114378E0,5.595814E0,6.497318E0,5.2603993E0,2.4433832E1,5.7504776E1,1.0026901E1,4.948328E1,4.1519976E0,4.7376728E1,2.3819088E1,8.0012924E1,3.887182E0,6.268477E0,1.7246584E1,3.090881E0],"tree_param":{"num_deleted":"0","num_feature":"15","num_nodes":"57","size_leaf_vector":"1"}},{"base_weights":[5.3204764E-3,-1.4191078E-1,2.9130948E-1,-4.2429557E-1,-8.3846346E-2,1.4099687E-1,4.959323E-1,-5.932475E-1,-3.3414373E-3,-1.9189166E-1,1.296333E-2,1.7697452E-1,-3.1662855E-1,1.6202031E-1,6.287668E-1,-4.9699458E-1,-1.1783049E0,1.9031629E-1,-3.0882475E-1,-1.5816143E-1,-5.7073444E-2,2.7762298E-2,-3.091983E-2,6.256155E-4,3.4352654E-1,-5.18248E-1,1.4248151E-2,3.4460548E-1,-8.271771E-1,5.6476134E-1,4.4586293E-2,-3.7054326E-2,-1.5620869E-2,-5.9268873E-2,-1.8475171E-2,-1.0238783E-3,3.743776E-2,-3.85991E-2,4.4558453E-3,-9.508742E-3,5.5579343E-3,2.024077E-4,2.5959773E-2,-1.8033938E-3,3.6675934E-2,3.2020095E-4,1.8584976E-2,-3.467225E-2,6.6120094E-3,1.7656842E-2,-2.0491935E-2,-7.281506E-2,1.45638315E-2,1.9783752E-2,3.679584E-2],"categories":[],"categories_nodes":[],"categories_segments":[],"categories_sizes":[],"default_left":[0,0,0,0,0,0,0,0,0,0,0,0,0,0,0,0,0,0,0,0,0,0,0,0,0,0,0,0,0,0,0,0,0,0,0,0,0,0,0,0,0,0,0,0,0,0,0,0,0,0,0,0,0,0,0],"id":19,"left_children":[1,3,5,7,9,11,13,15,17,19,21,23,25,27,29,31,33,35,37,39,-1,41,-1,43,45,47,-1,49,51,53,-1,-1,-1,-1,-1,-1,-1,-1,-1,-1,-1,-1,-1,-1,-1,-1,-1,-1,-1,-1,-1,-1,-1,-1,-1],"loss_changes":[4.3190063E1,1.1067468E1,1.0651875E1,8.194345E0,5.890476E0,3.387804E0,6.428482E0,4.045187E0,2.0709164E0,1.0858022E1,3.485645E0,5.529074E0,2.2341433E0,8.096203E0,2.6353607E0,2.9455032E0,1.682414E0,3.4747758E0,3.8511949E0,6.181864E0,0E0,4.1330924E0,0E0,3.913029E0,3.929965E0,3.0100365E0,0E0,3.3135686E0,8.983949E0,1.9070644E0,0E0,0E0,0E0,0E0,0E0,0E0,0E0,0E0,0E0,0E0,0E0,0E0,0E0,0E0,0E0,0E0,0E0,0E0,0E0,0E0,0E0,0E0,0E0,0E0,0E0],"parents":[2147483647,0,0,1,1,2,2,3,3,4,4,5,5,6,6,7,7,8,8,9,9,10,10,11,11,12,12,13,13,14,14,15,15,16,16,17,17,18,18,19,19,21,21,23,23,24,24,25,25,27,27,28,28,29,29],"right_children":[2,4,6,8,10,12,14,16,18,20,22,24,26,28,30,32,34,36,38,40,-1,42,-1,44,46,48,-1,50,52,54,-1,-1,-1,-1,-1,-1,-1,-1,-1,-1,-1,-1,-1,-1,-1,-1,-1,-1,-1,-1,-1,-1,-1,-1,-1],"split_conditions":[7.34E1,3.89E1,6.79E1,7.2E1,6.01E1,6.56E1,7.92E1,1E0,8.69E1,5.99E1,7.29E1,5.19E1,1E0,1E0,1E0,4.01E1,3.12E1,8.33E1,9.04E1,1E0,-5.7073444E-2,1E0,-3.091983E-2,1E0,7.99E1,9.07E1,1.4248151E-2,1E0,7.73E1,8.99E1,4.4586293E-2,-3.7054326E-2,-1.5620869E-2,-5.9268873E-2,-1.8475171E-2,-1.0238783E-3,3.743776E-2,-3.85991E-2,4.4558453E-3,-9.508742E-3,5.5579343E-3,2.024077E-4,2.5959773E-2,-1.8033938E-3,3.6675934E-2,3.2020095E-4,1.8584976E-2,-3.467225E-2,6.6120094E-3,1.7656842E-2,-2.0491935E-2,-7.281506E-2,1.45638315E-2,1.9783752E-2,3.679584E-2],"split_indices":[0,0,2,2,2,2,0,7,2,2,0,2,6,7,4,2,0,2,2,8,0,4,0,4,0,0,0,9,2,2,0,0,0,0,0,0,0,0,0,0,0,0,0,0,0,0,0,0,0,0,0,0,0,0,0],"split_type":[0,0,0,0,0,0,0,0,0,0,0,0,0,0,0,0,0,0,0,0,0,0,0,0,0,0,0,0,0,0,0,0,0,0,0,0,0,0,0,0,0,0,0,0,0,0,0,0,0,0,0,0,0,0,0],"sum_hessian":[1.02375165E3,6.76159E2,3.4759262E2,1.14244804E2,5.6191425E2,2.0136342E2,1.462292E2,8.1232475E1,3.3012325E1,2.6508337E2,2.9683084E2,1.8725505E2,1.4108361E1,4.2248062E1,1.0398114E2,7.134445E1,9.888021E0,2.043487E1,1.2577457E1,2.591337E2,5.9496875E0,2.922919E2,4.5389404E0,9.144007E1,9.581498E1,1.1032222E1,3.07614E0,3.6215137E1,6.032925E0,9.378884E1,1.0192301E1,1.2646322E1,5.869813E1,6.1957946E0,3.6922266E0,1.6595066E1,3.8398037E0,4.4041896E0,8.173267E0,2.0455884E2,5.4574852E1,2.8295966E2,9.332242E0,8.800074E1,3.4393325E0,2.5693369E1,7.0121605E1,7.1289134E0,3.9033082E0,3.297445E1,3.240688E0,3.0019867E0,3.0309384E0,8.031323E1,1.3475608E1],"tree_param":{"num_deleted":"0","num_feature":"15","num_nodes":"55","size_leaf_vector":"1"}},{"base_weights":[8.404025E-3,2.6323354E-1,-1.4446896E-1,8.732227E-2,5.4175824E-1,-1.9285213E-2,-3.1576294E-1,2.4472734E-2,4.3131512E-1,7.6833266E-1,3.930692E-1,-7.10168E-2,2.8466696E-1,-3.4329638E-1,1.0942123E-1,-2.2621792E-2,4.913402E-1,-2.4134824E-2,5.556754E-1,4.438106E-1,9.2564416E-1,3.3185193E-1,4.3263126E-2,-2.00913E-2,-3.094647E-1,5.4666173E-1,8.076038E-2,-3.1743804E-1,-9.041819E-1,-1.4758642E-2,3.5815758E-1,-3.31179E-3,1.5016429E-2,-2.2571733E-2,3.1093935E-2,2.6457028E-2,-6.84837E-3,-4.1168816E-3,2.9443555E-2,4.2535808E-2,2.5914978E-2,1.6671577E-2,-1.2502852E-3,-1.12083246E-4,-2.7432863E-2,-3.3448264E-2,-6.688719E-3,9.377322E-3,4.6648588E-2,-1.718565E-3,1.6877228E-2,-1.1945804E-2,-5.3935725E-2,-1.4819445E-2,-4.310912E-2,-5.7436805E-4,2.291378E-2],"categories":[],"categories_nodes":[],"categories_segments":[],"categories_sizes":[],"default_left":[0,0,0,0,0,0,0,0,0,0,0,0,0,0,0,0,0,0,0,0,0,0,0,0,0,0,0,0,0,0,0,0,0,0,0,0,0,0,0,0,0,0,0,0,0,0,0,0,0,0,0,0,0,0,0,0,0],"id":20,"left_children":[1,3,5,7,9,11,13,15,17,19,21,23,25,27,29,31,33,-1,35,37,39,41,-1,43,45,47,49,51,53,-1,55,-1,-1,-1,-1,-1,-1,-1,-1,-1,-1,-1,-1,-1,-1,-1,-1,-1,-1,-1,-1,-1,-1,-1,-1,-1,-1],"loss_changes":[4.00451E1,1.8836973E1,1.377201E1,5.1224523E0,4.717888E0,5.874241E0,3.2128944E0,4.4481735E0,5.0469327E0,2.5497742E0,3.5193243E0,3.8668456E0,2.8592558E0,3.4111538E0,2.1853018E0,4.444476E0,6.0348716E0,0E0,2.665945E0,3.40832E0,7.703247E-1,2.6636457E0,0E0,3.0354505E0,4.0607114E0,4.294282E0,1.3577147E0,4.349676E0,5.914221E-1,0E0,9.5668066E-1,0E0,0E0,0E0,0E0,0E0,0E0,0E0,0E0,0E0,0E0,0E0,0E0,0E0,0E0,0E0,0E0,0E0,0E0,0E0,0E0,0E0,0E0,0E0,0E0,0E0,0E0],"parents":[2147483647,0,0,1,1,2,2,3,3,4,4,5,5,6,6,7,7,8,8,9,9,10,10,11,11,12,12,13,13,14,14,15,15,16,16,18,18,19,19,20,20,21,21,23,23,24,24,25,25,26,26,27,27,28,28,30,30],"right_children":[2,4,6,8,10,12,14,16,18,20,22,24,26,28,30,32,34,-1,36,38,40,42,-1,44,46,48,50,52,54,-1,56,-1,-1,-1,-1,-1,-1,-1,-1,-1,-1,-1,-1,-1,-1,-1,-1,-1,-1,-1,-1,-1,-1,-1,-1,-1,-1],"split_conditions":[4E0,6.85E1,8E0,1E0,2E0,8.01E1,9.04E1,1E0,3.22E1,1.2E1,1E0,1E0,8.69E1,1E0,1.2E1,1.6E1,1.1E1,-2.4134824E-2,1.6E1,7.52E1,1.4E1,1E0,4.3263126E-2,7.88E1,4.43E1,8.44E1,9.72E1,8.83E1,1.1E1,-1.4758642E-2,9.42E1,-3.31179E-3,1.5016429E-2,-2.2571733E-2,3.1093935E-2,2.6457028E-2,-6.84837E-3,-4.1168816E-3,2.9443555E-2,4.2535808E-2,2.5914978E-2,1.6671577E-2,-1.2502852E-3,-1.12083246E-4,-2.7432863E-2,-3.3448264E-2,-6.688719E-3,9.377322E-3,4.6648588E-2,-1.718565E-3,1.6877228E-2,-1.1945804E-2,-5.3935725E-2,-1.4819445E-2,-4.310912E-2,-5.7436805E-4,2.291378E-2],"split_indices":[3,2,3,10,3,2,2,5,2,1,4,10,2,13,1,1,1,0,1,2,1,10,0,2,2,2,2,2,1,0,2,0,0,0,0,0,0,0,0,0,0,0,0,0,0,0,0,0,0,0,0,0,0,0,0,0,0],"split_type":[0,0,0,0,0,0,0,0,0,0,0,0,0,0,0,0,0,0,0,0,0,0,0,0,0,0,0,0,0,0,0,0,0,0,0,0,0,0,0,0,0,0,0,0,0,0,0,0,0,0,0,0,0,0,0,0,0],"sum_hessian":[1.0259666E3,3.8442792E2,6.415387E2,2.3642168E2,1.4800624E2,3.7130038E2,2.702383E2,2.0080463E2,3.5617054E1,5.699264E1,9.1013596E1,3.1795236E2,5.334802E1,2.5398381E2,1.6254507E1,1.8326918E2,1.7535446E1,3.4082649E0,3.220879E1,1.985482E1,3.713782E1,8.494305E1,6.070543E0,2.628908E2,5.5061543E1,2.2612635E1,3.0735386E1,2.4428746E2,9.69635E0,5.395035E0,1.0859472E1,1.598897E2,2.3379494E1,3.530746E0,1.4004701E1,2.8196669E1,4.0121193E0,7.142325E0,1.2712497E1,2.2935396E1,1.4202423E1,6.872034E1,1.6222713E1,2.5721506E2,5.675745E0,1.067038E1,4.4391163E1,1.5951926E1,6.6607084E0,2.3197092E1,7.538294E0,2.4118073E2,3.106726E0,3.1485639E0,6.547786E0,4.3114758E0,6.547997E0],"tree_param":{"num_deleted":"0","num_feature":"15","num_nodes":"57","size_leaf_vector":"1"}},{"base_weights":[2.229578E-2,2.9995254E-1,-1.3940634E-1,1.0950908E-1,5.969653E-1,-5.113272E-1,-4.9061645E-2,3.765725E-3,3.0494463E-1,4.8218128E-1,1.0362693E0,-3.7496674E-1,-1.0472683E0,6.5471314E-2,-2.0293005E-1,4.259783E-2,-3.130484E-2,3.9395517E-1,-3.6145937E-2,2.4523298E-1,6.1187387E-1,1.2758937E-2,4.4255618E-2,-4.2090887E-1,1.6917014E-2,-5.923439E-2,-8.311641E-1,-1.77706E-1,1.8664931E-1,-2.8241453E-1,2.1456265E-1,1.4921174E-4,3.469558E-2,2.6197307E-2,9.12436E-3,3.2213554E-2,4.745469E-3,1.54420845E-2,3.8491417E-2,-1.1931186E-2,-2.5700543E-2,-1.21564325E-2,-4.5632713E-2,2.461872E-4,-1.8526273E-2,5.386641E-3,2.7848009E-2,-1.3527207E-2,1.8337423E-2,3.344391E-2,8.938927E-4],"categories":[],"categories_nodes":[],"categories_segments":[],"categories_sizes":[],"default_left":[0,0,0,0,0,0,0,0,0,0,0,0,0,0,0,0,0,0,0,0,0,0,0,0,0,0,0,0,0,0,0,0,0,0,0,0,0,0,0,0,0,0,0,0,0,0,0,0,0,0,0],"id":21,"left_children":[1,3,5,7,9,11,13,15,17,19,21,23,25,27,29,31,-1,33,-1,35,37,-1,-1,39,-1,-1,41,43,45,47,49,-1,-1,-1,-1,-1,-1,-1,-1,-1,-1,-1,-1,-1,-1,-1,-1,-1,-1,-1,-1],"loss_changes":[4.5978897E1,2.1252441E1,2.1723938E1,4.769831E0,6.9137E0,8.844471E0,9.210304E0,4.6388984E0,9.074342E0,3.4894066E0,1.1351776E0,3.9286432E0,1.1190586E0,8.871592E0,7.458682E0,4.6345444E0,0E0,3.1478205E0,0E0,2.9933183E0,5.632124E0,0E0,0E0,2.4510803E0,0E0,0E0,2.7579985E0,5.2650995E0,5.221622E0,7.910326E0,4.3089905E0,0E0,0E0,0E0,0E0,0E0,0E0,0E0,0E0,0E0,0E0,0E0,0E0,0E0,0E0,0E0,0E0,0E0,0E0,0E0,0E0],"parents":[2147483647,0,0,1,1,2,2,3,3,4,4,5,5,6,6,7,7,8,8,9,9,10,10,11,11,12,12,13,13,14,14,15,15,17,17,19,19,20,20,23,23,26,26,27,27,28,28,29,29,30,30],"right_children":[2,4,6,8,10,12,14,16,18,20,22,24,26,28,30,32,-1,34,-1,36,38,-1,-1,40,-1,-1,42,44,46,48,50,-1,-1,-1,-1,-1,-1,-1,-1,-1,-1,-1,-1,-1,-1,-1,-1,-1,-1,-1,-1],"split_conditions":[4E0,7.1E1,4.61E1,6.81E1,1E0,1E1,8E0,7E1,1E0,7.92E1,5.33E1,9.15E1,2.83E1,6.26E1,1E0,6.85E1,-3.130484E-2,2E0,-3.6145937E-2,7.24E1,6.69E1,1.2758937E-2,4.4255618E-2,6.73E1,1.6917014E-2,-5.923439E-2,3.76E1,5.75E1,1E0,9.04E1,5.59E1,1.4921174E-4,3.469558E-2,2.6197307E-2,9.12436E-3,3.2213554E-2,4.745469E-3,1.54420845E-2,3.8491417E-2,-1.1931186E-2,-2.5700543E-2,-1.21564325E-2,-4.5632713E-2,2.461872E-4,-1.8526273E-2,5.386641E-3,2.7848009E-2,-1.3527207E-2,1.8337423E-2,3.344391E-2,8.938927E-4],"split_indices":[3,0,0,2,5,3,3,0,9,0,2,2,0,0,6,0,0,3,0,0,2,0,0,2,0,0,0,0,5,2,0,0,0,0,0,0,0,0,0,0,0,0,0,0,0,0,0,0,0,0,0],"split_type":[0,0,0,0,0,0,0,0,0,0,0,0,0,0,0,0,0,0,0,0,0,0,0,0,0,0,0,0,0,0,0,0,0,0,0,0,0,0,0,0,0,0,0,0,0,0,0,0,0,0,0],"sum_hessian":[1.02215027E3,3.758786E2,6.4627167E2,2.2986119E2,1.4601743E2,1.2539596E2,5.2087573E2,1.4981876E2,8.0042435E1,1.1743175E2,2.858568E1,1.0131726E2,2.4078693E1,2.9893555E2,2.2194014E2,1.436701E2,6.1486583E0,7.5179634E1,4.862797E0,4.256196E1,7.486979E1,3.039755E0,2.5545925E1,9.624785E1,5.069417E0,6.0624533E0,1.8016241E1,9.926542E1,1.9967014E2,1.8671576E2,3.5224384E1,1.3816379E2,5.5063157E0,2.8065847E1,4.7113785E1,6.858057E0,3.57039E1,4.6806915E1,2.8062876E1,6.3470966E1,3.277688E1,7.399102E0,1.0617138E1,6.097164E1,3.829378E1,1.8233319E2,1.7336954E1,1.7415053E2,1.2565229E1,7.529071E0,2.7695314E1],"tree_param":{"num_deleted":"0","num_feature":"15","num_nodes":"51","size_leaf_vector":"1"}},{"base_weights":[-2.4776384E-3,-1.5268871E-1,2.3094057E-1,-3.3640783E-2,-3.7485412E-1,3.6698198E-1,-1.418108E-1,2.589292E-1,-1.06786594E-1,-5.8573186E-1,-1.8374947E-1,2.895426E-1,8.3444804E-1,-1.9920395E-1,2.7404914E-2,5.802702E-2,5.926944E-1,-2.727086E-1,2.7849501E-2,-6.4800775E-1,1.7113774E-1,2.2311655E-1,-3.8679895E-1,2.656275E-1,4.5388073E-2,1.560225E-1,9.912015E-1,-2.5525472E-1,3.1039262E-1,-2.6930692E-3,2.517621E-2,3.184395E-2,3.7430658E-3,-1.39153525E-2,1.0099058E-2,-1.3562356E-2,5.7382337E-3,-3.00132E-2,-6.4903446E-3,2.1218406E-2,-8.067175E-3,-3.290522E-2,1.7311506E-2,-2.1203376E-2,2.2752428E-2,1.27941E-2,-1.0183791E-3,-8.190176E-3,2.4091018E-2,4.450633E-2,1.4402222E-2,-1.3098702E-2,6.6238292E-3,2.8082766E-2,-1.7502384E-2],"categories":[],"categories_nodes":[],"categories_segments":[],"categories_sizes":[],"default_left":[0,0,0,0,0,0,0,0,0,0,0,0,0,0,0,0,0,0,0,0,0,0,0,0,0,0,0,0,0,0,0,0,0,0,0,0,0,0,0,0,0,0,0,0,0,0,0,0,0,0,0,0,0,0,0],"id":22,"left_children":[1,3,5,7,9,11,13,15,17,19,21,23,25,27,-1,29,31,33,35,37,39,41,43,45,-1,47,49,51,53,-1,-1,-1,-1,-1,-1,-1,-1,-1,-1,-1,-1,-1,-1,-1,-1,-1,-1,-1,-1,-1,-1,-1,-1,-1,-1],"loss_changes":[3.5930286E1,1.647806E1,2.0399452E1,8.738958E0,8.655136E0,1.0410133E1,5.2626095E0,5.444471E0,7.2981224E0,4.9617653E0,9.63026E0,4.8316345E0,4.235861E0,2.9862185E0,0E0,3.775055E0,3.0314264E0,5.8633204E0,7.72915E0,4.614937E0,1.2610928E0,8.9278965E0,1.0903728E1,3.9269867E0,0E0,1.5619285E0,2.1558647E0,2.8573985E0,3.3938196E0,0E0,0E0,0E0,0E0,0E0,0E0,0E0,0E0,0E0,0E0,0E0,0E0,0E0,0E0,0E0,0E0,0E0,0E0,0E0,0E0,0E0,0E0,0E0,0E0,0E0,0E0],"parents":[2147483647,0,0,1,1,2,2,3,3,4,4,5,5,6,6,7,7,8,8,9,9,10,10,11,11,12,12,13,13,15,15,16,16,17,17,18,18,19,19,20,20,21,21,22,22,23,23,25,25,26,26,27,27,28,28],"right_children":[2,4,6,8,10,12,14,16,18,20,22,24,26,28,-1,30,32,34,36,38,40,42,44,46,-1,48,50,52,54,-1,-1,-1,-1,-1,-1,-1,-1,-1,-1,-1,-1,-1,-1,-1,-1,-1,-1,-1,-1,-1,-1,-1,-1,-1,-1],"split_conditions":[7.05E1,7E0,8E0,2E0,5.3E1,1E0,8.99E1,6.74E1,1.2E1,1E0,5.94E1,9.6E1,1.1E1,1E0,2.7404914E-2,1E0,8.54E1,8.04E1,4.14E1,7.9E1,9E0,4.27E1,1E0,1E0,4.5388073E-2,7.57E1,5E0,9.92E1,1.4E1,-2.6930692E-3,2.517621E-2,3.184395E-2,3.7430658E-3,-1.39153525E-2,1.0099058E-2,-1.3562356E-2,5.7382337E-3,-3.00132E-2,-6.4903446E-3,2.1218406E-2,-8.067175E-3,-3.290522E-2,1.7311506E-2,-2.1203376E-2,2.2752428E-2,1.27941E-2,-1.0183791E-3,-8.190176E-3,2.4091018E-2,4.450633E-2,1.4402222E-2,-1.3098702E-2,6.6238292E-3,2.8082766E-2,-1.7502384E-2],"split_indices":[0,3,3,3,0,5,2,2,1,5,0,2,1,11,0,10,2,2,0,2,3,2,6,7,0,2,3,0,1,0,0,0,0,0,0,0,0,0,0,0,0,0,0,0,0,0,0,0,0,0,0,0,0,0,0],"split_type":[0,0,0,0,0,0,0,0,0,0,0,0,0,0,0,0,0,0,0,0,0,0,0,0,0,0,0,0,0,0,0,0,0,0,0,0,0,0,0,0,0,0,0,0,0,0,0,0,0,0,0,0,0,0,0],"sum_hessian":[1.0227586E3,6.225052E2,4.0025345E2,4.060654E2,2.164398E2,2.932447E2,1.0700874E2,8.070802E1,3.2535736E2,1.0191498E2,1.14524826E2,2.529594E2,4.0285305E1,1.00773674E2,6.2350693E0,5.1114624E1,2.9593397E1,1.4528563E2,1.8007173E2,9.429974E1,7.6152325E0,3.809403E1,7.643079E1,2.4727661E2,5.6827836E0,7.9355893E0,3.2349712E1,9.123752E1,9.536153E0,4.2641697E1,8.472926E0,2.0602358E1,8.99104E0,1.2738875E2,1.7896887E1,4.2680523E1,1.373912E2,7.744201E1,1.685773E1,3.6624792E0,3.9527533E0,5.873945E0,3.2220085E1,6.685217E1,9.578619E0,2.08363E2,3.8913612E1,4.687285E0,3.2483044E0,2.6489248E1,5.860465E0,7.806449E1,1.3173028E1,6.2989545E0,3.2371986E0],"tree_param":{"num_deleted":"0","num_feature":"15","num_nodes":"55","size_leaf_vector":"1"}},{"base_weights":[6.211403E-3,-1.2586652E-1,2.7407503E-1,-6.4128235E-2,-5.5971277E-1,5.8402723E-1,8.303333E-2,-1.9989364E-1,6.189535E-2,-9.3845844E-1,-3.4652713E-1,4.7555462E-1,4.0325962E-2,5.9216555E-2,5.7891244E-1,-3.2573423E-1,1.22086085E-1,4.844132E-1,-1.1868136E-2,-5.8696076E-2,-7.456824E-1,-4.372323E-1,2.307321E-2,5.486223E-1,4.83824E-2,3.5973202E-2,6.5653837E-1,5.52372E-3,3.7604924E-2,-1.4054488E-3,-1.7466618E-2,8.086428E-3,-5.644123E-2,6.9981534E-3,2.826771E-2,-9.58726E-3,2.5741975E-3,-2.2350872E-2,-4.7950063E-2,-2.1619517E-2,1.2692711E-2,2.5476746E-2,7.577922E-3,-8.4231E-3,3.2809876E-2,5.56969E-3,-4.1059777E-3,3.335972E-2,1.1769705E-2],"categories":[],"categories_nodes":[],"categories_segments":[],"categories_sizes":[],"default_left":[0,0,0,0,0,0,0,0,0,0,0,0,0,0,0,0,0,0,0,0,0,0,0,0,0,0,0,0,0,0,0,0,0,0,0,0,0,0,0,0,0,0,0,0,0,0,0,0,0],"id":23,"left_children":[1,3,5,7,9,11,13,15,17,19,21,23,-1,25,27,29,31,33,35,-1,37,39,-1,41,43,45,47,-1,-1,-1,-1,-1,-1,-1,-1,-1,-1,-1,-1,-1,-1,-1,-1,-1,-1,-1,-1,-1,-1],"loss_changes":[3.6192066E1,1.8316708E1,1.9955505E1,1.0294503E1,6.5564213E0,5.4394684E0,2.4478827E0,1.1771083E1,9.742839E0,1.9760151E0,4.9523325E0,3.2303486E0,0E0,2.7760797E0,1.3856838E0,6.704159E0,1.0362688E1,3.0721865E0,4.6511354E0,0E0,1.3710871E0,4.197027E0,0E0,2.7021103E0,3.438402E0,2.8080592E0,2.364626E-1,0E0,0E0,0E0,0E0,0E0,0E0,0E0,0E0,0E0,0E0,0E0,0E0,0E0,0E0,0E0,0E0,0E0,0E0,0E0,0E0,0E0,0E0],"parents":[2147483647,0,0,1,1,2,2,3,3,4,4,5,5,6,6,7,7,8,8,9,9,10,10,11,11,13,13,14,14,15,15,16,16,17,17,18,18,20,20,21,21,23,23,24,24,25,25,26,26],"right_children":[2,4,6,8,10,12,14,16,18,20,22,24,-1,26,28,30,32,34,36,-1,38,40,-1,42,44,46,48,-1,-1,-1,-1,-1,-1,-1,-1,-1,-1,-1,-1,-1,-1,-1,-1,-1,-1,-1,-1,-1,-1],"split_conditions":[7.38E1,1E1,4E0,6.01E1,4.91E1,1E0,1E0,6.33E1,2E0,5.1E1,8.65E1,1E0,4.0325962E-2,9.34E1,6.96E1,3E0,5.98E1,5.35E1,4.41E1,-5.8696076E-2,1E0,1E0,2.307321E-2,1E0,7.52E1,8E0,1E2,5.52372E-3,3.7604924E-2,-1.4054488E-3,-1.7466618E-2,8.086428E-3,-5.644123E-2,6.9981534E-3,2.826771E-2,-9.58726E-3,2.5741975E-3,-2.2350872E-2,-4.7950063E-2,-2.1619517E-2,1.2692711E-2,2.5476746E-2,7.577922E-3,-8.4231E-3,3.2809876E-2,5.56969E-3,-4.1059777E-3,3.335972E-2,1.1769705E-2],"split_indices":[0,3,3,2,0,5,4,0,3,2,2,7,0,2,2,3,2,0,0,0,10,6,0,6,2,3,2,0,0,0,0,0,0,0,0,0,0,0,0,0,0,0,0,0,0,0,0,0,0],"split_type":[0,0,0,0,0,0,0,0,0,0,0,0,0,0,0,0,0,0,0,0,0,0,0,0,0,0,0,0,0,0,0,0,0,0,0,0,0,0,0,0,0,0,0,0,0,0,0,0,0],"sum_hessian":[1.0210105E3,6.841839E2,3.368266E2,5.999553E2,8.422854E1,1.2765612E2,2.0917047E2,2.885326E2,3.1142276E2,2.910987E1,5.5118668E1,1.0334585E2,2.431027E1,2.0065266E2,8.51781E0,2.0744456E2,8.108802E1,4.546006E1,2.659627E2,6.0093417E0,2.310053E1,5.0667835E1,4.4508333E0,8.800782E1,1.5338026E1,1.941577E2,6.49496E0,4.45872E0,4.0590897E0,5.7674877E1,1.4976968E2,7.788807E1,3.1999524E0,1.9750435E1,2.5709625E1,6.614021E1,1.998225E2,1.793491E1,5.1656203E0,4.48184E1,5.8494334E0,7.002113E1,1.7986687E1,1.20293665E1,3.3086593E0,1.1126482E2,8.289288E1,3.4856822E0,3.0092773E0],"tree_param":{"num_deleted":"0","num_feature":"15","num_nodes":"49","size_leaf_vector":"1"}},{"base_weights":[-1.5220523E-2,-1.6727789E-1,2.286756E-1,-5.2693658E-2,-3.808326E-1,5.1100487E-1,-2.857734E-2,2.052182E-1,-1.1639481E-1,-7.447999E-1,-2.4106275E-1,4.1484383E-1,9.255886E-1,-5.5385794E-2,4.1904412E-2,-3.060119E-1,3.5520795E-1,-1.9585142E-1,1.8560207E-1,-5.522839E-2,-6.127174E-1,-5.389058E-1,-4.0419884E-2,4.7548482E-1,5.4904994E-2,-1.2698684E-2,1.067125E0,-1.7546026E-1,1.2759557E-1,4.6947305E-3,-3.040934E-2,2.7746398E-3,2.1646967E-2,-2.9306807E-2,-5.945441E-3,-9.2558353E-4,2.852611E-2,1.114812E-2,-2.771518E-2,-9.164379E-3,-3.076734E-2,-5.536745E-3,2.6074128E-2,1.6730508E-2,2.9499516E-2,-1.5237664E-2,1.2647827E-2,1.9929307E-2,4.6423968E-2,8.07102E-3,-1.0757221E-2,8.551721E-4,3.4115084E-2],"categories":[],"categories_nodes":[],"categories_segments":[],"categories_sizes":[],"default_left":[0,0,0,0,0,0,0,0,0,0,0,0,0,0,0,0,0,0,0,0,0,0,0,0,0,0,0,0,0,0,0,0,0,0,0,0,0,0,0,0,0,0,0,0,0,0,0,0,0,0,0,0,0],"id":24,"left_children":[1,3,5,7,9,11,13,15,17,19,21,23,25,27,-1,29,31,33,35,-1,37,39,41,43,45,-1,47,49,51,-1,-1,-1,-1,-1,-1,-1,-1,-1,-1,-1,-1,-1,-1,-1,-1,-1,-1,-1,-1,-1,-1,-1,-1],"loss_changes":[3.7599712E1,1.5260046E1,2.8294714E1,6.7196655E0,1.0904949E1,7.01894E0,5.9632554E0,6.326215E0,7.8941298E0,4.1917915E0,9.474836E0,3.303442E0,6.3468666E0,4.431076E0,0E0,3.7296824E0,3.3195586E0,6.474553E0,7.5845833E0,0E0,3.87043E0,4.3810577E0,6.6051216E0,1.6468048E0,2.75396E0,0E0,1.064251E0,4.3410215E0,6.1509647E0,0E0,0E0,0E0,0E0,0E0,0E0,0E0,0E0,0E0,0E0,0E0,0E0,0E0,0E0,0E0,0E0,0E0,0E0,0E0,0E0,0E0,0E0,0E0,0E0],"parents":[2147483647,0,0,1,1,2,2,3,3,4,4,5,5,6,6,7,7,8,8,9,9,10,10,11,11,12,12,13,13,15,15,16,16,17,17,18,18,20,20,21,21,22,22,23,23,24,24,26,26,27,27,28,28],"right_children":[2,4,6,8,10,12,14,16,18,20,22,24,26,28,-1,30,32,34,36,-1,38,40,42,44,46,-1,48,50,52,-1,-1,-1,-1,-1,-1,-1,-1,-1,-1,-1,-1,-1,-1,-1,-1,-1,-1,-1,-1,-1,-1,-1,-1],"split_conditions":[7.06E1,7E0,5E0,2E0,5.06E1,1E0,1E0,4.97E1,1E0,3.8E1,4.93E1,1E0,4.73E1,8.68E1,4.1904412E-2,1.3E1,4.91E1,2.91E1,6.24E1,-5.522839E-2,4.18E1,1.2E1,1.6E1,1E0,7.89E1,-1.2698684E-2,1.2E1,1E1,8.4E1,4.6947305E-3,-3.040934E-2,2.7746398E-3,2.1646967E-2,-2.9306807E-2,-5.945441E-3,-9.2558353E-4,2.852611E-2,1.114812E-2,-2.771518E-2,-9.164379E-3,-3.076734E-2,-5.536745E-3,2.6074128E-2,1.6730508E-2,2.9499516E-2,-1.5237664E-2,1.2647827E-2,1.9929307E-2,4.6423968E-2,8.07102E-3,-1.0757221E-2,8.551721E-4,3.4115084E-2],"split_indices":[0,3,3,3,2,5,14,2,8,0,0,7,2,0,0,1,0,0,0,0,0,1,1,10,0,0,1,1,2,0,0,0,0,0,0,0,0,0,0,0,0,0,0,0,0,0,0,0,0,0,0,0,0],"split_type":[0,0,0,0,0,0,0,0,0,0,0,0,0,0,0,0,0,0,0,0,0,0,0,0,0,0,0,0,0,0,0,0,0,0,0,0,0,0,0,0,0,0,0,0,0,0,0,0,0,0,0,0,0],"sum_hessian":[1.01181494E3,6.234428E2,3.8837213E2,4.0655157E2,2.1689127E2,1.8469127E2,2.0368085E2,8.008472E1,3.2646686E2,5.8978832E1,1.5791243E2,1.5154228E2,3.314899E1,1.9965584E2,4.0250072E0,1.7930294E1,6.2154423E1,2.587422E2,6.772465E1,8.517591E0,5.046124E1,6.2881893E1,9.503053E1,1.2941754E2,2.2124748E1,3.261507E0,2.9887484E1,1.2057455E2,7.90813E1,9.664042E0,8.266251E0,2.5039745E1,3.7114677E1,1.9743979E1,2.3899823E2,4.9209522E1,1.8515123E1,3.9590425E0,4.6502197E1,2.766229E1,3.52196E1,8.394698E1,1.1083551E1,1.0835003E2,2.1067505E1,8.120839E0,1.4003909E1,5.111096E0,2.4776388E1,2.371295E1,9.6861595E1,6.987735E1,9.203945E0],"tree_param":{"num_deleted":"0","num_feature":"15","num_nodes":"53","size_leaf_vector":"1"}},{"base_weights":[-1.4447222E-2,2.4108972E-1,-1.6137937E-1,9.238519E-2,5.747352E-1,-4.3082166E-1,-5.695872E-2,2.939176E-1,-2.4154868E-2,2.6630208E-1,7.10589E-1,-7.1643597E-1,-2.4955225E-1,3.1348433E-2,-2.7512667E-1,4.5049872E-2,5.097352E-1,-2.8642932E-1,6.375401E-2,6.690876E-1,-3.5308067E-2,9.9177486E-1,5.1254123E-1,-7.921916E-1,4.6269167E-3,6.3792473E-1,-3.1399736E-1,-6.1510254E-2,2.2088048E-1,-3.2735294E-1,4.2898214E-1,-1.8258017E-3,2.8314352E-2,4.086795E-2,1.6464168E-2,1.4006342E-3,-1.804923E-2,-3.106784E-3,9.679171E-3,1.6399395E-2,3.3917166E-2,-1.800222E-2,3.379785E-3,2.9145772E-2,4.402309E-2,-1.6743478E-3,2.6791729E-2,-1.2367184E-2,-3.6646187E-2,-5.55127E-4,4.8525963E-2,-1.8570423E-2,1.2603514E-3,6.6906223E-3,-5.56974E-3,-1.526386E-2,1.2534326E-2,3.64926E-3,-1.6564919E-2,-2.1383269E-3,2.612128E-2],"categories":[],"categories_nodes":[],"categories_segments":[],"categories_sizes":[],"default_left":[0,0,0,0,0,0,0,0,0,0,0,0,0,0,0,0,0,0,0,0,0,0,0,0,0,0,0,0,0,0,0,0,0,0,0,0,0,0,0,0,0,0,0,0,0,0,0,0,0,0,0,0,0,0,0,0,0,0,0,0,0],"id":25,"left_children":[1,3,5,7,9,11,13,15,17,19,21,23,25,27,29,31,33,35,37,39,41,43,45,47,-1,49,51,53,55,57,59,-1,-1,-1,-1,-1,-1,-1,-1,-1,-1,-1,-1,-1,-1,-1,-1,-1,-1,-1,-1,-1,-1,-1,-1,-1,-1,-1,-1,-1,-1],"loss_changes":[3.8325737E1,1.8437042E1,1.8208282E1,6.0895224E0,4.616955E0,9.184204E0,9.028741E0,5.077488E0,3.8228078E0,4.478773E0,3.8926392E0,4.4840355E0,6.6155143E0,5.895173E0,5.1050243E0,2.749511E0,2.129694E0,2.2198625E0,3.1544676E0,3.8231802E-1,1.1271819E0,1.0246086E-1,4.2509537E0,3.5483627E0,0E0,2.9876306E0,5.4785223E0,4.025965E0,6.2543526E0,4.623307E0,1.089363E0,0E0,0E0,0E0,0E0,0E0,0E0,0E0,0E0,0E0,0E0,0E0,0E0,0E0,0E0,0E0,0E0,0E0,0E0,0E0,0E0,0E0,0E0,0E0,0E0,0E0,0E0,0E0,0E0,0E0,0E0],"parents":[2147483647,0,0,1,1,2,2,3,3,4,4,5,5,6,6,7,7,8,8,9,9,10,10,11,11,12,12,13,13,14,14,15,15,16,16,17,17,18,18,19,19,20,20,21,21,22,22,23,23,25,25,26,26,27,27,28,28,29,29,30,30],"right_children":[2,4,6,8,10,12,14,16,18,20,22,24,26,28,30,32,34,36,38,40,42,44,46,48,-1,50,52,54,56,58,60,-1,-1,-1,-1,-1,-1,-1,-1,-1,-1,-1,-1,-1,-1,-1,-1,-1,-1,-1,-1,-1,-1,-1,-1,-1,-1,-1,-1,-1,-1],"split_conditions":[4E0,7.57E1,5.22E1,2E0,5.6E1,5.62E1,9E0,6E1,4.44E1,8.46E1,2E0,1E0,5.78E1,7.99E1,9.92E1,1.6E1,6.31E1,1.2E1,1.3E1,8.03E1,8.85E1,6.98E1,7.92E1,3.63E1,4.6269167E-3,5.71E1,7.98E1,5.16E1,4.37E1,5.94E1,5.31E1,-1.8258017E-3,2.8314352E-2,4.086795E-2,1.6464168E-2,1.4006342E-3,-1.804923E-2,-3.106784E-3,9.679171E-3,1.6399395E-2,3.3917166E-2,-1.800222E-2,3.379785E-3,2.9145772E-2,4.402309E-2,-1.6743478E-3,2.6791729E-2,-1.2367184E-2,-3.6646187E-2,-5.55127E-4,4.8525963E-2,-1.8570423E-2,1.2603514E-3,6.6906223E-3,-5.56974E-3,-1.526386E-2,1.2534326E-2,3.64926E-3,-1.6564919E-2,-2.1383269E-3,2.612128E-2],"split_indices":[3,0,0,3,2,2,3,2,0,0,3,5,2,0,0,1,2,1,1,0,0,2,0,2,0,2,2,2,2,0,2,0,0,0,0,0,0,0,0,0,0,0,0,0,0,0,0,0,0,0,0,0,0,0,0,0,0,0,0,0,0],"split_type":[0,0,0,0,0,0,0,0,0,0,0,0,0,0,0,0,0,0,0,0,0,0,0,0,0,0,0,0,0,0,0,0,0,0,0,0,0,0,0,0,0,0,0,0,0,0,0,0,0,0,0,0,0,0,0,0,0,0,0,0,0],"sum_hessian":[1.01871533E3,3.716754E2,6.470399E2,2.5797418E2,1.1370122E2,1.7984645E2,4.6719345E2,9.396271E1,1.6401149E2,3.5672665E1,7.802856E1,6.867982E1,1.11166626E2,3.331868E2,1.3400665E2,4.4201252E1,4.9761456E1,4.0606003E1,1.2340549E2,1.4752732E1,2.0919931E1,3.0589788E1,4.7438766E1,6.2992886E1,5.6869326E0,6.923535E0,1.04243095E2,2.2407816E2,1.0910863E2,1.25251396E2,8.755262E0,3.970006E1,4.501191E0,6.4900956E0,4.327136E1,1.4029327E1,2.6576675E1,6.9121254E1,5.4284233E1,7.3690386E0,7.3836937E0,4.0707335E0,1.6849197E1,1.1200109E1,1.9389679E1,1.0644581E1,3.6794186E1,1.357871E1,4.9414177E1,3.7032037E0,3.2203312E0,7.240841E1,3.1834679E1,5.653598E1,1.6754218E2,1.4103071E1,9.500556E1,2.1497007E1,1.0375439E2,3.0180278E0,5.7372346E0],"tree_param":{"num_deleted":"0","num_feature":"15","num_nodes":"61","size_leaf_vector":"1"}},{"base_weights":[-4.6848776E-4,4.2771688E-1,-6.7711525E-2,2.9149824E-1,7.977075E-1,-3.3296023E-3,-3.0130756E-1,2.4562134E-1,3.9326806E-2,9.908597E-1,4.4680503E-1,-4.5336857E-2,2.2505456E-1,-6.472352E-1,-1.660715E-1,3.006461E-2,1.7417784E-1,6.9576967E-1,4.502285E-2,5.91381E-1,2.027002E-4,8.631976E-2,-1.0949932E-1,6.144322E-1,1.6070275E-1,5.3674225E-3,-7.48071E-1,-1.2533502E-1,-3.9335318E-2,2.3848556E-3,2.0502333E-2,3.6498632E-2,1.4749896E-2,7.2862813E-3,2.9999156E-2,-2.9626165E-3,7.8090406E-3,-2.4606304E-3,-1.3389217E-2,3.1043615E-2,2.8552895E-3,-6.4557074E-3,1.0383986E-2,-3.58584E-2,-6.0333926E-3,-6.64706E-3,3.8255893E-2],"categories":[],"categories_nodes":[],"categories_segments":[],"categories_sizes":[],"default_left":[0,0,0,0,0,0,0,0,0,0,0,0,0,0,0,0,0,0,0,0,0,0,0,0,0,0,0,0,0,0,0,0,0,0,0,0,0,0,0,0,0,0,0,0,0,0,0],"id":26,"left_children":[1,3,5,7,9,11,13,15,-1,17,19,21,23,25,27,-1,29,31,-1,33,-1,35,37,39,41,-1,43,45,-1,-1,-1,-1,-1,-1,-1,-1,-1,-1,-1,-1,-1,-1,-1,-1,-1,-1,-1],"loss_changes":[2.9147074E1,6.692314E0,1.3157095E1,2.9951887E0,2.0242157E0,6.600047E0,8.73543E0,3.375255E0,0E0,1.1741638E-1,9.385743E-1,4.9174485E0,2.5793781E0,4.2593613E0,4.4461465E0,0E0,3.3144019E0,3.52283E-1,0E0,5.837426E-1,0E0,3.3494716E0,4.2058887E0,1.244267E0,3.0067587E0,0E0,4.0213547E0,5.9850073E0,0E0,0E0,0E0,0E0,0E0,0E0,0E0,0E0,0E0,0E0,0E0,0E0,0E0,0E0,0E0,0E0,0E0,0E0,0E0],"parents":[2147483647,0,0,1,1,2,2,3,3,4,4,5,5,6,6,7,7,9,9,10,10,11,11,12,12,13,13,14,14,16,16,17,17,19,19,21,21,22,22,23,23,24,24,26,26,27,27],"right_children":[2,4,6,8,10,12,14,16,-1,18,20,22,24,26,28,-1,30,32,-1,34,-1,36,38,40,42,-1,44,46,-1,-1,-1,-1,-1,-1,-1,-1,-1,-1,-1,-1,-1,-1,-1,-1,-1,-1,-1],"split_conditions":[2E0,7.52E1,9E0,1E0,8.54E1,8.01E1,5.06E1,9E0,3.9326806E-2,7.9E1,1.4E1,4E0,8.17E1,2.94E1,1E0,3.006461E-2,1.5E1,7.73E1,4.502285E-2,1E1,2.027002E-4,1.2E1,1E0,1.3E1,8.48E1,5.3674225E-3,1E0,1E0,-3.9335318E-2,2.3848556E-3,2.0502333E-2,3.6498632E-2,1.4749896E-2,7.2862813E-3,2.9999156E-2,-2.9626165E-3,7.8090406E-3,-2.4606304E-3,-1.3389217E-2,3.1043615E-2,2.8552895E-3,-6.4557074E-3,1.0383986E-2,-3.58584E-2,-6.0333926E-3,-6.64706E-3,3.8255893E-2],"split_indices":[3,2,3,4,2,2,2,1,0,2,1,3,2,2,13,0,1,2,0,1,0,1,10,1,2,0,8,4,0,0,0,0,0,0,0,0,0,0,0,0,0,0,0,0,0,0,0],"split_type":[0,0,0,0,0,0,0,0,0,0,0,0,0,0,0,0,0,0,0,0,0,0,0,0,0,0,0,0,0,0,0,0,0,0,0,0,0,0,0,0,0,0,0,0,0,0,0],"sum_hessian":[1.01030945E3,1.3639873E2,8.739107E2,1.0100118E2,3.5397537E1,6.858863E2,1.880244E2,9.598955E1,5.011637E0,2.1654308E1,1.374323E1,5.800059E2,1.058804E2,5.1782127E1,1.3624226E2,1.06984005E1,8.5291145E1,8.719297E0,1.2935011E1,1.0099131E1,3.6440995E0,1.8993272E2,3.9007318E2,1.3804517E1,9.207589E1,5.880537E0,4.590159E1,1.3087267E2,5.3696127E0,6.459809E1,2.0693056E1,4.167526E0,4.5517716E0,3.420889E0,6.6782417E0,7.694156E1,1.1299116E2,3.2261578E2,6.7457405E1,1.0307107E1,3.4974103E0,2.1481445E1,7.0594444E1,3.6365276E1,9.536314E0,1.26926834E2,3.9458246E0],"tree_param":{"num_deleted":"0","num_feature":"15","num_nodes":"47","size_leaf_vector":"1"}},{"base_weights":[1.7230371E-2,-1.074209E-1,2.687864E-1,-2.6454192E-1,-4.832505E-3,2.3133391E-1,3.590578E-2,-7.9137224E-1,-2.243013E-1,2.6406264E-1,-4.376648E-2,1.8035641E-1,5.8447516E-1,-5.436795E-1,-4.0378597E-2,-2.0007114E-1,-5.025162E-1,2.0747499E-1,3.207181E-2,-2.2517433E-2,-4.810006E-1,1.5834105E-1,3.580636E-2,-2.8460393E-2,7.1923953E-1,-4.0850513E-2,5.3388253E-3,-6.4629773E-3,-1.9790253E-2,-2.5297288E-2,-7.4812473E-4,-4.604215E-3,1.1358106E-2,-2.5758885E-3,1.0963763E-2,-3.119555E-2,-2.614857E-3,-2.3976424E-4,8.682948E-3,3.335086E-2,1.1263647E-2],"categories":[],"categories_nodes":[],"categories_segments":[],"categories_sizes":[],"default_left":[0,0,0,0,0,0,0,0,0,0,0,0,0,0,0,0,0,0,0,0,0,0,0,0,0,0,0,0,0,0,0,0,0,0,0,0,0,0,0,0,0],"id":27,"left_children":[1,3,5,7,9,11,-1,13,15,17,19,21,23,25,-1,27,29,31,-1,33,35,37,-1,-1,39,-1,-1,-1,-1,-1,-1,-1,-1,-1,-1,-1,-1,-1,-1,-1,-1],"loss_changes":[3.209995E1,1.1033805E1,7.780575E0,5.5552006E0,4.358343E0,5.681465E0,0E0,4.6639347E-1,1.6023998E0,1.4359248E0,3.366777E0,4.30149E0,7.515896E0,3.68292E0,0E0,2.5751114E0,1.2186675E0,1.2413194E0,0E0,4.3373256E0,2.0359998E0,2.656793E0,0E0,0E0,1.6109715E0,0E0,0E0,0E0,0E0,0E0,0E0,0E0,0E0,0E0,0E0,0E0,0E0,0E0,0E0,0E0,0E0],"parents":[2147483647,0,0,1,1,2,2,3,3,4,4,5,5,7,7,8,8,9,9,10,10,11,11,12,12,13,13,15,15,16,16,17,17,19,19,20,20,21,21,24,24],"right_children":[2,4,6,8,10,12,-1,14,16,18,20,22,24,26,-1,28,30,32,-1,34,36,38,-1,-1,40,-1,-1,-1,-1,-1,-1,-1,-1,-1,-1,-1,-1,-1,-1,-1,-1],"split_conditions":[7.38E1,5.17E1,1E0,1.81E1,5.47E1,1E0,3.590578E-2,1.3E1,1E0,1E0,7.29E1,1E0,9E0,1.1E1,-4.0378597E-2,1.6E1,1.5E1,5.22E1,3.207181E-2,